{"down.0.weight": [[0.11123690754175186, -0.04139453172683716, 0.09455204010009766, 0.09742388874292374, -0.15581899881362915, -0.012254149653017521, -0.012380042113363743, 0.09276939928531647, 0.08621414005756378, 0.007141595706343651, -0.0757962167263031, -0.13585075736045837, 0.12050005793571472, -0.0008438939694315195, 0.0038172570057213306, 0.05408423766493797, -0.12722031772136688, 0.11309121549129486, -0.051692862063646317, 0.16278831660747528, -0.09660619497299194, -0.0666760578751564, -0.3016090393066406, 0.10325486958026886, 0.06527131050825119, -0.15092553198337555, -0.15871694684028625, 0.030434640124440193, -0.04822961986064911, -0.18010179698467255, -0.06971468031406403, 0.11730770021677017, 0.0490870364010334, 0.09347175061702728, -0.150518536567688, -0.006786165293306112, 0.11774954199790955, 0.07435910403728485, 0.06879226118326187, 0.08425640314817429, -0.0031180286314338446, -0.07938092947006226, -0.10120535641908646, -0.09748496860265732, -0.1478537768125534, -0.05896962806582451, 0.010339835658669472, -0.11978763341903687, -0.052035581320524216, 0.09917068481445312, 0.12644661962985992, 0.13026008009910583, 0.016227422282099724, 0.04474238306283951, -0.0034570712596178055, -0.06577078998088837, 0.18405573070049286, -0.12395631521940231, 0.013033488765358925, 0.1611347645521164, -0.2519817352294922, 0.037779901176691055, 0.08446837961673737, 0.11094722896814346, 0.01815221644937992, -0.08320408314466476, -0.06306350231170654, -0.13929706811904907, 0.08046980202198029, -0.0006475786212831736, -0.16988228261470795, -0.34347817301750183, -0.05868174880743027, -0.07690170407295227, 0.04036174342036247, 0.12788847088813782, -0.004257352091372013, 0.04452574998140335, 0.1604265570640564, -0.10503549873828888, 0.006908379029482603, 0.07498814165592194, 0.14667226374149323, -0.11286719143390656, -0.04364800080657005, -0.06342946738004684, 0.05266759917140007, 0.013273339718580246, 0.10215535759925842, -0.03119102492928505, -0.0980859324336052, -0.1332818567752838, 0.09823249280452728, -0.01882024109363556, -0.027646221220493317, -0.07796373963356018, 0.04724043235182762, 0.18744124472141266, 0.05401132255792618, 0.21633324027061462, -0.08903970569372177, 0.07886488735675812, 0.06448113918304443, -0.10815008729696274, -0.03208455815911293, 0.08603838831186295, -0.045973315834999084, -0.04103604331612587, 0.03582726791501045, -0.01052843127399683, 0.08565927296876907, 0.0698714405298233, -0.17880286276340485, -0.011926849372684956, -0.07533077895641327, 0.02043069899082184, 0.037754107266664505, -0.07052412629127502, -0.09911223500967026, 0.18304532766342163, 0.052647050470113754, 0.16323071718215942, 0.0393732413649559, -0.18020738661289215, -0.015421083196997643, 0.10647540539503098, -0.03420162573456764, 0.015506774187088013], [0.049884963780641556, 0.03957871347665787, 0.0927451103925705, -0.0994114875793457, 0.03660575672984123, -0.08158565312623978, -0.12242971360683441, -0.022979633882641792, -0.0038535126950591803, 0.07077731192111969, -0.03982682153582573, -0.031504370272159576, 0.0823226347565651, 0.007629840634763241, -0.07278162240982056, 0.12312372773885727, -0.014734160155057907, 0.20711611211299896, 0.03736865893006325, -0.18200676143169403, -0.011632776819169521, -0.11825655400753021, 0.15770384669303894, -0.00945455301553011, 0.06674487143754959, -0.10779008269309998, -0.04353518784046173, -0.10995536297559738, 0.06955550611019135, 0.2545599639415741, 0.03304251655936241, -0.012700850144028664, 0.08968488872051239, -0.014839734882116318, -0.10657413303852081, -0.03267262130975723, -0.06941162794828415, 0.10689689218997955, 0.10593721270561218, 0.017894895747303963, -0.017905164510011673, -0.07314614206552505, -0.03126216307282448, 0.003421613248065114, -0.15111759305000305, 0.08347166329622269, 0.0573638416826725, 0.13495999574661255, 0.05835060030221939, 0.18588387966156006, 0.20496606826782227, 0.06723779439926147, -0.04821496456861496, 0.021655600517988205, -0.054814573377370834, -0.012805274687707424, -0.1401461958885193, 0.09686513245105743, 0.12283314019441605, 0.07154224067926407, 0.08646821975708008, 0.16948845982551575, 0.001943978015333414, 0.0775805413722992, 0.026632720604538918, -0.22056858241558075, -0.030608246102929115, 0.06716263294219971, -0.022242125123739243, 0.13151487708091736, 0.2246132642030716, -0.0786377564072609, -0.10971049219369888, 0.13687139749526978, -0.1978999376296997, 0.17553651332855225, 0.0257762111723423, -0.05683617293834686, 0.17389869689941406, 0.021447187289595604, -0.12659013271331787, 0.05813300609588623, -0.028552887961268425, 0.1266421526670456, -0.1381244659423828, -0.06406504660844803, 0.010353296995162964, 0.11181250959634781, -0.08094628900289536, 0.057430922985076904, 0.055518824607133865, -0.14241448044776917, -0.0177304670214653, 0.10769309103488922, 0.06997168064117432, -0.1929560750722885, -0.17630483210086823, 0.12563474476337433, -0.232540100812912, 0.10546066612005234, 0.017637748271226883, 0.07502371817827225, 0.1119629368185997, -0.05985141918063164, -0.02421252429485321, -0.03738139197230339, 0.12491036206483841, 0.12423106282949448, -0.03203880414366722, -0.03225456178188324, -0.06609901040792465, 0.0774066224694252, -0.018374260514974594, 0.09767336398363113, 0.050253212451934814, -0.19751885533332825, 0.05741245299577713, -0.060899849981069565, 0.08706113696098328, 0.023107754066586494, -0.02283385582268238, 0.06793415546417236, -0.02972649782896042, 0.03462151065468788, -0.12887807190418243, 0.006550505291670561, -0.1003456562757492, -0.13412295281887054], [0.1366226077079773, -0.024315569549798965, 0.188345268368721, 0.12913250923156738, -0.26607951521873474, 0.11199966073036194, -0.0217656921595335, -0.13246946036815643, -0.05105330049991608, 0.09082937985658646, 0.0003074250416830182, 0.00310278357937932, -0.22827373445034027, 0.3166983723640442, -0.0037487386725842953, 0.18617215752601624, 0.0912955030798912, -0.012322723865509033, 0.14048488438129425, -0.08838940411806107, 0.18606512248516083, 0.11692320555448532, 0.03503696620464325, -0.023451490327715874, -0.08662618696689606, 0.01967201754450798, 0.22180235385894775, -0.06872519850730896, 0.003181577892974019, 0.031720343977212906, -0.12885785102844238, 0.014839245937764645, -0.07848413288593292, 0.018033139407634735, -0.06728389114141464, -0.12524446845054626, 0.10625040531158447, 0.03307288512587547, 0.062414102256298065, -0.034340750426054, 0.030182424932718277, 0.06743384152650833, -0.21827848255634308, -0.02391755022108555, 0.08646873384714127, 0.013810991309583187, -0.07260435819625854, -0.15222246944904327, -0.1009715124964714, -0.04279594495892525, -0.11731274425983429, 0.07126087695360184, -0.10687443614006042, 0.12400572001934052, -0.01553031150251627, 0.010995134711265564, -0.13414037227630615, 0.08574236929416656, 0.04079610854387283, -0.021904198452830315, -0.06782743334770203, -0.10812590271234512, 0.11495561897754669, -0.10886010527610779, 0.0580165833234787, 0.03961149603128433, -0.06408784538507462, 0.07919732481241226, -0.014703527092933655, 0.03072868101298809, -0.0744890496134758, -0.0540621280670166, -0.004052466247230768, -0.032104216516017914, 0.19426436722278595, 0.10296498984098434, -0.14104603230953217, -0.014077088795602322, 0.05578726902604103, 0.18156470358371735, 0.04549526423215866, 0.12170646339654922, -0.05226453021168709, 0.1119336411356926, -0.03120194375514984, -0.0248824842274189, -0.16830958425998688, -0.09732215106487274, 0.059010278433561325, -0.06815147399902344, 0.06411395967006683, 0.01694800890982151, 0.030466903001070023, 0.022978566586971283, -0.15893734991550446, 0.03752070292830467, -0.06780806183815002, -0.026502298191189766, -0.012859645299613476, -0.03575262799859047, 0.011776179075241089, 0.06448058784008026, 0.05839310586452484, -0.06036024168133736, 0.07179797440767288, -0.017687050625681877, -0.23994646966457367, -0.14065685868263245, -0.01637795940041542, 0.20245084166526794, 0.09014284610748291, 0.026233842596411705, 0.09773437678813934, -0.002763673895969987, 0.027478214353322983, 0.1652746945619583, -0.02413971535861492, 0.16983452439308167, 0.06617248803377151, 0.047282874584198, -0.1212141141295433, 0.10823516547679901, -0.021838614717125893, 0.09775818884372711, 0.09081444144248962, -0.02420031651854515, -0.12214451283216476, 0.05070295184850693], [-0.00597963435575366, 0.0441170297563076, -0.008924057707190514, 0.006878132000565529, 0.009407103061676025, -0.12181265652179718, 0.07715336233377457, 0.20502418279647827, -0.05387735366821289, 0.006379087455570698, -0.0770118311047554, 0.03753760829567909, 0.1784432828426361, 0.04089641943573952, 0.004350890871137381, 0.01415809616446495, -0.039961665868759155, -0.06007610633969307, -0.032427724450826645, -0.1404859572649002, 0.28928130865097046, -0.1855940818786621, 0.14492444694042206, 0.07808123528957367, 0.09435737133026123, 0.09221070259809494, -0.014336449094116688, -0.038688816130161285, 0.07664206624031067, 0.10998652130365372, 0.11630000919103622, -0.01253658626228571, -0.01797165535390377, 0.0887603908777237, 0.05335882306098938, -0.05393699184060097, 0.06000944599509239, -0.02289704792201519, 0.10930295288562775, -0.07426421344280243, -0.16305330395698547, -0.1208854392170906, 0.1437985897064209, 0.1774376481771469, -0.05498530715703964, -0.12101813405752182, 0.05455710366368294, 0.116846464574337, -0.013423710130155087, -0.03513144329190254, 0.15484724938869476, 0.057476956397295, 0.16419774293899536, -0.016054583713412285, -0.16415251791477203, 0.19294600188732147, -0.015672339126467705, -0.04342436417937279, -0.12316235154867172, 0.11152497678995132, -0.2457280308008194, 0.24768424034118652, -0.08070528507232666, 0.007849186658859253, -0.0494723804295063, 0.15980087220668793, 0.015601378865540028, 0.017883455380797386, 0.11327043920755386, 0.002032842952758074, -0.02529527246952057, 0.01199409831315279, -0.07004029303789139, 0.037390951067209244, -0.2817607820034027, -0.0050086104311048985, 0.17309415340423584, 0.021704059094190598, 0.06622663885354996, 0.17030782997608185, 0.0309072844684124, 0.13269846141338348, 0.14833462238311768, -0.10779759287834167, -0.057788021862506866, -0.034326083958148956, 0.0555456206202507, -0.05145041644573212, -0.03805031627416611, -0.17316973209381104, 0.09728741645812988, 0.1670195311307907, 0.007715313695371151, 0.11557970941066742, -0.23098596930503845, 0.02070528455078602, -0.03915991634130478, 0.10846595466136932, -0.08653442561626434, -0.03034849837422371, 0.0762319564819336, 0.012614286504685879, -0.07000283896923065, 0.06165776774287224, 0.07251182943582535, -0.252933144569397, -0.07381647080183029, 0.08942288905382156, 0.06209080293774605, -0.024768203496932983, -0.12184245139360428, 0.012687909416854382, 0.016389988362789154, -0.2371630072593689, -0.23466506600379944, 0.008938918821513653, -0.0748995989561081, -0.0650353878736496, 0.09799510985612869, -0.15087376534938812, -0.006216948851943016, -0.3202182352542877, 0.029586032032966614, 0.055460378527641296, -0.022540388628840446, -0.1568555235862732, -0.24385949969291687, -0.08095113933086395], [0.04476750269532204, -0.09715058654546738, 0.04877821356058121, 0.23628860712051392, -0.08316966146230698, 0.06614973396062851, -0.17560966312885284, 0.020909029990434647, -0.13099145889282227, -0.07186419516801834, -0.07476983219385147, 0.015083729289472103, -0.05892544612288475, 0.06684273481369019, -0.04740457236766815, -0.10011482983827591, -0.12186536937952042, -0.26182350516319275, -0.017872121185064316, 0.070789635181427, 0.1152050718665123, -0.06800921261310577, 0.09166759997606277, 0.10326450318098068, -0.13248826563358307, 0.05948248505592346, -0.0882185623049736, -0.11372361332178116, -0.0031162460800260305, -0.026308443397283554, -0.03839044272899628, 0.06115412712097168, -0.10183879733085632, 0.051494281738996506, -0.03280878812074661, -0.08372081071138382, 0.07040441781282425, -0.08881654590368271, -0.02378665655851364, -0.029958225786685944, -0.05330770090222359, 0.046405475586652756, 0.018586672842502594, 0.06695624440908432, -0.23652908205986023, -0.1538046896457672, -0.11185736954212189, 0.17843398451805115, 0.04725145921111107, -0.02272111177444458, 0.1590314358472824, 0.0978279858827591, -0.010593538172543049, -0.017318114638328552, -0.033056363463401794, -0.08902519196271896, -0.05859624221920967, -0.041107337921857834, -0.01687096245586872, -0.10687913745641708, 0.053361695259809494, 0.007027477491647005, 0.12109776586294174, -0.07917764782905579, -0.011811318807303905, -0.1658484935760498, -0.031636252999305725, -0.1957939863204956, 0.10168889909982681, 0.09965028613805771, 0.012415601871907711, -0.04950126260519028, -0.036653563380241394, 0.05961044877767563, -0.15898637473583221, -0.012562706135213375, -0.002502807881683111, 0.05732070654630661, -0.10485054552555084, -0.05120689794421196, 0.17947562038898468, -0.0705704540014267, 0.057040560990571976, -0.18264786899089813, -0.048374079167842865, -0.16464251279830933, 0.007834004238247871, 0.12505611777305603, -0.04205140471458435, -0.26309314370155334, -0.09593798965215683, -0.024199500679969788, 0.046539198607206345, 0.11326748877763748, 0.20716995000839233, 0.057182468473911285, -0.11414628475904465, 0.031941842287778854, 0.07089391350746155, 0.0020518633536994457, 0.15088443458080292, -0.14064422249794006, 0.07825570553541183, -0.0892854779958725, 0.08671492338180542, 0.021943846717476845, -0.021034318953752518, 0.07151702046394348, 0.0748051330447197, -0.10334574431180954, 0.07605763524770737, 0.06387156248092651, 0.04098030924797058, 0.1311388611793518, -0.20373816788196564, 0.10243592411279678, -0.012723920866847038, -0.11958768218755722, 0.06807713210582733, 0.26235660910606384, 0.11387943476438522, -0.08016626536846161, 0.027356203645467758, 0.13268423080444336, 0.19787487387657166, -0.12055104225873947, -0.1455269157886505, 0.09467976540327072], [-0.021836550906300545, -0.028078483417630196, 0.010375987738370895, -0.023131338879466057, 0.0734143927693367, 0.01890413463115692, 0.1146484836935997, -0.20521432161331177, -0.056451041251420975, -0.09078678488731384, 0.13704891502857208, -0.14783906936645508, -0.09355514496564865, -0.09240768849849701, 0.014993810094892979, 0.014067395590245724, -0.006558189168572426, -0.26047730445861816, 0.008880491368472576, 0.2569896876811981, 0.014164346270263195, -0.2052796632051468, 0.07306615263223648, -0.030533604323863983, 0.011259534396231174, 0.107089564204216, 0.07690369337797165, 0.009729946032166481, 0.0006865053437650204, 0.07206368446350098, 0.04823967441916466, 0.06924818456172943, 0.20836423337459564, -0.11614975333213806, -0.12206429988145828, 0.06793475151062012, -0.045713409781455994, -0.019314538687467575, -0.05257511883974075, 0.07920576632022858, 0.1101757138967514, 0.027648355811834335, 0.051963988691568375, 0.0010992143070325255, -0.043744709342718124, 0.20579686760902405, 0.12230053544044495, 0.01409087423235178, 0.09912121295928955, 0.0683390349149704, 0.080806203186512, -0.007814520038664341, -0.01312435232102871, 0.07085632532835007, 0.10334334522485733, 0.1608615219593048, 0.03061930276453495, 0.13876260817050934, 0.11010025441646576, -0.17672333121299744, 0.12466578930616379, 0.09703398495912552, -0.13632552325725555, 0.09917445480823517, -0.03896186128258705, 0.21730484068393707, 0.11012514680624008, 0.09303552657365799, -0.03286929428577423, -0.20489759743213654, 0.030787890776991844, 0.06131698191165924, 0.06911402195692062, -0.09203214943408966, 0.09401760250329971, -0.020419012755155563, -0.0034881727769970894, 0.11942227929830551, -0.07947047054767609, 0.13872578740119934, -0.23807941377162933, -0.04679958522319794, -0.21065358817577362, 0.0881277322769165, 0.08904892951250076, 0.08918332308530807, 0.2855645418167114, -0.06309635192155838, 0.22431164979934692, -0.014404691755771637, -0.03674032539129257, 0.033300742506980896, 0.1860741227865219, -0.026665184646844864, -0.3143862187862396, 0.05751710757613182, -0.1146845817565918, -0.1255931407213211, -0.20972612500190735, 0.004469297360628843, -0.2074001580476761, 0.1977631151676178, -0.030020209029316902, 0.009524032473564148, 0.20687589049339294, 0.0326482318341732, -0.10374486446380615, 0.04219672083854675, -0.008839876390993595, 0.03983469679951668, 0.027743613347411156, 0.01655077002942562, -0.008947426453232765, -0.0779193565249443, 0.03075500577688217, 0.06544405221939087, -0.01672741025686264, 0.012317303568124771, -0.17365729808807373, -0.08472765237092972, -0.09962397813796997, 0.0842573493719101, 0.005230860318988562, 0.20120234787464142, 0.06958693265914917, -0.0005066077574156225, -0.18197070062160492, 0.1225428655743599], [0.06623411178588867, -0.06156957894563675, -0.12086920440196991, -0.16282378137111664, -0.08303910493850708, 0.013772592879831791, 0.13358435034751892, -0.1009494885802269, -0.09224694967269897, -0.03359924629330635, 0.10617464035749435, -0.0011691070394590497, -0.07738751918077469, -0.1487976759672165, 0.041344232857227325, 0.09254595637321472, -0.07331344485282898, -0.08827295154333115, 0.09327754378318787, 0.013620213605463505, 0.08147833496332169, 0.050100792199373245, 0.12000308930873871, 0.02638537809252739, 0.0006919191800989211, 0.14205104112625122, 0.1429808884859085, 0.1275845617055893, -0.12557215988636017, 0.09945245832204819, -0.14791281521320343, -0.03371758386492729, -0.11115776002407074, 0.050602417439222336, -0.12658609449863434, 0.0041447472758591175, 0.011821488849818707, -0.0011415972840040922, -0.07046045362949371, -0.121339350938797, 0.16026638448238373, 0.04550869017839432, 0.010067081078886986, 0.060731325298547745, -0.2529427707195282, -0.11111347377300262, 0.04207849130034447, 0.041490327566862106, -0.062289293855428696, 0.0450182668864727, 0.13901501893997192, -0.04796191304922104, -0.02867058664560318, -0.016259610652923584, -0.07376809418201447, -0.17689573764801025, 0.16328468918800354, -0.03141441568732262, 0.05020904541015625, -0.019439758732914925, -0.059433165937662125, 0.11954880505800247, 0.0423099584877491, -0.12574423849582672, 0.09178254008293152, -0.03960606828331947, 0.17422181367874146, -0.0765722468495369, -0.054598141461610794, 0.21570158004760742, 0.08662992715835571, -0.024261603131890297, 0.16206094622612, 0.02969653718173504, -0.04226208105683327, -0.18188819289207458, -0.21950924396514893, 0.027725007385015488, -0.11224587261676788, 0.13543850183486938, 0.09942668676376343, -0.09291442483663559, 0.03099873661994934, -0.024005308747291565, 0.03639959916472435, -0.0827278196811676, -0.1339530646800995, -0.05993058532476425, 0.10360439121723175, 0.023462776094675064, -0.13359497487545013, -0.019743183627724648, 0.17371201515197754, -0.06984339654445648, 0.1318071186542511, 0.07718828320503235, 0.037576206028461456, 0.01181226409971714, -0.08015173673629761, 0.1747964471578598, -0.003514304757118225, 0.10509251803159714, 0.05425797402858734, 0.2180251032114029, 0.026750769466161728, 0.13324639201164246, -0.24755270779132843, 0.0712885782122612, 0.060906633734703064, 0.05837718024849892, -0.010878458619117737, -0.17273491621017456, -0.08202417194843292, 0.04603387787938118, -0.24211198091506958, 0.09626426547765732, 0.057051241397857666, -0.11924421042203903, -0.03083682805299759, 0.011337564326822758, -0.04462823271751404, -0.13190656900405884, -0.09072807431221008, -0.0146208880469203, 0.035178832709789276, 0.15528351068496704, 0.04572639986872673, 0.0661577582359314], [0.07843860238790512, 0.2571396827697754, -0.0070700570940971375, -0.08064340800046921, 0.09445730596780777, 0.05549122765660286, -0.15102703869342804, -0.08514135330915451, 0.0512971505522728, -0.044202014803886414, -0.1295611411333084, -0.08251094073057175, 0.09817533940076828, -0.007708514574915171, -0.14716151356697083, -0.16183659434318542, 0.32201939821243286, -0.12666435539722443, 0.09698197990655899, -0.042865581810474396, -0.10256515443325043, -0.12321893870830536, -0.15382541716098785, 0.040870726108551025, 0.09118743240833282, -0.022936120629310608, 0.05642327293753624, 0.020214295014739037, 0.20958736538887024, 0.08408740907907486, 0.05933196842670441, 0.05177313834428787, -0.05550026893615723, 0.07701491564512253, -0.1121242493391037, 0.06723205745220184, 0.12487725913524628, -0.1099613606929779, 0.058279845863580704, -0.04001066833734512, 0.1785695105791092, 0.12495981156826019, 0.1270420402288437, 0.030727503821253777, -0.07541874796152115, -0.08819569647312164, 0.04427657648921013, -0.13240282237529755, 0.08228027075529099, 0.02075125277042389, -0.04264455661177635, 0.041272565722465515, 0.18079055845737457, 0.07434623688459396, -0.06061304733157158, -0.0436318963766098, 0.08034699410200119, -0.06897347420454025, -0.11888260394334793, 0.10366170853376389, -0.007709740195423365, 0.014491120353341103, 0.09534808993339539, 0.1861404925584793, -0.052728671580553055, -0.10119316726922989, -0.09027444571256638, -0.10630523413419724, -0.03900568559765816, -0.015955768525600433, 0.0036327140405774117, -0.16527512669563293, -0.043681610375642776, -0.06832176446914673, 0.05002599209547043, 0.022478336468338966, 0.008953575044870377, 0.07228204607963562, 0.126825213432312, 0.056239549070596695, -0.16856250166893005, -0.013302589766681194, 0.01612434908747673, -0.06409115344285965, -0.020614510402083397, -0.07507918775081635, -0.04540347680449486, 0.025860195979475975, -0.024307159706950188, 0.11246900260448456, -0.06356769800186157, -0.05532583221793175, 0.1074795350432396, -0.12019599229097366, -0.11394096165895462, -0.10746829211711884, 0.056779295206069946, 0.0006963217747397721, -0.14565569162368774, -0.06428631395101547, -0.2963036000728607, 0.17923109233379364, 0.14727292954921722, -0.11389405280351639, 0.024932239204645157, 0.003776929108425975, -0.028134973719716072, -0.1022772565484047, -0.04845885932445526, -0.1779220849275589, -0.11801764369010925, 0.016707750037312508, 0.009487900882959366, 0.13393518328666687, 0.09407889097929001, -0.030652135610580444, 0.15418186783790588, -0.05643207207322121, -0.02747178077697754, 0.15626396238803864, -0.03442113846540451, 0.033943407237529755, 0.09275850653648376, -0.004963870160281658, -0.012453577481210232, 0.10451836884021759, -0.2626899182796478, -0.15631194412708282], [-0.002528728451579809, 0.05478232353925705, 0.15546447038650513, 0.24544212222099304, -0.027663610875606537, -0.026294514536857605, -0.0186019204556942, -0.07616142928600311, -0.1045263260602951, 0.22836603224277496, -0.07388247549533844, -0.25735384225845337, 0.1581106036901474, -0.04235004261136055, -0.12627631425857544, 0.010788829065859318, -0.13528616726398468, -0.13033951818943024, -0.17313021421432495, -0.0716039314866066, -0.013157731853425503, 0.09767906367778778, -0.028529774397611618, -0.08980235457420349, 0.04211121052503586, -0.10073376446962357, -0.019355006515979767, -0.0011683589546009898, -0.14636678993701935, 0.04753187671303749, 0.04121382534503937, -0.018116189166903496, -0.12651017308235168, -0.17886888980865479, 0.027423063293099403, 0.10857482254505157, -0.017100710421800613, 0.06583686918020248, 0.197418674826622, -0.01807750016450882, -0.16310185194015503, -0.16933870315551758, 0.06471701711416245, -0.09592337161302567, 0.008718762546777725, 0.06855348497629166, -0.19724178314208984, 0.07604102790355682, 0.14408943057060242, 0.08391806483268738, 0.0002872528275474906, 0.15902312099933624, 0.08162742108106613, 0.11683414876461029, 0.03772694244980812, -0.1588543951511383, -0.03910929709672928, 0.08985260874032974, -0.1885792762041092, -0.19730497896671295, 0.013524847105145454, -0.027018938213586807, 0.0846104845404625, 0.06696052104234695, 0.0943058505654335, 0.36157500743865967, -0.05372721701860428, 0.015475410036742687, 0.045361991971731186, 0.07477392256259918, 0.04093490168452263, 0.16841645538806915, 0.05507740378379822, -0.04128418490290642, -0.10841426998376846, 0.10536399483680725, -0.14360305666923523, -0.10994984209537506, -0.026230864226818085, 0.022337105125188828, 0.1366862952709198, 0.05619056522846222, -0.2127736657857895, -0.10353939980268478, -0.10568974912166595, -0.24315208196640015, 0.0851198136806488, 0.18376044929027557, -0.2615262269973755, 0.07490850239992142, 0.155400812625885, 0.11321281641721725, -0.14109325408935547, 0.0876634493470192, -0.058645475655794144, -0.02704746276140213, 0.11703397333621979, -0.14194950461387634, 0.15349406003952026, -0.12677603960037231, 0.2789565622806549, -0.05452144145965576, -0.14172649383544922, -0.004258205648511648, -0.07778792083263397, 0.08186964690685272, 0.012776153162121773, 0.028196260333061218, 0.06375905871391296, 0.12770088016986847, 0.010327372699975967, 0.019285380840301514, -0.05513640493154526, 0.07705250382423401, 0.08447028696537018, 0.04884684085845947, -0.07582832127809525, -0.08213125169277191, -0.02063056267797947, -0.03801935538649559, 0.08525935560464859, 0.16983482241630554, -0.08836659789085388, -0.06731299310922623, 0.20008061826229095, 0.03313913196325302, 0.16600647568702698, 0.08549702912569046], [-0.049686234444379807, 0.05584152042865753, -0.028008829802274704, 0.33039548993110657, -0.285822331905365, -0.15796704590320587, -0.057951077818870544, -0.03266916051506996, 0.09902012348175049, 0.19005581736564636, -0.1385718733072281, 0.06813443452119827, 0.1048881784081459, 0.24035800993442535, -0.08204691112041473, 0.015605200082063675, -0.18391923606395721, 0.06273631006479263, -0.0178240854293108, -0.05464965105056763, 0.04682690650224686, 0.1083173081278801, 0.00300497654825449, -0.10204179584980011, 0.0006090461392886937, 0.06773607432842255, -0.07209011912345886, 0.018983764573931694, -0.07012679427862167, -0.08738917112350464, 0.0915522351861, -0.05986396223306656, -0.053022049367427826, 0.0915343165397644, -0.1921532154083252, 0.017902599647641182, 0.10683373361825943, -0.15627999603748322, 0.03461776673793793, 0.08913947641849518, -0.0007993942708708346, 0.1335967630147934, 0.12013427913188934, 0.019189558923244476, 0.150563582777977, -0.06521935015916824, -0.12779761850833893, 0.20251871645450592, 0.03332036733627319, 0.09134028106927872, 0.10213074088096619, 0.08733048290014267, 0.11312447488307953, -0.05334866791963577, -0.13906137645244598, -0.21543177962303162, 0.0898691788315773, -0.12817175686359406, -0.055546678602695465, 0.1443546563386917, -0.04347774386405945, 0.10402990132570267, 0.07012017071247101, 0.04018672555685043, 0.16608382761478424, 0.0072547439485788345, 0.12001354992389679, -0.35104605555534363, 0.0015713084721937776, -0.027424106374382973, 0.06152923405170441, 0.02341816946864128, -0.07433358579874039, -0.0461604967713356, 0.012744409032166004, -0.044948022812604904, 0.07184124737977982, 0.15376044809818268, -0.0064699393697083, 0.15361563861370087, 0.08853064477443695, -0.02309238910675049, 0.02902558073401451, 0.10658343136310577, 0.18010012805461884, -0.06294749677181244, -0.2517765164375305, 0.03129526600241661, 0.04157315194606781, -0.25711342692375183, 0.07357157766819, -0.11707797646522522, 0.06261026859283447, -0.005726358387619257, 0.014932275749742985, -0.1942366659641266, -0.06440490484237671, -0.1497373729944229, 0.17834164202213287, -0.028361553326249123, 0.1791260689496994, 0.07700373977422714, 0.014938229694962502, -0.06778126209974289, 0.01358665432780981, -0.05294589698314667, 0.007870202884078026, -0.08285941183567047, -0.11494534462690353, 0.019256213679909706, -0.004196764901280403, 0.13643814623355865, 0.011747133918106556, 0.08867914974689484, -0.1174042820930481, 0.09011337161064148, -0.1855030357837677, 0.18690456449985504, 0.16965675354003906, 0.22817455232143402, -0.005435159429907799, -0.0967421904206276, -0.029711801558732986, 0.17141734063625336, 0.044021233916282654, -0.004474679473787546, -0.2526096999645233, 0.15784138441085815], [-0.061449289321899414, 0.12262240797281265, -0.12448999285697937, 0.07224342226982117, 0.05223804712295532, 0.014784452505409718, 0.10278370976448059, 0.03361854329705238, 0.015581938438117504, -0.024991720914840698, 0.04520197585225105, -0.032014328986406326, -0.27811694145202637, -0.011895468458533287, 0.07701688259840012, 0.07149085402488708, -0.25281429290771484, 0.1476462185382843, -0.12963777780532837, -0.01738044060766697, -0.03672465682029724, 0.04028613865375519, 0.13141536712646484, -0.049027152359485626, 0.099037304520607, -0.05844651162624359, -0.09220345318317413, -0.03693307936191559, -0.11877284944057465, -0.0980188325047493, 0.06173613667488098, 0.056272994726896286, -0.07880256325006485, 0.2795766294002533, 0.057421065866947174, -0.008534703403711319, 0.22825010120868683, -0.03969314321875572, 0.11947104334831238, 0.23290549218654633, 0.1023901030421257, -0.21225766837596893, 0.10210432857275009, 0.07341542094945908, -0.05243797227740288, -0.0692521184682846, -0.07837133854627609, 0.14437779784202576, 0.06972284615039825, -0.02247508428990841, -0.04909232631325722, -0.05705647170543671, -0.21644917130470276, -0.07797573506832123, -0.07806645333766937, -0.24334077537059784, 0.14114294946193695, 0.03516583517193794, -0.1656581461429596, 0.154022216796875, -0.03497837111353874, 0.17975200712680817, -0.01269372459501028, -0.02006816864013672, -0.015751468017697334, 0.16599702835083008, -0.05291985720396042, -0.036838412284851074, -0.11867710202932358, -0.18352119624614716, -0.20222647488117218, 0.00850397814065218, 0.037992145866155624, -0.23631231486797333, -0.2552673816680908, -0.15884800255298615, -0.021109333261847496, 0.06258515268564224, 0.18734236061573029, -0.2647469639778137, -0.22176653146743774, -0.05767642706632614, 0.12144702672958374, -0.04694303497672081, -0.061300694942474365, 0.07464892417192459, -0.07493346929550171, -0.07630731165409088, 0.10993499308824539, 0.07521115243434906, -0.1279955357313156, -0.04683605208992958, 0.04597431421279907, -0.042650528252124786, 0.21634459495544434, 0.022948523983359337, 0.16726672649383545, -0.07520143687725067, 0.05168923735618591, 0.14497117698192596, -0.2502637803554535, -0.1099526435136795, -0.018835343420505524, -0.07758311182260513, 0.051884327083826065, 0.05356379970908165, -0.004981245845556259, -0.06643030047416687, -0.21426939964294434, 0.05471068620681763, -0.02514445222914219, -0.00038486276753246784, 0.040285322815179825, -0.04976571351289749, -0.0005268981913104653, -0.012289087288081646, 0.02155652828514576, 0.0876370295882225, -0.06477881222963333, 0.1295992136001587, 0.023119788616895676, 0.05141574889421463, -0.014265228062868118, -0.04345833882689476, -0.1762755960226059, -0.01798274740576744, 0.011707994155585766, 0.045459430664777756], [0.1378973126411438, 0.06171658635139465, 0.03857596218585968, 0.20059867203235626, -0.20970305800437927, -0.13031554222106934, 0.02712365612387657, -0.04525536298751831, 0.14307375252246857, 0.07916438579559326, 0.016959289088845253, 0.1615157425403595, -0.030207544565200806, 0.026794975623488426, 0.03258606791496277, -0.059555359184741974, 0.21820327639579773, -0.14913347363471985, 0.08464618772268295, -0.10815995931625366, -0.20916013419628143, 0.04762348160147667, -0.2630670964717865, 0.07515943050384521, -0.0009345128783024848, -0.08232726156711578, 0.30530884861946106, 0.046461232006549835, 0.060187071561813354, -0.11157724261283875, -0.1769578456878662, -0.09549903869628906, -0.014954778365790844, 0.1116754561662674, -0.19937211275100708, 0.0870252326130867, -0.08363138139247894, -0.04689445346593857, -0.0289936363697052, -0.044998761266469955, -0.14208881556987762, 0.004750349558889866, 0.06741643697023392, -0.10943080484867096, 0.057532668113708496, -0.05633112043142319, -0.10122452676296234, -0.009623224847018719, 0.04951098933815956, 0.07691611349582672, -0.13211344182491302, -0.03124910034239292, 0.023661013692617416, -0.10455609112977982, 0.05978073924779892, 0.05002814531326294, -0.03272220864892006, 0.050262175500392914, 0.11829926073551178, -0.007709476165473461, 0.018440967425704002, -0.17557929456233978, 0.05368688330054283, -0.049964554607868195, 0.07419152557849884, 0.1965498924255371, 0.1529008150100708, -0.1006879135966301, 0.12646880745887756, 0.0066001215018332005, -0.01375513058155775, 0.12436822801828384, -0.015597202815115452, -0.040618203580379486, 0.10172543674707413, 0.10528291761875153, 0.0003904501791112125, 0.1816515028476715, -0.1655733436346054, 0.01028347946703434, 0.20516546070575714, 0.26656463742256165, -0.24486680328845978, -0.13341417908668518, 0.27176767587661743, 0.0542009174823761, 0.19585461914539337, -0.06131044775247574, 0.058091819286346436, 0.15818050503730774, -0.0015899227000772953, 0.01316076796501875, -0.06627681106328964, -0.06089489534497261, 0.03381119295954704, -0.06574990600347519, -0.19975493848323822, -0.1904669851064682, -0.017677389085292816, 0.07266076654195786, -0.027790455147624016, 0.08913394063711166, -0.010744255967438221, 0.1151675134897232, 0.178471639752388, 0.06130595505237579, 0.14210458099842072, 0.28159722685813904, -0.13397322595119476, 0.020784055814146996, -0.11880134791135788, -0.06522485613822937, -0.09804344177246094, 0.12753623723983765, 0.10958943516016006, -0.01589188352227211, -0.17875069379806519, 0.17250953614711761, 0.05828934907913208, 0.06180800125002861, 0.08232275396585464, -0.08076793700456619, -0.006648516282439232, 0.13719108700752258, 0.06388653069734573, 0.23012980818748474, 0.022113941609859467, 0.037649981677532196], [-0.026207182556390762, 0.01498209685087204, 0.09154852479696274, 0.07132963836193085, -0.11886683106422424, -0.0761888176202774, 0.0025085073430091143, 0.20156390964984894, -0.09822110831737518, 0.011549649760127068, 0.07886426895856857, -0.007118739187717438, -0.05024804547429085, 0.18765725195407867, 0.009755880571901798, -0.0016661041881889105, -0.16505968570709229, 0.060415979474782944, 0.06053858995437622, 0.12718379497528076, 0.16093453764915466, 0.03827813267707825, 0.02339484542608261, -0.09161613136529922, -0.12410441040992737, 0.12319085001945496, 0.05426386743783951, 0.01194507535547018, 0.08083073794841766, -0.1879483014345169, -0.03259087726473808, 0.023643694818019867, -0.13810500502586365, -0.01930350251495838, 0.01564796268939972, -0.004844540264457464, -0.038036275655031204, 0.016397470608353615, -0.14320410788059235, 0.12118431180715561, 0.04572076350450516, 0.09351824969053268, -0.010690107010304928, 0.18510259687900543, 0.10703359544277191, 0.002567513147369027, -0.031229998916387558, -0.14064674079418182, -0.10902666300535202, 0.01140802726149559, -0.0034953653812408447, -0.1275801807641983, -0.25740012526512146, 0.06607427448034286, -0.01123878639191389, -0.045594070106744766, 0.0045184176415205, 0.02169465832412243, 0.016469741240143776, -0.05007210746407509, -0.11259186267852783, -0.09313490241765976, -0.12657146155834198, -0.03901060298085213, -2.297740866197273e-05, -0.05091210827231407, 0.08260612934827805, 0.0025314269587397575, 0.08546028286218643, -0.1853153556585312, -0.13508130609989166, -0.060363851487636566, 0.10081224888563156, 0.07255173474550247, 0.2529502511024475, -0.0812821239233017, -0.04885280504822731, 0.13753743469715118, -0.019626442342996597, 0.11345811188220978, 0.13996417820453644, 0.055805645883083344, 0.034199852496385574, 0.12686064839363098, 0.06605133414268494, 0.09267354011535645, 0.06301568448543549, 0.003743931883946061, 0.09670180082321167, -0.0021814468782395124, -0.11650388687849045, 0.15369275212287903, 0.00177901447750628, -0.13193029165267944, 0.061548709869384766, -0.057892583310604095, -0.019241029396653175, -0.09561491012573242, 0.2687329947948456, 0.039534199982881546, 0.23496656119823456, -0.04572276026010513, 0.07439230382442474, -0.03864669054746628, -0.1539795845746994, 0.0922364741563797, 0.0562136285007, 0.07907213270664215, -0.18210016191005707, 0.0351618193089962, 0.016109462827444077, -0.04477163404226303, 0.13474008440971375, 0.07371727377176285, -0.06528157740831375, 0.1829889863729477, -0.05766361206769943, 0.010249966755509377, 0.04152718558907509, -0.04899134486913681, -0.1417519450187683, -0.03557632863521576, -0.04378589987754822, -0.13877461850643158, 0.13794030249118805, -0.06297146528959274, -0.1201295256614685, 0.14312529563903809], [0.08125296235084534, 0.07386088371276855, -0.07581435143947601, 0.11913341283798218, -0.2520671784877777, 0.18855693936347961, -0.058990154415369034, -0.1072908565402031, 0.07546601444482803, -0.004644929897040129, -0.12858784198760986, 0.010934784077107906, -0.39491525292396545, 0.018559753894805908, 0.09253503382205963, 0.07518856227397919, -0.31375652551651, -0.015798578038811684, 0.01676955446600914, 0.1339254081249237, -0.12024609744548798, 0.2006179839372635, 0.228258416056633, -0.009093297645449638, -0.16014279425144196, 0.07618052512407303, -0.10790529102087021, -0.07557948678731918, -0.17379580438137054, 0.05378346890211105, 0.0652085393667221, -0.10314569622278214, 0.046705469489097595, 0.13408493995666504, -0.10659247636795044, -0.01865336112678051, 0.0007188942981883883, -0.009141288697719574, 0.16551128029823303, 0.2122698575258255, 0.13120438158512115, -0.17767973244190216, 0.12413060665130615, 0.051312290132045746, -0.29748672246932983, 0.12411560863256454, -0.006607315968722105, -0.06086631864309311, -0.03468118607997894, 0.1310257613658905, 0.0855490043759346, -0.01097432803362608, -0.1823846846818924, 0.0012652663281187415, -0.21930837631225586, -0.27699846029281616, -0.14542430639266968, -0.06277397274971008, 0.06590763479471207, 0.07588512450456619, -0.0423717126250267, 0.14938640594482422, -0.022805726155638695, 0.2969420254230499, 0.27130475640296936, 0.016386277973651886, 0.11490863561630249, -0.05116988345980644, 0.07621344923973083, -0.0032261344604194164, 0.15023082494735718, 0.08237334340810776, -0.05997520312666893, 0.10971292853355408, -0.03114800527691841, -0.02782728523015976, 0.22933591902256012, 0.004582833498716354, 0.03188781812787056, -0.002306639449670911, -0.08828181773424149, -0.11720067262649536, 0.00944808404892683, -0.24032187461853027, 0.104546457529068, 0.03397464379668236, 0.17966850101947784, -0.03623277321457863, -0.014892937615513802, -0.02660628966987133, -0.0745660588145256, -0.018649203702807426, -0.21418991684913635, 0.05236489698290825, 0.17883852124214172, -0.14494501054286957, 0.10580480098724365, -0.011043071746826172, -0.019471963867545128, 0.18972554802894592, -0.059703536331653595, 0.07724598795175552, -0.08434265851974487, 0.08129463344812393, -0.03865165635943413, 0.0725550502538681, 0.035766180604696274, -0.10662122070789337, -0.17988692224025726, -0.06718505173921585, 0.17537470161914825, 0.08249890804290771, -0.06678561866283417, 0.025482797995209694, -0.04755476489663124, 0.12995833158493042, -0.14596648514270782, 0.138508602976799, -0.05751518905162811, 0.14048267900943756, 0.13341058790683746, 0.14224398136138916, 0.018440183252096176, 0.02147778309881687, -0.0982585921883583, 0.019741609692573547, -0.06715958565473557, -0.0774003267288208], [0.16775700449943542, 0.019684644415974617, 0.06875371187925339, -0.16600032150745392, -0.07778643816709518, 0.04013557359576225, -0.004898632876574993, -0.014673023484647274, 0.022269796580076218, 0.03947119414806366, 0.1095237135887146, -0.10130275040864944, 0.04393547773361206, -0.024930980056524277, 0.028866827487945557, 0.022316187620162964, 0.14127714931964874, -0.0586070790886879, 0.0338338166475296, 0.0032864720560610294, 0.10910237580537796, -0.27411648631095886, 0.18753033876419067, 0.12911565601825714, 0.16067910194396973, 0.13092699646949768, -0.041224583983421326, 0.0021427590399980545, 0.1588519960641861, -0.04684431478381157, -0.12679752707481384, 0.006785105913877487, 0.061221301555633545, -0.1379368007183075, -0.06943996250629425, -0.03208383917808533, 0.13530004024505615, -0.00043206792906858027, -0.10947779566049576, 0.06635732203722, -0.03523717448115349, 0.1278972178697586, -0.20167319476604462, -0.009953994303941727, -0.08985898643732071, 0.07802203297615051, -0.010853298008441925, -0.04540501907467842, -0.22612245380878448, 0.08562380075454712, -0.005561635829508305, 0.023257335647940636, -0.05361571162939072, -0.035208869725465775, 0.07332111150026321, 0.18840673565864563, -0.004722870886325836, 0.009103745222091675, -0.01997169479727745, -0.03476928174495697, 0.0663752406835556, 0.15101297199726105, 0.03497803956270218, -0.029001304879784584, 0.0036916583776474, -0.049564048647880554, 0.09335895627737045, 0.1260671466588974, -0.04561510309576988, 0.03490030765533447, -0.01753258891403675, -0.13258962333202362, 0.06768345087766647, 0.03693703934550285, -0.009538634680211544, -0.00350391399115324, -0.04493343085050583, 0.12919050455093384, -0.02628367580473423, -0.038156282156705856, -0.01663055643439293, -0.05132352560758591, -0.13135948777198792, 0.11606956273317337, 0.12045325338840485, -0.06842709332704544, 0.024072257801890373, -0.010708297602832317, -0.1389189064502716, 0.0017177104018628597, 0.11980680376291275, 0.027223536744713783, 0.09459205716848373, 0.01934427209198475, -0.14626444876194, 0.07838434725999832, -0.23819740116596222, 0.09585332125425339, -0.13588488101959229, -0.037645529955625534, 0.13403810560703278, 0.1433117538690567, 0.052217260003089905, 0.12183702737092972, 0.0816200003027916, 0.10356918722391129, -0.007516762241721153, 0.11790701746940613, 0.27590176463127136, -0.11260725557804108, 0.06357291340827942, -0.07911525666713715, -0.07542944699525833, 0.08863373100757599, -0.04735364392399788, -0.17606015503406525, 0.035785116255283356, -0.18805505335330963, -0.08278816193342209, -0.07540322840213776, 0.0994875431060791, 0.04430147632956505, 0.06646757572889328, -0.018095223233103752, -0.003497401485219598, -0.10211361199617386, 0.004109218716621399, -0.06953665614128113], [0.15146832168102264, -0.07622997462749481, 0.11024158447980881, 0.017432602122426033, 0.005409094970673323, 0.04440607503056526, 0.015358714386820793, 0.0814412534236908, 0.17353180050849915, -0.07797171175479889, 0.06818288564682007, -0.06245005875825882, -0.044281214475631714, -0.034530118107795715, 0.1657656729221344, -0.11524273455142975, -0.02392045594751835, -0.24866008758544922, 0.004284260794520378, -0.03678636997938156, 0.17554377019405365, -0.03618882596492767, 0.23025783896446228, -0.13688646256923676, -0.026570091024041176, 0.10902626812458038, 0.07305604219436646, 0.10128411650657654, -0.027471225708723068, 0.1955651342868805, -0.06610114872455597, -0.07370682060718536, -0.007633154280483723, -0.20335926115512848, -0.05388482287526131, -0.09372266381978989, -0.013172601349651814, 0.03261261060833931, -0.15362891554832458, -0.0031339300330728292, -0.02611895464360714, 0.02214386686682701, 0.05807819962501526, -0.11046367883682251, 0.12846998870372772, 0.11924967169761658, 0.04614150524139404, -0.07558313012123108, -0.15737761557102203, 0.05168646201491356, 0.13570186495780945, -0.14938782155513763, -0.06476622074842453, -0.061231717467308044, 0.1697891801595688, 0.2559801936149597, -0.10268547385931015, 0.08165622502565384, 0.05111265555024147, -0.08869046717882156, -0.08613032102584839, 0.10525356233119965, 0.05236656591296196, -0.11188245564699173, 0.02536250464618206, 0.23557361960411072, 0.15258389711380005, 0.06969796121120453, 0.06534284353256226, -0.09411832690238953, -0.04491058364510536, 0.1633499413728714, 0.101235531270504, 0.1496090143918991, -0.07984693348407745, -0.009023133665323257, -0.13333550095558167, 0.1240396648645401, -0.15096768736839294, 0.04458461329340935, 0.3277333974838257, 0.1491309255361557, -0.09995414316654205, 0.05371275171637535, 0.1933106780052185, 0.049573831260204315, 0.1256164163351059, 0.004038969520479441, -0.03389986976981163, -0.1634238064289093, -0.09225007891654968, 0.07786375284194946, -0.017133081331849098, -0.09045999497175217, -0.11060155183076859, 0.006113053299486637, 0.026284044608473778, 0.008206630125641823, 0.025786476209759712, -0.0007043189834803343, 0.07145276665687561, -0.181752011179924, -0.19524545967578888, 0.16664128005504608, -0.03710770606994629, -0.08575407415628433, -0.0779590904712677, 0.06442302465438843, 0.03947000205516815, -0.042887937277555466, -0.06563852727413177, -0.08079171925783157, -0.058607544749975204, -0.03259636089205742, -0.05566395819187164, 0.014016753062605858, -0.13009972870349884, -0.06486591696739197, 0.00900136586278677, -0.08759371936321259, -0.01249238196760416, 0.0027213064022362232, -0.03926555812358856, 0.13740916550159454, -0.007546610198915005, -0.12490041553974152, 0.04148942977190018, 0.04207532852888107]], "down.1.weight": [[-0.0481238029897213, -0.06385190039873123, -0.10218268632888794, -0.028720665723085403, -0.16914914548397064, 0.1642327606678009, 0.20035690069198608, 0.006387311965227127, 0.025567222386598587, 0.003182764397934079, 0.06088612601161003, 0.12532685697078705, -0.24481773376464844, 0.16375920176506042, 0.08814529329538345, 0.1698429435491562, -0.046571336686611176, 0.07555802166461945, 0.021373147144913673, 0.018234049901366234, 0.02765812538564205, 0.17074450850486755, 0.1342296004295349, -0.0218135267496109, 0.16294844448566437, 0.21296559274196625, 0.018061310052871704, 0.026614880189299583, 0.03367660939693451, -0.15064935386180878, -0.13080936670303345, -0.09468624740839005, 0.05872243642807007, 0.10425169765949249, -0.09407845139503479, -0.030466889962553978, 0.15031969547271729, -0.17216572165489197, -0.05403268709778786, -0.11427019536495209, 0.04328427091240883, -0.0298488587141037, -0.1034913957118988, -0.042178500443696976, -0.04242001473903656, -0.03926342353224754, 0.11591685563325882, -0.1973617821931839, 0.02981519140303135, 0.006089045200496912, -0.04560357332229614, -0.03040153719484806, 0.060886092483997345, -0.0884290263056755, -0.04866955429315567, 0.0015344521962106228, -0.014461347833275795, -0.13131465017795563, -0.04739410802721977, -0.02753281593322754, 0.025772370398044586, 0.06935754418373108, 0.039364706724882126, -0.024378051981329918, 0.05683544650673866, 0.12227955460548401, -0.02867933362722397, -0.017906470224261284, -0.07757628709077835, -0.17459489405155182, -0.055856797844171524, 0.12300668656826019, 0.21381069719791412, -0.11172789335250854, 0.15313753485679626, 0.04896719381213188, -0.02109839953482151, 0.0087300268933177, 0.07297494262456894, 0.09740810841321945, -0.008069301955401897, 0.048864856362342834, -0.007136053871363401, 0.10009502619504929, 0.15648604929447174, 0.12061382830142975, -0.11983713507652283, -0.07938522100448608, 0.17701788246631622, -0.10864581167697906, -0.07333075255155563, 0.0400758720934391, -0.07771691679954529, -0.0329493023455143, -0.014758098870515823, 0.1714056432247162, -0.07830404490232468, 0.10079467296600342, 0.09125439822673798, 0.030694125220179558, -0.16782911121845245, -0.010305444709956646, 0.012991251423954964, 0.03933217376470566, 0.19498643279075623, -0.002146269893273711, -0.053707391023635864, -0.062001802027225494, -0.10521925985813141, 0.06062091514468193, -0.1540648490190506, -0.03363611921668053, -0.10266860574483871, -0.2070343792438507, 0.05879080295562744, 0.03695308789610863, 0.044327426701784134, -0.09897670894861221, 0.06911345571279526, -0.05434725806117058, -0.11640800535678864, -0.003658768953755498, 0.0033964146859943867, 0.1611464023590088, -0.0050842054188251495, -0.061576589941978455, 0.15467192232608795, 0.06106889992952347], [0.01616962067782879, 0.029511934146285057, 0.06927059590816498, -0.057034168392419815, -0.04691766947507858, 0.10935492068529129, -0.025237776339054108, -0.004954066127538681, -0.08562294393777847, 0.202617347240448, -0.03121832199394703, -0.12300048768520355, 0.16266514360904694, -0.019131045788526535, -0.05515841767191887, 0.09072545170783997, -0.11984176188707352, -0.04083641245961189, 0.03002229519188404, 0.1427125632762909, -0.037816423922777176, 0.08416256308555603, -0.05783707648515701, 0.019369162619113922, -0.20443812012672424, -0.002695067087188363, -0.044738445430994034, 0.04142529517412186, -0.2312445044517517, 0.12984271347522736, 0.09292656183242798, -0.1108257919549942, -0.16869553923606873, 0.13926400244235992, -0.0527665875852108, 0.2843344211578369, -0.1563348025083542, -0.01479483861476183, 0.03050583228468895, 0.0999259427189827, 0.07997381687164307, -0.0933360680937767, -0.05975586920976639, -0.08990269154310226, 0.02187468111515045, 0.004585594870150089, -0.016775792464613914, 0.15082363784313202, 0.10293437540531158, 0.09634474664926529, 0.12717092037200928, -0.047356147319078445, 0.04373153671622276, -0.1281733512878418, -0.08478839695453644, -0.00285009085200727, 0.05274719372391701, 0.0017624207539483905, -0.03005748800933361, -0.028560051694512367, 0.1695747822523117, 0.0904717743396759, 0.15797759592533112, 0.09343233704566956, 0.05473393201828003, 0.12329108268022537, -0.04861113429069519, -0.192690908908844, 0.05092916637659073, 0.0402202270925045, 0.21045495569705963, -0.20060186088085175, -0.02115914225578308, -0.08020978420972824, -0.024216637015342712, 0.06813014298677444, 0.09022561460733414, -0.029559267684817314, -0.040897272527217865, -0.025322090834379196, 0.13154947757720947, -0.07234174758195877, -0.023558948189020157, -0.03035227209329605, 0.09526003152132034, -0.09403494745492935, -0.15108849108219147, 0.06398874521255493, -0.10402832180261612, -0.037721794098615646, 0.08122610300779343, -0.08279804140329361, -0.059996843338012695, 0.09810543060302734, -0.11368080228567123, -0.0059709022752940655, 0.13654176890850067, -0.11351975798606873, 0.004194530658423901, -0.05226133018732071, 0.05387525632977486, -0.07461997121572495, 0.10287857800722122, 0.04057327285408974, -0.046195995062589645, -0.06128518283367157, 0.01685130037367344, -0.06673292070627213, 0.03889495134353638, -0.006481734570115805, 0.17496177554130554, 0.008627553470432758, -0.04351813346147537, 0.042693138122558594, 0.02154398337006569, -0.02002573572099209, -0.12913306057453156, 0.020765570923686028, -0.04758341982960701, 0.028988897800445557, 0.16751934587955475, -0.1220594048500061, -0.004286002367734909, -0.08270390331745148, 0.03828289732336998, -0.07584967464208603, -0.09436319023370743, 0.01043013483285904], [0.01908232271671295, -0.030021118000149727, 0.0020483676344156265, -0.1089133769273758, 0.20470471680164337, -0.057377833873033524, -0.12857335805892944, 0.07852805405855179, -0.1401509791612625, -0.027537235990166664, -0.07237021625041962, -0.10623250901699066, 0.023534731939435005, -0.047264888882637024, -0.13916732370853424, 0.10229257494211197, -0.02017166279256344, 0.07515252381563187, 0.08813022822141647, 0.13076281547546387, -0.12206649035215378, 0.04424289986491203, 0.04243655502796173, 0.048567283898591995, -0.021771980449557304, -0.03155994042754173, -0.21101884543895721, -0.16117706894874573, 0.06874825805425644, -0.06050616875290871, -0.04491766169667244, 0.10213025659322739, 0.031171001493930817, -0.0013568949652835727, -0.09437081217765808, -0.023743886500597, 0.013767044991254807, -0.0827040746808052, 0.061638087034225464, -0.0022161256056278944, 0.06061368063092232, -0.1006421446800232, -0.11756789684295654, -0.25814226269721985, -0.16481316089630127, 0.1133672371506691, -0.046397946774959564, 0.17694821953773499, 0.21044068038463593, -0.025278553366661072, -0.1520453542470932, -0.11817917972803116, -0.10124032199382782, 0.03268357738852501, -0.0037701979745179415, -0.14827577769756317, 0.11255287379026413, -0.06231878697872162, 0.0160833690315485, 0.31797856092453003, 0.04785643517971039, -0.025152409449219704, 0.07405856251716614, -0.08145574480295181, 0.03156464174389839, 0.03243086859583855, -0.21138440072536469, -0.05344504117965698, -0.20218244194984436, -0.030385572463274002, 0.22792628407478333, 0.15472251176834106, -0.22150665521621704, 0.1584727168083191, -0.03481236472725868, -0.009680541232228279, 0.0315140038728714, -0.19906386733055115, 0.06676981598138809, -0.03967645391821861, -0.11679819226264954, -0.21240641176700592, 0.11718698590993881, -0.05114173889160156, -0.3784143030643463, -0.2005053609609604, -0.2056482881307602, 0.009183865040540695, 0.005596463102847338, 0.1592615246772766, 0.04692806303501129, -0.1924661248922348, 0.2125321924686432, -0.00034522084752097726, -0.06588216871023178, -0.13188090920448303, 0.12919726967811584, -0.02494383044540882, -0.07773564755916595, -0.0534336157143116, -0.03593483567237854, -0.01204612571746111, -0.047550760209560394, -0.1693745255470276, -0.029922565445303917, -0.11612077802419662, -0.26687514781951904, -0.18225742876529694, 0.1531175822019577, -0.20920249819755554, -0.16484259068965912, 0.3131794333457947, 0.18416596949100494, -0.02390994504094124, 0.1164047047495842, -0.11914713680744171, 0.07265088707208633, 0.14441263675689697, -0.13749176263809204, -0.049311865121126175, 0.03125527501106262, -0.21066321432590485, 0.032366394996643066, 0.15394693613052368, -0.11144712567329407, -0.12291613221168518, -0.06661483645439148, -0.0730978399515152], [0.06542263180017471, -0.014509912580251694, -0.00017550494521856308, 0.1881704330444336, -0.040210217237472534, -0.08653085678815842, 0.05748268589377403, -0.07129129767417908, -0.08527056872844696, 0.027536360546946526, -0.016756368800997734, 0.04295791685581207, 0.14431829750537872, 0.019913140684366226, -0.0979069247841835, -0.10484211891889572, 0.2134445309638977, -0.0616154670715332, -0.0321931354701519, 0.10649789124727249, -0.04986196011304855, 0.01900506019592285, -0.24252855777740479, 0.09007266908884048, -0.22140996158123016, -0.01869061030447483, -0.19556647539138794, -0.02964247204363346, -0.062477536499500275, 0.011113394051790237, -0.06269142031669617, -0.14409418404102325, -0.03462749347090721, 0.06202978268265724, -0.037851329892873764, 0.12388433516025543, 0.11979874968528748, 0.0757618322968483, 0.05333906412124634, 0.05636386200785637, -0.05017142370343208, -0.04698234423995018, -0.17723363637924194, 0.01486822497099638, -0.014539232477545738, -0.03382304310798645, -0.12565456330776215, 0.14150746166706085, 0.05009615421295166, 0.22983795404434204, -0.16115891933441162, 0.060772430151700974, -0.04172432795166969, 0.028337351977825165, -0.12153301388025284, -0.1773827075958252, 0.0764341950416565, -0.09686771035194397, -0.022222382947802544, 0.03844938427209854, -0.160420760512352, 0.048906467854976654, 0.0034305360168218613, -0.08080719411373138, -0.2380106896162033, 0.07792101055383682, -0.029453499242663383, 0.06279312819242477, -0.031236983835697174, -0.0985177755355835, -0.21163806319236755, -0.23571838438510895, -0.02656840905547142, 0.12291985750198364, -0.0746452659368515, 0.08491716533899307, 0.08563142269849777, 0.008544687181711197, 0.02446936070919037, -0.054412826895713806, 0.3331232964992523, -0.10757201910018921, 0.060854651033878326, -0.2027353197336197, 0.07761408388614655, -0.0754600316286087, 0.11178608238697052, 0.025896979495882988, -0.09108845144510269, 0.07877364009618759, 0.0878823846578598, -0.0056243701837956905, 0.05085808411240578, 0.006125323940068483, 0.0052803209982812405, -0.006373644806444645, 0.09530327469110489, -0.017798185348510742, -0.02166103385388851, 0.08843646943569183, -0.13176672160625458, -0.02966458722949028, 0.08708241581916809, -0.08406814187765121, -0.10441336780786514, 0.05032714456319809, 0.02454153262078762, -0.057215962558984756, 0.16102375090122223, -0.03898828849196434, 0.19621282815933228, 0.1070406436920166, -0.12261957675218582, 0.1695147454738617, 0.0495746023952961, 0.00794496014714241, -0.028355572372674942, -0.1428951472043991, -0.13535740971565247, -0.017085528001189232, 0.010393188335001469, 0.16533561050891876, -0.01913350820541382, 0.07161808758974075, 0.13365888595581055, 0.02154010720551014, 0.028713589534163475, -0.11030568927526474], [-0.04259650781750679, -0.10878150165081024, 0.14161859452724457, 0.044280488044023514, -0.012637852691113949, -0.13979409635066986, -0.03417358174920082, 0.03152403607964516, -0.05662645027041435, -0.12267585098743439, 0.003477835562080145, -0.04531831294298172, 0.29902318120002747, 0.029984142631292343, -0.0712432935833931, -0.05997539311647415, -0.18479368090629578, -0.2619464695453644, -0.16279888153076172, -0.20465704798698425, -0.1686885505914688, -0.2746817171573639, -0.035628121346235275, 0.1417803317308426, -0.0948098823428154, -0.2953748106956482, -0.1424982249736786, -0.05201923847198486, 0.13670673966407776, -0.026943277567625046, 0.04266969859600067, 0.08888976275920868, 0.036306265741586685, -0.1692417412996292, -0.035745035856962204, -0.09762270003557205, 0.14203354716300964, -0.04714483022689819, 0.0016233923379331827, 0.003325082827359438, -0.2336767613887787, 0.050946418195962906, -0.001842294237576425, -0.07218427956104279, 0.1103987842798233, -0.010069385170936584, 0.13566428422927856, -0.15667657554149628, -0.253268837928772, 0.04637200012803078, -0.10463812947273254, -0.0051106843166053295, -0.021198755130171776, -0.01303346361964941, 0.03331354632973671, 0.11958634108304977, 0.08000323921442032, 0.13841241598129272, -0.036433037370443344, 0.08003761619329453, -0.03209865838289261, -0.03941461071372032, -0.17058692872524261, -0.04524008184671402, -0.1360330432653427, -0.06325585395097733, -0.13817697763442993, 0.1464245468378067, -0.03299620747566223, 0.061226386576890945, -0.11106773465871811, 0.07819848507642746, 0.023031659424304962, -0.14905506372451782, 0.04513682425022125, 0.1398380845785141, -0.16719824075698853, 0.21062463521957397, -0.030061649158596992, 0.1080540269613266, -0.04746837168931961, 0.0773100033402443, 0.03522394970059395, 0.16922496259212494, 0.0761018693447113, -0.015880441293120384, 0.19771552085876465, 0.05194797366857529, -0.15616394579410553, 0.015806593000888824, 0.09239934384822845, -0.01424670871347189, 0.05402742698788643, -0.1163068562746048, 0.05223332345485687, -0.04747467115521431, -0.13904604315757751, -0.13477841019630432, -0.2406589835882187, 0.062328189611434937, 0.01228383183479309, 0.025282014161348343, -0.04531146585941315, 0.1633751392364502, 0.026021704077720642, 0.01090825442224741, 0.3068910241127014, 0.09972771257162094, -0.13976222276687622, -0.05696893110871315, 0.13042205572128296, 0.03724081814289093, 0.13969624042510986, 0.0017463751137256622, -0.061767689883708954, -0.0999135673046112, 0.007130804471671581, 0.006775878835469484, -0.1441962718963623, 0.04098101705312729, 0.24231579899787903, -0.10169598460197449, 0.06778869032859802, -0.05200454965233803, 0.20834334194660187, 0.04454616457223892, 0.038702353835105896, -0.05702308192849159], [0.024180354550480843, 0.14582084119319916, 0.15550237894058228, -0.14875748753547668, 0.08450620621442795, 0.007366253063082695, 0.14670264720916748, 0.0019615418277680874, 0.11940191686153412, -0.16648641228675842, 0.03858800604939461, 0.21060621738433838, -0.05649423226714134, 0.09349629282951355, -0.062292542308568954, -0.05501894652843475, -0.010150044225156307, 0.001287377206608653, -0.05880950763821602, -0.0764668732881546, -0.017020950093865395, -0.02176642417907715, 0.12167039513587952, -0.08095977455377579, 0.028881119564175606, 0.013145837001502514, -0.1505386382341385, -0.08609224855899811, 0.0025891142431646585, -0.04571514204144478, 0.004886986687779427, -0.10007204860448837, 0.0958220586180687, -0.07266594469547272, -0.06568986177444458, -0.010074951685965061, 0.019746262580156326, 0.15103670954704285, 0.07376668602228165, 0.01842050440609455, -0.24783584475517273, 0.17366601526737213, 0.01659657061100006, -0.1734599769115448, 0.006955431774258614, 0.14104488492012024, 0.04656514897942543, -0.051734860986471176, -0.028566967695951462, -0.1782451868057251, -0.048948947340250015, -0.006644044537097216, 0.004386313259601593, -0.08164213597774506, 0.1452045738697052, -0.1464908868074417, -0.0483747161924839, 0.05968014895915985, 0.1405993103981018, -0.1302867978811264, 0.030251475051045418, 0.004063987173140049, -0.14891667664051056, -0.03589523583650589, 0.11499112844467163, 0.06850843876600266, -0.01144019141793251, 0.01737840473651886, -0.10772837698459625, 0.06720951944589615, -0.16171304881572723, -0.02122984081506729, -0.021040380001068115, -0.06396215409040451, 0.08763866871595383, -0.05955389887094498, -0.10161919891834259, 0.037003833800554276, -0.15910595655441284, 0.16221289336681366, 0.05728080868721008, 0.23385152220726013, 0.028176598250865936, -0.12114957720041275, 0.06367466598749161, 0.09061247855424881, 0.18100592494010925, 0.024837519973516464, -0.03545781970024109, -0.17555563151836395, 0.11025134474039078, -0.04292706772685051, -0.003676904598250985, 0.10754651576280594, -0.10709927976131439, -0.0023832828737795353, -0.020212247967720032, -0.27004754543304443, -0.05584163963794708, -0.026129743084311485, 0.0620499849319458, -0.07720533758401871, -0.09666310995817184, 0.027698678895831108, -0.02856062352657318, 0.020161686465144157, -0.09447754174470901, -0.02979283593595028, -0.04918307438492775, 0.12917248904705048, 0.056097403168678284, 0.053813375532627106, 0.06861139833927155, 0.19368989765644073, -0.12267187237739563, 0.048697151243686676, -0.06125730648636818, 0.09042424708604813, 0.04926782846450806, -0.12504014372825623, -0.1864587813615799, -0.08815615624189377, -0.15874293446540833, 0.10364402830600739, 0.05525094270706177, 0.11050014197826385, 0.18055301904678345, 0.0658673495054245], [-0.010506916791200638, -0.09522360563278198, -0.00015412700304295868, 0.09696052223443985, -0.03939365595579147, -0.001208410831168294, 0.05025460198521614, 0.029283983632922173, -0.19758912920951843, 0.00303458608686924, 0.11403684318065643, -0.0629827082157135, -0.035387758165597916, -0.08012919872999191, 0.08654644340276718, -0.08988599479198456, 0.11193232983350754, -0.17431743443012238, -0.1503511220216751, -0.10298028588294983, 0.1054447740316391, -0.1635240912437439, -0.034402575343847275, 0.10065333545207977, 0.09819561243057251, -0.04607066139578819, -0.10738389939069748, -0.038986686617136, 0.09570179879665375, 0.05759308114647865, 0.05264395847916603, 0.020632058382034302, 0.09676025807857513, 0.013728595338761806, 0.10102374851703644, -0.010627898387610912, 0.027751624584197998, 0.02417871169745922, -0.004088474437594414, -0.09874892234802246, -0.05875388905405998, -0.057771243155002594, 0.11644108593463898, 0.07753603905439377, -0.1761554628610611, -0.04264853149652481, -0.14641183614730835, 0.062055233865976334, 0.16634716093540192, 0.034849900752305984, 0.09887215495109558, 0.09043172746896744, 0.0849863737821579, -0.06739450991153717, -0.09331241995096207, -0.21248731017112732, -0.08363264054059982, -0.12616699934005737, 0.07097288221120834, -0.03779955953359604, -0.18560396134853363, 0.13478505611419678, 0.0873171016573906, -0.13779966533184052, 0.1582271158695221, 0.013511806726455688, -0.058693818747997284, -0.06270246207714081, 0.13157762587070465, -0.03303451091051102, 0.02233842760324478, 0.06287404894828796, -0.014959875494241714, 0.06177967041730881, -0.2050204873085022, 0.08796174824237823, -0.0937163233757019, 0.10136228799819946, -0.0995202511548996, 0.03653232380747795, 0.003575998591259122, 0.057497289031744, 0.11008933931589127, 0.012254808098077774, -0.14911001920700073, -0.02021569013595581, 0.12334524095058441, 0.18238940834999084, 0.05075334385037422, -0.08279301971197128, 0.10640835016965866, -0.005474897567182779, 0.055625565350055695, 0.04993530362844467, 0.09778451174497604, -0.0389532595872879, -0.10058023035526276, 0.04205906391143799, 0.08690616488456726, 0.03740096837282181, -0.12843842804431915, 0.13949710130691528, 0.052660293877124786, -0.1432906985282898, -0.10969431698322296, -0.24351142346858978, -0.14146634936332703, 0.04584115743637085, 0.1851094663143158, -0.1205819696187973, 0.11457578092813492, 0.13548974692821503, 0.20184208452701569, 0.12135268747806549, -0.20381635427474976, -0.08629734069108963, -0.18506814539432526, 0.098025843501091, -0.058530718088150024, -0.030905041843652725, -0.02844451181590557, -0.2002488523721695, -0.0733015164732933, 0.03773070499300957, 0.028643472120165825, 0.0457027368247509, 0.07580530643463135, -0.10741919279098511], [-0.07491898536682129, -0.06678210198879242, -0.05505111813545227, -0.03532826527953148, -0.20479923486709595, 0.03986116498708725, -0.04686305299401283, -0.0973968356847763, -0.16333481669425964, -0.11648460477590561, 0.17616145312786102, 0.19599252939224243, -0.06095990911126137, 0.06831484287977219, -0.06148845702409744, 0.029151657596230507, 0.0816752091050148, -0.33062055706977844, 0.0008913107449188828, -0.06824984401464462, 0.04428422823548317, 0.07636144757270813, -0.11693260818719864, -0.05327780172228813, -0.014360479079186916, 0.02218509092926979, 0.008587922900915146, 0.06062934547662735, 0.09094970673322678, -0.0358683243393898, 0.005131494719535112, -0.07848808914422989, -0.017979949712753296, -0.19241175055503845, -0.12960362434387207, -0.1329551339149475, -0.0679897665977478, -0.005003093276172876, 0.0013883201172575355, 0.05680306255817413, -0.11211375147104263, 0.08030175417661667, -0.03300189599394798, -0.0599469393491745, 0.06253036111593246, 0.10467201471328735, 0.06731367111206055, 0.04353324696421623, 0.00841139443218708, -0.052353110164403915, -0.19131608307361603, -0.17848746478557587, -0.05864457041025162, 0.05780718848109245, 0.1237073615193367, 0.16383998095989227, -0.00936164055019617, 0.10945659130811691, 0.11743894964456558, -0.15702055394649506, -0.08289957791566849, -0.0357145220041275, 0.010985520668327808, -0.0663469061255455, 0.027619384229183197, -0.06485910713672638, 0.1304117888212204, 0.08797737210988998, -0.10258397459983826, -0.17549553513526917, 0.005740619730204344, 0.030651288107037544, 0.04560510814189911, 0.05989691987633705, -0.020746765658259392, -0.005858713295310736, -0.0994032695889473, 0.15037895739078522, -0.02278376743197441, -0.027878528460860252, -0.025486597791314125, -0.03542683273553848, -0.20563314855098724, 0.16674315929412842, 0.08966375142335892, 0.14919225871562958, 0.18695572018623352, -0.06634392589330673, 0.03879532963037491, -0.05085471644997597, -0.06091448664665222, -0.02177397534251213, -0.09168184548616409, -0.16948290169239044, -0.054139357060194016, 0.08444640040397644, -0.16303852200508118, -0.08590762317180634, -0.08043446391820908, -0.029186340048909187, 0.3452998697757721, -0.19536256790161133, 0.048185382038354874, 0.11448612809181213, -0.13490968942642212, -0.013545085676014423, -0.03207692131400108, -0.007239164784550667, 0.01173295360058546, 0.03410623222589493, 0.189466193318367, -0.027302337810397148, 0.2079944610595703, 0.05083216726779938, -0.03408960625529289, -0.070314921438694, -0.07082387059926987, 0.011625148355960846, -0.08280068635940552, -0.11350901424884796, -0.13244473934173584, -0.11627140641212463, 0.017349550500512123, 0.15977218747138977, 0.001919455360621214, -0.1153096929192543, 0.023707358166575432, -0.015499169938266277], [0.09688342362642288, 0.17482107877731323, -0.006921305321156979, -0.11265460401773453, 0.1755845993757248, 0.08315486460924149, 0.08417866379022598, 0.08163484185934067, -0.08799178153276443, -0.012053444050252438, -0.014319696463644505, -0.11767875403165817, 0.03527548536658287, -0.11989083886146545, 0.006336962338536978, 0.05794607847929001, -0.06408514082431793, 0.1896306723356247, -0.06051437929272652, 0.13349777460098267, -0.025595197454094887, 0.11868049949407578, 0.025281725451350212, 0.10190562158823013, -0.13121500611305237, 0.018809428438544273, 0.04299405962228775, -0.13071410357952118, -0.11738868802785873, 0.1146702989935875, -0.08380982279777527, -0.0518324188888073, -0.01372742373496294, 0.030395520851016045, 0.08666122704744339, 0.13625337183475494, -0.15409740805625916, 0.09082090109586716, 0.16672860085964203, 0.06272219866514206, -0.11097351461648941, -0.17322517931461334, -0.06196907162666321, -0.1617961823940277, -0.0878065899014473, 0.14393222332000732, -0.02182670682668686, -0.05284721404314041, -0.00034822445013560355, -0.052735526114702225, -0.0731733962893486, -0.012895055115222931, 0.10084287822246552, -0.05077323317527771, -0.123766228556633, -0.032499995082616806, -0.0004319518047850579, -0.0416254960000515, -0.025464026257395744, -0.10697553306818008, 0.21003052592277527, -0.032991454005241394, -0.10946673899888992, 0.029423290863633156, -0.11146535724401474, -0.05306651443243027, -0.23951400816440582, -0.040420420467853546, -0.13075849413871765, -0.11698077619075775, -0.09355790913105011, -0.25258684158325195, -0.16111521422863007, -0.16629956662654877, 0.08636593818664551, 0.20773257315158844, 0.15505726635456085, 0.026308229193091393, 0.19290819764137268, -0.07347346097230911, -0.18729926645755768, 0.12455499172210693, -0.03274347260594368, -0.046742841601371765, 0.11374875903129578, 0.0559871606528759, 0.20137497782707214, 0.08184771984815598, 0.019758418202400208, 0.16225306689739227, 0.02280341275036335, 0.13326998054981232, 0.026607919484376907, 0.0927896797657013, -0.09439495950937271, -0.030111880972981453, 0.2865825891494751, -0.1245129257440567, -0.0017085137078538537, 0.17198309302330017, -0.20178388059139252, 0.18749403953552246, 0.10979562252759933, 0.06313116103410721, 0.13058659434318542, -0.15034447610378265, 0.05582194775342941, 0.08071685582399368, 0.14725583791732788, -0.0550658293068409, -0.014934303238987923, -0.06175932660698891, -0.14176833629608154, 0.047940514981746674, -0.03924202173948288, -0.00917306262999773, 0.04908808693289757, 0.0904029831290245, -0.20278260111808777, 0.08878059685230255, 0.1306627243757248, 0.19775265455245972, 0.0526249073445797, -0.161295086145401, -0.10560306161642075, -0.008940205909311771, -0.01728905737400055, 0.037457793951034546], [-0.079901322722435, -0.2024656981229782, -0.01718328520655632, -0.08281932026147842, 0.012225477956235409, 0.10313262045383453, -0.02863125503063202, -0.08883465081453323, 0.0008375500328838825, -0.056018151342868805, 0.01830347627401352, -0.1898069679737091, -0.1030225157737732, -0.1303788721561432, 0.1302337646484375, 0.019281897693872452, -0.06423760205507278, -0.07041000574827194, 0.17410337924957275, -0.15509332716464996, 0.050697263330221176, -0.134030282497406, 0.014276701025664806, 0.1326359361410141, -0.10296215116977692, 0.14971548318862915, -0.172097846865654, 0.06990578770637512, -0.060115519911050797, 0.09861885011196136, -0.09656457602977753, -0.13797785341739655, -0.06845854222774506, -0.02124282531440258, -0.07505982369184494, -0.054806750267744064, 0.013517022132873535, 0.2837868928909302, -0.09546759724617004, -0.06153550371527672, -0.1913469433784485, -0.10349629819393158, -0.02905404008924961, -0.01767420396208763, -0.009758932515978813, 0.005409883800894022, -0.004520497750490904, -0.08836918324232101, -0.01159388106316328, 0.061143506318330765, -0.004159099422395229, -0.24978621304035187, 0.01763295941054821, -0.09556790441274643, 0.05544878914952278, -0.02109190821647644, 0.022913409397006035, -0.08936914801597595, 0.1638815850019455, -0.1543876826763153, -0.14444957673549652, 0.03250214457511902, 0.05709975212812424, -0.0038250056095421314, -0.16307267546653748, 0.20130924880504608, -0.06410041451454163, -0.11582144349813461, -0.050128545612096786, -0.10866163671016693, 0.10649766027927399, 0.2541707158088684, 0.1482875645160675, 0.12237656116485596, -0.1124417632818222, -0.1350829303264618, -0.10941363871097565, 0.039810910820961, -0.05664460361003876, -0.010042091831564903, -0.12483830749988556, -0.07635277509689331, -0.010464397259056568, 0.006325841415673494, 0.19875329732894897, 0.10170876979827881, -0.04163350537419319, -0.005349702667444944, 0.054498542100191116, -0.22727856040000916, -0.14524435997009277, 0.0005634856643155217, -0.017154522240161896, -0.03802735358476639, 0.17386426031589508, 0.10105641931295395, 0.08868090808391571, -0.04732721298933029, 0.00810998398810625, -0.05553758889436722, 0.16069984436035156, -0.13863596320152283, -0.04573708027601242, 0.1011151522397995, 0.05393112450838089, -0.20225109159946442, 0.08452382683753967, -0.08868661522865295, 0.16008543968200684, 0.010266110301017761, 0.0971621721982956, -0.030938483774662018, 0.18250925838947296, -0.02753414213657379, 0.039681944996118546, 0.011992795392870903, -0.08919619023799896, -0.039208441972732544, -0.0061182319186627865, 0.009721203707158566, -0.10253267735242844, -0.08001003414392471, 0.16356827318668365, -0.14524951577186584, 0.07243204861879349, -0.039793092757463455, 0.11606940627098083, 0.06595326215028763], [0.06932248175144196, -0.13187047839164734, 0.12203627824783325, 0.024063406512141228, 0.018314916640520096, -0.05513623356819153, -0.020639266818761826, 0.05434362590312958, -0.0823301300406456, 0.0198765080422163, -0.19967810809612274, -0.08902810513973236, 0.0731617733836174, -0.1744065135717392, -0.18110832571983337, -0.13366135954856873, 0.07537975907325745, 0.04754871129989624, 0.032492462545633316, 0.15240781009197235, 0.10579253733158112, -0.0955876037478447, -0.21573513746261597, 0.06086166203022003, -0.044323962181806564, -0.20342803001403809, -0.1263905018568039, -0.1684301495552063, 0.02761620655655861, -0.05194106325507164, -0.2794002890586853, 0.3106728792190552, -0.0470808669924736, -0.03394950553774834, 0.019143588840961456, 0.06574314832687378, -0.02268368937075138, 0.03351804241538048, 0.12880563735961914, -0.08817463368177414, -0.10152935236692429, -0.06598570942878723, 0.039023496210575104, -0.10307363420724869, -0.08057539165019989, -0.07784689962863922, -0.16135278344154358, 0.15193390846252441, -0.026761334389448166, -0.07592613995075226, -0.07829180359840393, 0.1772821992635727, -0.0917905941605568, 0.11452776193618774, -0.006573507562279701, 0.22111670672893524, -0.05071573331952095, 0.052476461976766586, 0.10961820185184479, 0.10157077014446259, 0.11563581973314285, -0.019006341695785522, 0.1732865869998932, 0.04641970992088318, -0.20751620829105377, -0.00268951035104692, -0.11490025371313095, -0.0025427008513361216, 0.021006770431995392, 0.07860663533210754, -0.04334894195199013, -0.09930756688117981, -0.303023099899292, -0.04004891961812973, 0.11180497705936432, -0.184402734041214, -0.09987412393093109, -0.14582838118076324, -0.09664981812238693, -0.10884247720241547, -0.019654428586363792, 0.08782177418470383, 0.2922729551792145, 0.02296624705195427, 0.018360380083322525, -0.12192731350660324, 0.03384177386760712, 0.144265815615654, -0.04476595297455788, 0.11044083535671234, 0.11654507368803024, 0.09619136154651642, 0.008708487264811993, 0.0066393958404660225, 0.1816830039024353, -0.216513529419899, 0.29045677185058594, 0.13086199760437012, -0.018351320177316666, 0.02676260471343994, -0.040320515632629395, 0.0856543779373169, 0.06260949373245239, 0.04779995232820511, -0.07194386422634125, -0.09367404878139496, 0.17475835978984833, 0.04166637733578682, 0.04821642488241196, -0.1925206035375595, 0.03824804350733757, -0.03535415232181549, 0.05990513786673546, 0.16783000528812408, -0.025616338476538658, -0.014479100704193115, -0.0380416102707386, 0.04790826514363289, -0.10330075770616531, 0.0026683618780225515, 0.1912633180618286, 0.11099519580602646, 0.19420225918293, -0.3121463358402252, -0.13175910711288452, -0.17357701063156128, -0.06229834631085396, 0.018221203237771988], [0.1290956735610962, 0.25488096475601196, -0.05765697360038757, -0.09496067464351654, 0.09605696052312851, 0.1952168345451355, -0.020608283579349518, 0.03403015062212944, -0.05369437485933304, -0.016637424007058144, -0.09176114946603775, -0.03173738345503807, -0.137090265750885, -0.21109020709991455, -0.06644432246685028, 0.047330427914857864, -0.05923651531338692, 0.10642644017934799, -0.014962853863835335, -0.07373739778995514, 0.009886213578283787, -0.13484759628772736, 0.1646544188261032, 0.0034918494056910276, -0.07817509025335312, -0.0962710753083229, -0.24036364257335663, -0.058796074241399765, -0.06157973036170006, -0.02932211011648178, -0.03410091623663902, 0.15285280346870422, 0.03412003070116043, 0.09105025976896286, 0.16015462577342987, -0.03616437688469887, 0.054513197392225266, 0.19142478704452515, 0.04985368624329567, -0.09418576955795288, -0.07770935446023941, -0.08318238705396652, -0.03998122736811638, -0.08572165668010712, -0.25963258743286133, 0.02544296905398369, 0.05610834062099457, 0.12842006981372833, 0.14511191844940186, 0.06611280143260956, -0.08690260350704193, -0.13838957250118256, 0.03391323611140251, -0.029307615011930466, -0.051544319838285446, 0.010975275188684464, 0.04194625839591026, -0.004083765670657158, 0.025819502770900726, 0.040859922766685486, 0.03201039880514145, 0.002164175733923912, 0.028886541724205017, 0.03582840785384178, 0.0033140978775918484, -0.2748085856437683, -0.13260658085346222, 0.013890142552554607, -0.24201318621635437, -0.054817620664834976, -0.11665036529302597, 0.15220683813095093, -0.13056695461273193, -0.05059387907385826, -0.13785025477409363, -0.012084152549505234, 0.1381768137216568, 0.054856378585100174, 0.16133643686771393, -0.11800896376371384, -0.19720587134361267, 0.1311182677745819, 0.09704969823360443, 0.21795795857906342, 0.07995440065860748, 0.10991478711366653, -0.159928560256958, -0.029330141842365265, 0.05348898470401764, 0.21760298311710358, 0.09042903035879135, 0.18402047455310822, 0.04032178223133087, -0.12826569378376007, 0.07592663913965225, 0.14529205858707428, 0.1732863038778305, 0.09069325029850006, -0.022860761731863022, -0.0748472735285759, 0.05999361351132393, -0.15116968750953674, 0.04343835636973381, -0.040945447981357574, 0.05696524679660797, 0.0006359141552820802, 0.1491667926311493, 0.06561370939016342, -0.29904019832611084, -0.09039585292339325, 0.0905681848526001, -0.27116239070892334, 0.0947885513305664, -0.30068856477737427, 0.2720591127872467, 0.12005353718996048, 0.11139197647571564, -0.10923605412244797, 0.08885059505701065, 0.18733184039592743, 0.034504570066928864, -0.03941669687628746, 0.13934074342250824, -0.1980612576007843, -0.10847437381744385, -0.26845401525497437, -0.038567621260881424, 0.11751876771450043], [0.05940018594264984, -0.006879484746605158, -0.1241595521569252, 0.09935609996318817, 0.10242099314928055, -0.013303793035447598, 0.04616274684667587, 0.05198797211050987, -0.11763470619916916, 0.04610774666070938, -0.09015195071697235, -0.038835328072309494, -0.08270575851202011, -0.08092832565307617, -0.13064095377922058, 0.09832832962274551, -0.13248266279697418, 0.03349453955888748, -0.06536996364593506, 0.11247849464416504, 0.014359313994646072, -0.008436140604317188, -0.08717069029808044, 0.03779104724526405, -0.09609514474868774, 0.10073518007993698, -0.05233779922127724, -0.11672912538051605, -0.053964950144290924, 0.06341477483510971, -0.11905565857887268, 0.05266031250357628, 0.00713874539360404, 0.051145363599061966, 0.01943836733698845, 0.03339457884430885, -0.049792900681495667, -0.07259193807840347, 0.06082257255911827, -0.008748349733650684, -0.0402589775621891, -0.1594335287809372, -0.12825584411621094, 0.08149361610412598, -0.06715493649244308, 0.15251800417900085, -0.026602383702993393, -0.03037610836327076, 0.04287157207727432, 0.002582971239462495, -0.16805139183998108, -0.01369526982307434, -0.08436056971549988, 0.05753496289253235, -0.17647883296012878, -0.1858901083469391, -0.016355913132429123, -0.08456917107105255, 0.01740431971848011, 0.11101676523685455, 0.09328343719244003, -0.09845234453678131, -0.11750037223100662, -0.0012683426029980183, -0.13753335177898407, 0.07584363222122192, -0.027625231072306633, -0.03952483460307121, -0.0024939202703535557, -0.07812099158763885, -0.06989752501249313, 0.042037662118673325, 0.011136576533317566, -0.18822087347507477, 0.11577244102954865, 0.22210095822811127, 0.15942376852035522, 0.08981410413980484, 0.021853521466255188, 0.04049075022339821, 0.2062133252620697, -0.02517855539917946, 0.0797094851732254, -0.11777882277965546, 0.03563600406050682, -0.04197847843170166, 0.22279076278209686, -0.047246988862752914, 0.011001584120094776, -0.0033237463794648647, -0.0656590536236763, -0.028060274198651314, -0.02702842652797699, -0.019316522404551506, 0.11510929465293884, -0.2065342515707016, 0.04429648071527481, -0.04849351942539215, 0.004744251258671284, 0.03181419149041176, 0.03114853985607624, 0.18355275690555573, 0.011539447121322155, -0.002424658741801977, -0.07906270772218704, 0.018770935013890266, 0.12292037904262543, -0.16167451441287994, 0.13938471674919128, -0.03358497843146324, 0.18836839497089386, 0.14906007051467896, 0.12902294099330902, 0.26027292013168335, -0.1275218278169632, -0.05595299229025841, 0.1306525617837906, -0.11578831821680069, -0.16595964133739471, -0.12813636660575867, -0.02940775267779827, 0.0785960927605629, 0.1151600107550621, -0.05342865362763405, 0.060211699455976486, 0.08513429015874863, -0.005047132261097431, 0.0020095673389732838], [0.06421785056591034, -0.0920129343867302, -0.04603251814842224, 0.2056729644536972, 0.059891317039728165, -0.02010493539273739, -0.2899780869483948, -0.0552394762635231, 0.01437129732221365, -0.08054766803979874, -0.1353866457939148, -0.005619468633085489, 0.14646480977535248, -0.04552900046110153, -0.13927768170833588, 0.308927059173584, -0.15480482578277588, -0.0020634618122130632, 0.04982500523328781, 0.043522074818611145, -0.24557062983512878, -0.023863550275564194, -0.08238133788108826, 0.07431761175394058, -0.09128782898187637, -0.1696549654006958, -0.0274166502058506, -0.05272220820188522, -0.13817106187343597, 0.02981264516711235, -0.026662129908800125, 0.19806353747844696, 0.10444896668195724, 0.0731397196650505, -0.16493578255176544, -0.21813073754310608, -0.0901893749833107, -0.18281608819961548, 0.1585490107536316, 0.021863585337996483, -0.06516524404287338, -0.08949229121208191, -0.19345055520534515, 0.09741850197315216, 0.10856050252914429, -0.024619784206151962, -0.23229962587356567, 0.04759193956851959, -0.020282555371522903, 0.08766233921051025, -0.11696095019578934, 0.16935522854328156, 0.038227859884500504, 0.05992990732192993, 0.04512294381856918, 0.14734914898872375, 0.15740923583507538, -0.030837735161185265, -0.16808611154556274, 0.04840908572077751, 0.07946402579545975, -0.1556403636932373, 0.029333999380469322, -0.026654008775949478, -0.10885097086429596, -0.058171845972537994, -0.010857600718736649, -0.032277826219797134, 0.039798665791749954, 0.042041778564453125, -0.0283890999853611, -0.16083025932312012, -0.0369517020881176, 0.052803948521614075, -0.03600624203681946, 0.09637002646923065, -0.07267739623785019, -0.10712792724370956, 0.22461354732513428, -0.10194375365972519, 0.031052635982632637, -0.17463432252407074, 0.07092516124248505, -0.09323111176490784, -0.2784961462020874, -0.1256701648235321, 0.06193501129746437, -0.11786666512489319, -0.01142358873039484, 0.1392427682876587, 0.024879828095436096, 0.07128855586051941, -0.04523221775889397, 0.18345902860164642, 0.11401505023241043, -0.34700077772140503, -0.025792639702558517, -0.05095586180686951, -0.08742290735244751, -0.05723247677087784, 0.2821045219898224, -0.03396344557404518, 0.028322115540504456, 0.009829583577811718, -0.06884202361106873, -0.019726183265447617, 0.007580484729260206, 0.0850641205906868, 0.009839693084359169, -0.010299102403223515, -0.047618966549634933, 0.1265576183795929, 0.21021144092082977, 0.2783156931400299, -0.07357573509216309, -0.09840600937604904, 0.24532009661197662, 0.04026869684457779, -0.0006049669464118779, 0.07539736479520798, 0.025133736431598663, 0.1306142508983612, -0.07074666768312454, 0.02843761257827282, -0.05049993097782135, 0.02965034730732441, 0.14301283657550812, -0.18884630501270294], [-0.08527056127786636, -0.0045395889319479465, -0.012778530828654766, -0.09699572622776031, 0.006471926346421242, 0.2230129987001419, 0.16796085238456726, 0.012816248461604118, 0.16256026923656464, -0.14040164649486542, 0.03309816122055054, 0.08273594826459885, -0.12347344309091568, 0.09210942685604095, 0.05598985403776169, -0.1703193187713623, 0.2254474014043808, -0.17231270670890808, 0.1061888262629509, -0.09136836975812912, 0.021670954301953316, 0.17530949413776398, 0.10228046029806137, 0.011295212432742119, -0.01823059283196926, 0.17130984365940094, -0.02252892218530178, 0.04585546627640724, 0.025819264352321625, -0.20220834016799927, -0.11090198904275894, 0.054115138947963715, -0.02997523732483387, -0.08924534916877747, 0.0028832601383328438, -0.045191626995801926, -0.06142836809158325, 0.05423650145530701, -0.016038719564676285, -0.14559714496135712, -0.02703111618757248, 0.24324928224086761, 0.01530784834176302, 0.15911659598350525, 0.0934964269399643, 0.023299532011151314, 0.13279619812965393, -0.045885756611824036, -0.05544423684477806, -0.11996158212423325, -0.19235579669475555, -0.09807442873716354, -0.20074039697647095, 0.019528813660144806, 0.1452370434999466, 0.1296147108078003, -0.12267514318227768, 0.15476147830486298, 0.1393217146396637, -0.0102255679666996, -0.004717346280813217, 0.06305093318223953, -0.09937187284231186, -0.11271560192108154, 0.0625193789601326, 0.140797421336174, -0.030599864199757576, 0.018083367496728897, -0.034778788685798645, -0.11158400028944016, -0.08435013145208359, 0.1315036565065384, 0.13984164595603943, -0.03370765969157219, 0.09628695994615555, -0.1798015683889389, -0.059234049171209335, -0.03233936056494713, -0.1077084019780159, 0.004344189073890448, 0.14246949553489685, 0.03379695862531662, 0.000749584287405014, 0.06568984687328339, 0.2724439799785614, -0.015260792337357998, -0.031463369727134705, 0.09179224073886871, 0.1241612583398819, -0.0802074670791626, -0.05082756653428078, 0.0048388829454779625, 0.2956984341144562, -0.1311579942703247, 0.0045595900155603886, 0.16460005939006805, -0.06527731567621231, -0.08840236812829971, -0.0822749212384224, 0.1839071363210678, -0.039764776825904846, 0.013986365869641304, 0.010417572222650051, 0.12155751883983612, -0.03387506678700447, 0.04337945207953453, 0.008902025409042835, -0.048390697687864304, -0.21348239481449127, 0.0482528880238533, -0.07063886523246765, 0.029680654406547546, 0.24601076543331146, 0.02311474084854126, -0.07168639451265335, -0.0009787222370505333, -0.05138569325208664, 0.05017687380313873, 0.08934009820222855, -0.01487818080931902, -0.0006580664776265621, -0.11242362856864929, 0.009515226818621159, 0.15685851871967316, 0.12314529716968536, -0.09216710925102234, 0.13756071031093597, 0.028221270069479942], [0.011760237626731396, -0.06728827208280563, 0.06353745609521866, 0.019333574920892715, 0.011513897217810154, -0.07017244398593903, -0.14602352678775787, -0.1854265332221985, 0.0044254520907998085, 0.021844537928700447, -0.20712417364120483, -0.033972982317209244, 0.015469581820070744, -0.03281081095337868, 0.04080093279480934, 0.10980911552906036, -0.023021133616566658, 0.17975971102714539, -0.008083956316113472, -0.07130426168441772, -0.06418325752019882, 0.14280061423778534, -0.05893763527274132, -0.008518800139427185, -0.1435983031988144, -0.07944267988204956, -0.04013944789767265, -0.10135844349861145, -0.10203434526920319, -0.025885220617055893, 0.0027629609685391188, 0.10039503127336502, -0.02142706885933876, -0.023134279996156693, 0.00332270422950387, 7.372513937298208e-05, -0.19480612874031067, -0.050725821405649185, -0.11990739405155182, 0.06742780655622482, -0.00694034481421113, 0.13525161147117615, -0.10700327903032303, -0.1024865210056305, 0.1462300717830658, 0.06421995162963867, -0.02576415054500103, -0.07190336287021637, -0.05940627679228783, -0.07274988293647766, -0.058055222034454346, -0.12794306874275208, 0.016719937324523926, 0.005757246632128954, -0.05464659258723259, -0.04960453510284424, 0.0422552227973938, -0.053592484444379807, -0.06090204417705536, 0.17263053357601166, 0.13377158343791962, 0.082298643887043, 0.026391159743070602, -0.045116864144802094, -0.02687515690922737, 0.08462393283843994, 0.04700680822134018, -0.09005963057279587, -0.14033374190330505, -0.01623612642288208, 0.1699325293302536, 0.14613574743270874, -0.089324951171875, 0.05687374621629715, -0.03318759799003601, -0.08718733489513397, 0.0015991829568520188, -0.07835512608289719, -0.0583917498588562, -0.09534158557653427, 0.04978853836655617, -0.13875900208950043, 0.12775097787380219, -0.1734701693058014, 0.08982911705970764, -0.0007259902195073664, -0.12052499502897263, -0.06206854060292244, 0.035577211529016495, -0.16065077483654022, 0.056049223989248276, -0.07784803956747055, 0.11793994158506393, 0.05321221426129341, -0.1765221506357193, -0.1910856068134308, 0.07884916663169861, -0.0039087869226932526, 0.03756903484463692, 0.17918577790260315, 0.02099190093576908, 0.09933687001466751, 0.020507661625742912, 0.016296682879328728, 0.028443917632102966, 0.183426171541214, -0.02814394421875477, -0.17868274450302124, 0.01870291866362095, -0.09685265272855759, -0.028581561520695686, 0.18853212893009186, -0.01009987760335207, 0.0025100994389504194, 0.0054628862999379635, 0.08353231102228165, 0.050913650542497635, 0.02481934428215027, -0.0578824020922184, -0.11751968413591385, -0.06787236779928207, -0.0011050255270674825, 0.05948823690414429, -0.12642256915569305, -0.0024157781153917313, -0.1937648355960846, -0.07464049756526947, -0.05448976531624794]], "down.2.weight": [[-0.25934842228889465, -0.10521768778562546, -0.08603278547525406, 0.22364701330661774, 0.0670941025018692, 0.008222104050219059, -0.013747422955930233, -0.13821719586849213, -0.1350811868906021, -0.0507994182407856, -0.08186937123537064, 0.1434188038110733, -0.038019049912691116, -0.02902848646044731, -0.1575240194797516, 0.07206358760595322, -0.12433092296123505, -0.0557558611035347, -0.1715897023677826, -0.00030886457534506917, -0.24507637321949005, -0.015392559580504894, -0.13139481842517853, 0.04887950420379639, 0.03359553590416908, 0.06218499317765236, -0.018478669226169586, -0.058328352868556976, -0.030175913125276566, -0.02128765918314457, 0.0679854154586792, 0.19105365872383118, 0.164425790309906, 0.10352986305952072, 0.20721684396266937, -0.05525147169828415, -0.154940664768219, -0.07941357791423798, 0.14281544089317322, -0.06926562637090683, 0.03123551234602928, 0.11161947250366211, -0.11987344920635223, 0.08084501326084137, -0.04250103980302811, 0.02046462893486023, -0.055643897503614426, 0.16452747583389282, -0.18624632060527802, 0.11258633434772491, 0.06982766091823578, 0.12280011922121048, 0.06433379650115967, -0.12294969707727432, -0.11581532657146454, 0.11396098881959915, 0.044104527682065964, -0.08236232399940491, 0.08361256122589111, -0.03938191384077072, 0.055025406181812286, 0.01906212978065014, -0.1277932971715927, 0.058223072439432144, -0.06378910690546036, -0.06756662577390671, -0.010725589469075203, 0.013826239854097366, -0.07132510095834732, -0.10870680958032608, 0.07091155648231506, -0.17342978715896606, 0.04399297386407852, 0.08399758487939835, 0.07840108871459961, 0.0027195534203201532, -0.1347983181476593, -0.24662820994853973, -0.08680742979049683, -0.06767289340496063, 0.045499250292778015, -0.19492067396640778, 0.021891187876462936, 0.09750738739967346, 0.0889589861035347, -0.05741402506828308, 0.07117500901222229, -0.0887790322303772, 0.13203032314777374, -0.08732415735721588, 0.06909392029047012, -0.032999392598867416, 0.05755791440606117, 0.15724898874759674, 0.07637852430343628, 0.012213156558573246, -0.026477158069610596, -0.07875613868236542, -0.04084702208638191, -0.10046859085559845, -0.08455178886651993, -0.05269763246178627, -0.08628212660551071, -0.11582066863775253, -0.2228790819644928, -0.08227068930864334, 0.1165139377117157, -0.12785789370536804, -0.04494056478142738, -0.06439051777124405, -0.02820426970720291, 0.035390499979257584, 0.06886880844831467, 0.010841574519872665, 0.14769470691680908, 0.041142579168081284, -0.04294317215681076, 0.07369387894868851, 0.14546747505664825, 0.057267941534519196, -0.04755619540810585, 0.0649876520037651, -0.03284655511379242, -0.09242907166481018, -0.10464602708816528, -0.06676150113344193, -0.1670936793088913, -0.015232449397444725], [-0.14036385715007782, -0.03555554151535034, 0.026887571439146996, -0.002976212417706847, -0.12334492802619934, -0.048093296587467194, 0.18678288161754608, 0.08609633147716522, -0.08478084951639175, 0.1288544088602066, -0.05297549441456795, -0.002615283941850066, 0.03310934454202652, -0.02885539084672928, -0.18152135610580444, -0.22568722069263458, -0.044035542756319046, -0.17240509390830994, -0.04060203954577446, -0.0471985787153244, -0.1198064461350441, -0.014876510947942734, -0.12023695558309555, -0.09227562695741653, 0.0007840253529138863, -0.15441925823688507, 0.19090455770492554, -0.0275576151907444, -0.006475558038800955, -0.06542949378490448, -0.07360339164733887, -0.019663581624627113, -0.07542046159505844, 0.014646047726273537, -0.17060191929340363, 0.01666310802102089, -0.19535420835018158, 0.011670636013150215, 0.18710879981517792, 0.1305515021085739, 0.06989715993404388, -0.03234896436333656, 0.21310299634933472, -0.1291864812374115, 0.004282905720174313, -0.25873738527297974, 0.06896408647298813, -0.36246180534362793, -0.11398107558488846, -0.10181557387113571, -0.18161806464195251, -0.20667606592178345, -0.038009289652109146, 0.11462704092264175, -0.17890861630439758, -0.07572942972183228, -0.2597731053829193, 0.07936041802167892, -0.09958235919475555, -0.17129796743392944, -0.19084112346172333, -0.24496179819107056, -0.12390079349279404, -0.09759177267551422, 0.1554075926542282, 0.1355106681585312, 0.0956987738609314, -0.006639277096837759, -0.1003158763051033, -0.13588771224021912, -0.2231515794992447, -0.08758778125047684, 0.06142463907599449, -0.05560995638370514, 0.17098699510097504, 0.033732280135154724, 0.19394958019256592, 0.20395779609680176, 0.11480992287397385, 0.1749308854341507, 0.09661196172237396, 0.06827732175588608, 0.07484018057584763, -0.05593855306506157, -0.31313952803611755, 0.114866703748703, 0.05156838893890381, -0.007998635992407799, -0.03435498848557472, 0.07182776927947998, 0.07825957238674164, -0.013986310921609402, -0.05386145040392876, 0.023595577105879784, 0.009813688695430756, -0.021560685709118843, 0.16184760630130768, 0.06853681057691574, 0.07305935770273209, 0.22735576331615448, -0.1777840256690979, -0.11188781261444092, -0.0017604832537472248, 0.04388561472296715, 0.06329422444105148, 0.025928204879164696, 0.05912346765398979, -0.07897728681564331, 0.15571632981300354, -0.03512144833803177, -0.25642287731170654, 0.030204124748706818, 0.04356236755847931, 0.15607915818691254, 0.3067372441291809, 0.06411423534154892, 0.12484195828437805, -0.0033386757131665945, 0.005520935170352459, -0.09772220999002457, 0.20454815030097961, -0.06799853593111038, 0.12041217088699341, -0.1301872283220291, 0.011179030872881413, 0.1306953877210617, 0.08609763532876968, -0.24446958303451538], [0.18102025985717773, -0.022743001580238342, 0.004419836215674877, -0.022628607228398323, -0.054989833384752274, -0.15448851883411407, 0.08325032889842987, 0.00024232681607827544, -0.035513363778591156, 0.0612756684422493, -0.02209760621190071, 0.05643894895911217, -0.08778203278779984, -0.06693638861179352, 0.002477377187460661, -0.18130327761173248, 0.10288655012845993, 0.10466708987951279, -0.0701863244175911, -0.020588910207152367, -0.11366740614175797, 0.16834883391857147, -0.12127745896577835, 0.05485235154628754, 0.03233523666858673, 0.004697804339230061, 0.00044015940511599183, -0.015630530193448067, 0.01770523004233837, 0.0005005117272958159, -0.05229846388101578, -0.014816979877650738, 0.043917857110500336, 0.09922425448894501, -0.15221458673477173, 0.07643765956163406, 0.010074550285935402, -0.18817999958992004, 0.1556946188211441, 0.014230345375835896, 0.04197007045149803, 0.2408057600259781, 0.13830940425395966, 0.13506300747394562, 0.017893565818667412, -0.1467484086751938, -0.012601221911609173, -0.19941994547843933, 0.06921055912971497, 0.053332481533288956, -0.10169962793588638, 0.06616229563951492, -0.037750836461782455, 0.026952113956212997, -0.05597550421953201, -0.11868347972631454, -0.07520322501659393, -0.008812091313302517, 0.1270068734884262, 0.016128070652484894, -0.03265661373734474, 0.10974402725696564, 0.17736664414405823, 0.10907477885484695, 0.02938019298017025, 0.08483104407787323, 0.052984077483415604, -0.028363626450300217, -0.1429811716079712, 0.2765991985797882, -0.07413224130868912, -0.23386074602603912, -0.01004616916179657, -0.09334272146224976, 0.15740257501602173, -0.11950265616178513, -0.06678099930286407, 0.0573643296957016, -0.0759718269109726, 0.05579858645796776, -0.04552111402153969, 0.045954737812280655, -0.140023335814476, -0.16498981416225433, 0.03887445107102394, 0.0171610526740551, 0.1552184820175171, 0.12168848514556885, 0.027994005009531975, 0.05488038808107376, 0.0022181994281709194, -0.10322260111570358, -0.15547506511211395, 0.04732950031757355, -0.016624659299850464, 0.13170909881591797, -0.009603731334209442, -0.26791703701019287, 0.10270989686250687, 0.028726408258080482, -0.15215937793254852, 0.08388441056013107, -0.02216886729001999, -0.04078636318445206, -0.07598250359296799, 0.043596312403678894, -0.111370749771595, -0.08847740292549133, -0.2660728394985199, 0.1356370747089386, -0.08104857057332993, -0.07386426627635956, -0.1441417634487152, -0.12107177823781967, -0.043761469423770905, -0.07665200531482697, -0.003493629163131118, 0.19794735312461853, 0.1582868993282318, 0.07330350577831268, -0.02310287207365036, 0.19982483983039856, -0.17058739066123962, 0.09673117846250534, -0.004221322946250439, 0.07684307545423508, 0.13895638287067413, 0.2017550766468048], [-0.022962195798754692, 0.043901845812797546, 0.09683234244585037, -0.02957448549568653, -0.12676002085208893, -0.035926591604948044, -0.14749036729335785, -0.0775146633386612, -0.10805671662092209, -0.04572939872741699, 0.1221611499786377, 0.04026344418525696, -0.07454442232847214, 0.031997717916965485, 0.1368429958820343, -0.12528374791145325, -0.04516866058111191, -0.04353449493646622, 0.24068182706832886, -0.09285835921764374, -0.08816796541213989, 0.08226916193962097, 0.002370073925703764, -0.06822937726974487, 0.11921961605548859, 0.09868200868368149, 0.04673232138156891, 0.04773392900824547, -0.44602012634277344, 0.10779601335525513, -0.03916540369391441, -0.08011971414089203, -0.12861795723438263, 0.0405806265771389, -0.016539905220270157, 0.014835033565759659, 0.004816044121980667, -0.0036957457195967436, -0.14547139406204224, 0.1850500851869583, 0.006557609420269728, -0.056206922978162766, 0.029860252514481544, 0.11227504163980484, 0.042774640023708344, 0.1539255976676941, 0.06319117546081543, 0.04266320541501045, 0.18057820200920105, 0.04616505280137062, -0.18664804100990295, 0.09419167786836624, -0.07258084416389465, -0.015979759395122528, 0.11378752440214157, -0.09569352865219116, -0.0045286244712769985, 0.1597820669412613, 0.06783223897218704, -0.0622180812060833, 0.08734182268381119, -0.16311335563659668, -0.009088156744837761, 0.12082871794700623, 0.02674364112317562, 0.21255987882614136, -0.02650233544409275, 0.08937918394804001, 0.02534954994916916, 0.25197163224220276, 0.09807011485099792, -0.22198188304901123, 0.07751970738172531, 0.0196272861212492, -0.03387897461652756, -0.18547873198986053, 0.09963059425354004, -0.006884224247187376, 0.05990950018167496, -0.06902214139699936, 0.2359679639339447, 0.058021947741508484, 0.11601033061742783, 0.1551080197095871, 0.3186693787574768, 0.07099293172359467, -0.08076756447553635, 0.0032658453565090895, 0.20802879333496094, -0.03717350587248802, -0.27156126499176025, -0.1668020784854889, -0.04518530145287514, -0.06977465003728867, 0.0004979359218850732, 0.15445680916309357, 0.0007039045449346304, -0.118654765188694, 0.003560597077012062, -0.1356627643108368, -0.22175800800323486, -0.3519614338874817, -0.15360486507415771, 0.10693653672933578, -0.029536249116063118, -0.08486519753932953, 0.032201316207647324, -0.04844955727458, -0.10858786851167679, 0.11414963006973267, -0.030317731201648712, 0.15015390515327454, 0.026146501302719116, -0.19598397612571716, -0.038302112370729446, -0.1622084677219391, -0.2331181913614273, 0.2189035713672638, 0.05741911754012108, 0.2398383766412735, -0.17340891063213348, 0.14539363980293274, -0.10392770171165466, 0.13852377235889435, 0.1792733073234558, 0.16199569404125214, -0.1623264104127884, 0.028694625943899155], [-0.1326172798871994, -0.01112692803144455, 0.02275312878191471, -0.31076422333717346, 0.13296610116958618, -0.08116374909877777, 0.03709541633725166, 0.19730404019355774, -0.053927358239889145, -0.14484411478042603, -0.051693182438611984, 0.043074022978544235, 0.006098384968936443, 