{"down.0.weight": [[-0.25466108322143555, 0.10427872836589813, 0.12334295362234116, -0.09158570319414139, -0.07525379210710526, -0.07816780358552933, -0.30139270424842834, -0.31260576844215393, 0.10128612071275711, 0.003700675442814827, 0.039356451481580734, -0.11923304945230484, -0.007555782794952393, 0.20540779829025269, 0.04904541000723839, 0.06503615528345108, 0.3908403515815735, -0.008849256671965122, 0.08700645714998245, 0.2621515095233917, -0.025659553706645966, 0.06712546944618225, -0.17541958391666412, 0.15556493401527405, 0.05391682684421539, 0.10354027152061462, 0.048972684890031815, -0.027410805225372314, -0.19035348296165466, -0.023725373670458794, 0.03605787828564644, 0.11047589778900146, 0.009566999040544033, -0.057014647871255875, -0.18079523742198944, 0.16485849022865295, -0.20431950688362122, 0.16247326135635376, 0.25260183215141296, 0.2481592297554016, 0.03605465218424797, 0.2671525776386261, -0.17182980477809906, -0.035698339343070984, -0.11842029541730881, 0.15328213572502136, -0.12230649590492249, -0.16285116970539093, 0.20553144812583923, 0.1835213005542755, -0.16584324836730957, 0.13014556467533112, 0.1795586198568344, -0.06165929138660431, -0.10472208261489868, 0.0065459334291517735, 0.023363731801509857, -0.13423530757427216, -0.1811896115541458, 0.012449492700397968, 0.0971747487783432, 0.21816208958625793, 0.11708271503448486, 0.05394796282052994, -0.20731361210346222, 0.11190424859523773, -0.1217697411775589, -0.053881850093603134, 0.1362895518541336, -0.1858198493719101, -0.04325157403945923, -0.09117423743009567, -0.19778388738632202, 0.09553543478250504, -0.05088205635547638, 0.023124640807509422, -0.06642650067806244, -0.07736224681138992, 0.10998254269361496, -0.24158574640750885, 0.06696530431509018, 0.14819557964801788, 0.11578237265348434, -0.1285640448331833, 0.07006365805864334, -0.1467616856098175, -0.03827924281358719, -0.1812353879213333, -0.08504858613014221, -0.07110999524593353, 0.08487122505903244, -0.06272997707128525, -0.07567629963159561, -0.08922584354877472, 0.09361447393894196, 0.03830805420875549, -0.08673715591430664, 0.014320631511509418, 0.0043408507481217384, 0.03643612936139107, -0.13570326566696167, -0.13036629557609558, 0.23148994147777557, 0.10441158711910248, -0.10872568935155869, -0.1322110891342163, 0.027053862810134888, -0.0999312773346901, 0.12692728638648987, -0.06603098660707474, -0.07000137120485306, 0.18144433200359344, 0.1697240173816681, 0.2817750871181488, 0.11659971624612808, 0.0218538548797369, 0.016400925815105438, -0.02373412251472473, -0.06864098459482193, -0.09173117578029633, 0.1788920760154724, -0.011271566152572632, -0.11002606153488159, 0.0031401028390973806, 0.13548146188259125, -0.06897001713514328, 0.133201003074646, -0.07657244056463242], [-0.1054891049861908, 0.13606518507003784, 0.03996051475405693, 0.16741923987865448, -0.005590343382209539, 0.07652261108160019, -0.16060994565486908, -0.04093184694647789, -0.10568098723888397, -0.004198335576802492, -0.14371848106384277, -0.0919928252696991, 0.03660237044095993, -0.07794804126024246, 0.0099852429702878, 0.07052359730005264, -0.00583560299128294, -0.044671431183815, 0.21450506150722504, 0.10592667013406754, -0.04419712722301483, -0.06189703196287155, -0.16653065383434296, 0.12432127445936203, -0.12286585569381714, 0.11107980459928513, -0.05502881109714508, -0.08377821743488312, -0.1972501128911972, 0.1334257572889328, 0.11417968571186066, -0.008669085800647736, 0.018982600420713425, -0.07900865375995636, 0.069367416203022, 0.06679864972829819, -0.00650311354547739, 0.08777546137571335, 0.17096281051635742, -0.029756970703601837, 0.13130326569080353, -0.07814497500658035, 0.0130794458091259, 0.05151018872857094, -0.21368856728076935, 0.052655793726444244, -0.0048258379101753235, -0.004110683221369982, 0.1882481873035431, 0.07691917568445206, -0.050290752202272415, -0.020563019439578056, 0.07523795962333679, -0.05483553186058998, -0.0995413288474083, 0.07510627061128616, 0.004311544820666313, -0.0047952113673090935, -0.023074690252542496, 0.0634128674864769, 0.04863259568810463, 0.040096547454595566, -0.0544208399951458, 0.09506819397211075, -0.1216311827301979, 0.08434970676898956, -0.025262366980314255, -0.03288652375340462, -0.039546262472867966, -0.26495808362960815, 0.027421927079558372, -0.09828954935073853, -0.08467931300401688, 0.14066222310066223, -0.15999582409858704, -0.05060639977455139, 0.084120012819767, 0.0849573090672493, 0.041513923555612564, -0.12478118389844894, -0.15741360187530518, 0.10431550443172455, 0.012282765470445156, -0.14544904232025146, -0.14910206198692322, -0.07169218361377716, -0.043171219527721405, -0.06309296935796738, -0.08384174853563309, 0.2788015305995941, -0.07661911845207214, 0.04495089128613472, 0.1453680843114853, 0.01400006003677845, -0.1874520629644394, -0.1849510371685028, 0.22223487496376038, -0.06140958517789841, -0.00968500878661871, 0.054324716329574585, -0.35221678018569946, 0.010138665325939655, 0.08331974595785141, -0.23433634638786316, 0.3473559021949768, -0.17366686463356018, -0.055280983448028564, 0.08986619859933853, 0.03676760569214821, -0.05569550767540932, 0.09485401958227158, -0.014741559512913227, 0.02452242188155651, 0.18111982941627502, 0.07784803211688995, -0.008242689073085785, -0.1130678728222847, -0.058911725878715515, -0.052973054349422455, -0.1872761845588684, -0.06452187895774841, 0.019056446850299835, -0.042600229382514954, -0.04013139754533768, -0.00834310706704855, 0.1269253045320511, -0.07226920127868652, -0.13951054215431213], [0.03746064752340317, -0.10643874108791351, 0.05161310359835625, -0.05196734890341759, -0.11772537231445312, 0.042760878801345825, 0.11430254578590393, -0.04256352037191391, -0.0027624417562037706, -0.11750496178865433, 0.17937132716178894, 0.05246276780962944, 0.1116497665643692, 0.0837494358420372, 0.11944101750850677, -0.03955848887562752, -0.16391120851039886, 0.021236471831798553, 0.14672920107841492, 0.2101721316576004, 0.15390799939632416, -0.12720966339111328, 0.025517387315630913, -0.02690283954143524, -0.058232858777046204, -0.05236564576625824, -0.1557028889656067, -0.06789779663085938, 0.17290344834327698, 0.09130099415779114, -0.1328757256269455, 0.07913430780172348, 0.15136197209358215, -0.048653874546289444, 0.0747881755232811, -0.05087440088391304, 0.011416144669055939, -0.05288658291101456, -0.34824296832084656, -0.013527026399970055, -0.20323580503463745, 0.1715972125530243, 0.054081469774246216, 0.022140566259622574, 0.03465239331126213, -0.06018180400133133, 0.10666491091251373, -0.0052771843038499355, 0.06498215347528458, -0.006630979478359222, -0.10765368491411209, 0.16265766322612762, -0.07801440358161926, -0.10357823222875595, -0.040975622832775116, -0.04436398297548294, -0.05373089015483856, 0.05896468460559845, -0.04455172270536423, 0.04033515602350235, -0.02958480827510357, 0.020917672663927078, 0.02925405651330948, 0.10907886177301407, 0.009255706332623959, 0.0023704790510237217, -0.11169394850730896, 0.009683659300208092, 0.05594832822680473, 0.11742778867483139, 0.21693521738052368, -0.006154523231089115, 0.06286291778087616, 0.06532134860754013, -0.024172481149435043, -0.08837026357650757, 0.04575460031628609, 0.2767810523509979, -0.04344736784696579, 0.21661868691444397, -0.002186491619795561, -0.031883422285318375, 0.2549969553947449, -0.049951959401369095, 0.06256084889173508, -0.16780546307563782, 0.07337591052055359, 0.03070312924683094, 0.0990947037935257, 0.12139743566513062, -0.022143691778182983, 0.1381957232952118, 0.05845937877893448, -0.22681212425231934, -0.015881411731243134, -0.018402419984340668, 0.07775981724262238, 0.1822110116481781, 0.043683700263500214, 0.06836432218551636, 0.011156843975186348, -0.05191389098763466, -0.0019625781569629908, 0.11811483651399612, -0.0022792252711951733, 0.02744554542005062, 0.06405239552259445, -0.06240361928939819, -0.04750511795282364, -0.09184172004461288, 0.22903621196746826, 0.01950029842555523, -0.0379306934773922, 0.08109043538570404, 0.03974533453583717, -0.08207698166370392, -0.01858382672071457, 0.0694841593503952, 0.04625024273991585, 0.018394848331809044, -0.08135970681905746, 0.10284258425235748, 0.05485135689377785, -0.053614888340234756, -0.052190151065588, -0.13201898336410522, 0.12031375616788864, 0.06775626540184021], [0.022941578179597855, 0.013626663945615292, 0.08472300320863724, -0.006467998493462801, -0.05140264704823494, -0.06444310396909714, 0.05423051863908768, 0.04662420600652695, 0.14027781784534454, -0.2354121208190918, 0.11320270597934723, 0.18290038406848907, -0.049664050340652466, -0.09276815503835678, -0.00991139467805624, -0.0070434147492051125, -0.15376028418540955, -0.02471008338034153, -0.07463571429252625, 0.016145501285791397, 0.1092531606554985, 0.14278560876846313, 0.008284458890557289, -0.008831665851175785, -0.0694812759757042, 0.0921812355518341, -0.12950550019741058, 0.12394874542951584, 0.10161422193050385, -0.009245279245078564, -0.042849570512771606, -0.12240657955408096, -0.2680210471153259, -0.028422826901078224, 0.05632484331727028, -0.28096887469291687, -0.24098871648311615, 0.057652704417705536, -0.009385448880493641, -0.08354289084672928, 0.0013374830596148968, 0.05225839093327522, -0.1631709784269333, -0.11038558930158615, 0.14122486114501953, 0.042235516011714935, 0.058385588228702545, 0.110137440264225, 0.11520261317491531, 0.05309538543224335, 0.0582786463201046, 0.04534204676747322, 0.009683453477919102, -0.025076819583773613, 0.07296164333820343, 0.15602828562259674, -0.01628909446299076, 0.025366414338350296, 0.02730303257703781, -0.06434690207242966, -0.09929364919662476, 0.014805392362177372, -0.07936558872461319, -0.036873266100883484, 0.19466227293014526, 0.03462468460202217, -0.03983013704419136, -0.13109859824180603, 0.09597434848546982, 0.20838028192520142, -0.10009939968585968, 0.01498047262430191, 0.057587604969739914, 0.04102594032883644, 0.013557902537286282, 0.011258607730269432, 0.022044416517019272, -0.10357546806335449, -0.12203940004110336, -0.11892107874155045, -0.009690354578197002, -0.1114155501127243, 0.00944475457072258, 0.19354461133480072, -0.07859127223491669, 0.060205474495887756, -0.02894585393369198, 0.04369211941957474, 0.11188247799873352, -0.1311858892440796, -0.1505516618490219, -0.028813326731324196, -0.21087239682674408, -0.04137400910258293, 0.029425043612718582, 0.006463472731411457, -0.07551148533821106, -0.11513109505176544, -0.1827092170715332, -0.1420522779226303, 0.20924146473407745, 0.03729112818837166, -0.1425183266401291, -0.024876773357391357, 0.07067958265542984, -0.01950991153717041, -0.044435855001211166, 0.030496375635266304, 0.03028760850429535, -0.039497535675764084, -0.04904119297862053, -0.1626574546098709, 0.017956091091036797, -0.11451184749603271, -0.21685278415679932, 0.05033009126782417, -0.09740152209997177, 0.11722289025783539, 0.03494648635387421, 0.07460019737482071, -0.07323609292507172, -0.07727739214897156, -0.0631665289402008, 0.27554765343666077, 0.07959062606096268, 0.0810089111328125, 0.058975931257009506, 0.2563215494155884], [-0.15267512202262878, -0.04944277182221413, 0.1982242316007614, 0.0469183474779129, 0.02901841141283512, -0.12005442380905151, -0.17999392747879028, 0.0949491336941719, 0.014760802499949932, 0.14441578090190887, -0.0843769907951355, 0.09630455821752548, -0.0800280049443245, -0.04716968536376953, -0.03312649577856064, 0.07355111092329025, -0.011956981383264065, 0.003658283269032836, -0.1893770545721054, -0.04506657272577286, -0.02612687647342682, -0.1282259225845337, -0.17053282260894775, -0.09322205930948257, 0.191501647233963, -0.19347380101680756, 0.1268988400697708, -0.09274669736623764, -0.10352891683578491, -0.04095907881855965, -0.03955656662583351, -0.059907104820013046, -0.013055098243057728, -0.16842582821846008, -0.03422647714614868, 0.3089192509651184, 0.16569884121418, 0.019824644550681114, 0.03394431993365288, 0.158721923828125, -0.02826976589858532, -0.006240210961550474, -0.06647569686174393, 0.03153397515416145, -0.2575482726097107, 0.00024405415751971304, -0.03010067716240883, -0.009894968010485172, -0.06529566645622253, 0.13267891108989716, 0.2145410180091858, -0.009225255809724331, -0.05211586132645607, -0.1573617309331894, 0.1279325634241104, -0.0536116398870945, 0.06989949196577072, -0.0014871942112222314, -0.0005935170920565724, 0.09269736707210541, -0.13899551331996918, 0.06748135387897491, -0.01274473313242197, 0.037268463522195816, 0.027599627152085304, -0.002001667395234108, 0.09515848755836487, -0.12868808209896088, 0.004910506773740053, -0.03766658157110214, -0.010561898350715637, 0.12378469109535217, -0.02206573076546192, -0.16782137751579285, -0.1834401786327362, -0.10917285084724426, 0.15585066378116608, -0.06741416454315186, -0.02045927755534649, -0.06622160226106644, 0.1156822144985199, 0.05081157013773918, -0.10702330619096756, -0.19465535879135132, -0.025913508608937263, -0.18641135096549988, -0.016868039965629578, -0.010410047136247158, 0.14063295722007751, -0.002171627478674054, -0.24026218056678772, 0.019955623894929886, 0.1340765655040741, -0.005510601680725813, -0.014684812165796757, -0.005767485126852989, -0.13374865055084229, -0.11302393674850464, 0.007730921730399132, -0.0043676490895450115, -0.0030692138243466616, -0.05428823083639145, 0.23796534538269043, -0.06958376616239548, 0.14324018359184265, 0.15169170498847961, 0.09911495447158813, 0.12135158479213715, 0.028219327330589294, -0.05424349009990692, 0.020192459225654602, 0.09870573878288269, -0.09723575413227081, -0.02982211858034134, -0.04720671847462654, -0.0638614222407341, 0.04000193253159523, -0.05811447650194168, -0.06637173146009445, -0.09619532525539398, -0.014185634441673756, 0.10012367367744446, -0.03868992626667023, 0.04925836995244026, -0.12095518410205841, -0.06422201544046402, 0.044585537165403366, 0.08597610145807266], [0.10943156480789185, -0.0498964786529541, 0.005003282334655523, 0.05909722298383713, -0.1087646335363388, 0.24258603155612946, 0.012341838330030441, -0.010366817004978657, 0.05091066658496857, 0.13626134395599365, 0.03269901126623154, -0.16433480381965637, 0.1112111508846283, -0.025819024071097374, -0.07347928732633591, -0.09639155119657516, 0.005215859971940517, 0.06583510339260101, -0.050137851387262344, 0.019522197544574738, 0.11556465178728104, 0.0852832943201065, 0.1171756461262703, 0.10778170078992844, -0.029466290026903152, 0.01451051700860262, 0.03806889429688454, 0.06950268149375916, 0.19015061855316162, -0.08084873110055923, 0.09054218977689743, -0.018537184223532677, 0.10457935184240341, -0.03802429512143135, 0.20980007946491241, 0.08687426894903183, 0.09632369875907898, 0.005808355752378702, -0.0601094625890255, 0.02065070904791355, -0.03603865206241608, -0.01764133758842945, -0.04829087853431702, 0.04641545191407204, -0.018056301400065422, 0.12862566113471985, 0.012213755398988724, 0.04463520646095276, 0.15153902769088745, -0.008447584696114063, -0.027433745563030243, 0.0039011246990412474, -0.1050945296883583, -0.08411503583192825, -0.07125820219516754, -0.007639365736395121, 0.08320873975753784, 0.13879916071891785, -0.08605366945266724, 0.1078651174902916, 0.06000610068440437, 0.12172631174325943, -0.0104325907304883, -0.006561442278325558, 0.07597749680280685, -0.11015308648347855, -0.09677255898714066, -0.03540430963039398, 0.1672036200761795, 0.24811111390590668, 0.2176075577735901, 0.10029099881649017, -0.01629449427127838, -0.02790939062833786, -0.05287056416273117, 0.1606265753507614, 0.08476360887289047, 0.10596255958080292, 0.07870512455701828, -0.041402287781238556, -0.003197962651029229, -0.11836735904216766, -0.008424057625234127, 0.16020344197750092, -0.12239155173301697, -0.08340183645486832, -0.10233508795499802, 0.20541851222515106, 0.04469257965683937, 0.13586604595184326, -0.13165144622325897, -0.10919471085071564, -0.06678906083106995, 0.0034056396689265966, 0.018436146900057793, -0.09370769560337067, -0.046392470598220825, 0.07238157093524933, 0.07908207178115845, 0.12211679667234421, 0.0532291904091835, 0.19824868440628052, 0.03492414206266403, -0.02110379934310913, 0.19816885888576508, -0.13748744130134583, 0.1648409366607666, 0.06723515689373016, 0.01769104041159153, -0.03759061545133591, 0.05125090479850769, 0.09561621397733688, 0.0026589990593492985, 0.06136791408061981, 0.18793292343616486, -0.15746112167835236, 0.09977006167173386, 0.09105992317199707, -0.0014423971297219396, 0.11655831336975098, 0.1662466675043106, 0.09321824461221695, 0.08386952430009842, 0.0331108383834362, -0.12324345856904984, -0.131942480802536, -0.05936722829937935, -0.05024896562099457], [0.038873352110385895, 0.11628296971321106, -0.11969106644392014, 0.024185536429286003, -0.00173833011649549, 0.16512137651443481, 0.17786559462547302, -0.14378929138183594, 0.05242697149515152, -0.10952384024858475, -0.016725653782486916, -0.010504184290766716, 0.08552295714616776, -0.07403889298439026, 0.06810444593429565, 0.11628703027963638, 0.15033696591854095, 0.2386181801557541, -0.051552094519138336, -0.17649208009243011, 0.004434612579643726, 0.04272974282503128, -0.299868643283844, -0.07317686825990677, -0.1722577065229416, 0.02476675994694233, -0.09715874493122101, -0.005802279803901911, 0.06696709245443344, -0.040581416338682175, -0.02568359486758709, -0.039961233735084534, 0.03510769084095955, -0.20547297596931458, 0.06545067578554153, 0.09897441416978836, -0.309903621673584, -0.10450736433267593, 0.003599418792873621, -0.046315062791109085, 0.33399999141693115, -0.005352990236133337, 0.15813353657722473, -0.03670303523540497, 0.029868755489587784, 0.21491245925426483, -0.019712381064891815, 0.10267461836338043, 0.0012195541057735682, -0.17307712137699127, -0.3137650489807129, -0.07100246101617813, -0.1752038449048996, -0.017156099900603294, 0.07279239594936371, 0.08593840897083282, 0.10558915138244629, 0.0810052827000618, 0.08035528659820557, -0.16001571714878082, -0.014668400399386883, -0.030767472460865974, -0.15977543592453003, -0.07243914157152176, 0.09225241094827652, 0.24906501173973083, -0.018386369571089745, 0.2478480190038681, -0.04784281551837921, -0.2249627560377121, 0.026118896901607513, 0.009063386358320713, 0.18513426184654236, -0.12411674857139587, 0.03262908011674881, -0.0979166030883789, 0.030758267268538475, -0.07658951729536057, -0.10198469460010529, -0.11416253447532654, -0.16352178156375885, -0.1614004224538803, 0.09603536874055862, 0.06742887198925018, 0.12967054545879364, 0.15132682025432587, 0.09310634434223175, -0.12282794713973999, -0.052129603922367096, -0.132076695561409, -0.14238877594470978, -0.09999892115592957, 0.06453054398298264, -0.04300733283162117, -0.03310895338654518, -0.0015480525325983763, -0.0927639752626419, -0.19015291333198547, 0.19247345626354218, 0.04822101816534996, -0.09198903292417526, 0.09185031056404114, -0.1095203310251236, 0.165652334690094, -0.0371910035610199, 0.13870275020599365, -0.04835603013634682, 0.1423327624797821, -0.1149463802576065, 0.3410020172595978, 0.1592857390642166, -0.06908357888460159, 0.07105457037687302, 0.06645059585571289, 0.12137525528669357, 0.10860670357942581, -0.10061393678188324, -0.12907998263835907, 0.01983082853257656, -0.0018551190150901675, -0.20242342352867126, 0.06562305986881256, 0.019388338550925255, 0.19362467527389526, -0.08397592604160309, 0.15508365631103516, -0.04248247295618057, -0.0222844909876585], [-0.051093388348817825, -0.07228748500347137, -0.06667039543390274, 0.1154051274061203, 0.03692878782749176, -0.1042192280292511, 0.19539019465446472, -0.2943176329135895, 0.03541896864771843, 0.058943331241607666, -0.1652102917432785, -0.24122856557369232, -0.2653871178627014, 0.04548490047454834, 0.004354678560048342, -0.10086161643266678, 0.07471578568220139, 0.1346827745437622, -0.028395576402544975, 0.06870992481708527, 0.05559695139527321, 0.09619446843862534, -0.035069774836301804, -0.08123289048671722, 0.011342784389853477, -0.04723560810089111, -0.12580691277980804, -0.01855732686817646, -0.09046430885791779, 0.007539661601185799, -0.002603119472041726, -0.07571647316217422, 0.05265824496746063, -0.1759338080883026, 0.17339664697647095, 0.16340133547782898, 0.07652844488620758, -0.1794573962688446, 0.033068038523197174, 0.029305588454008102, 0.038287825882434845, 0.06901030242443085, 0.15994291007518768, 0.09158439189195633, -0.029000546783208847, 0.13082481920719147, -0.05039491504430771, 0.01541945245116949, -0.1843046247959137, -0.0270899198949337, -0.05507754907011986, 0.04367588832974434, -0.19744496047496796, -0.2540190815925598, -0.02907485142350197, 0.057020459324121475, -0.11558446288108826, 0.11833573132753372, -0.02707682177424431, -0.01382758654654026, -0.0037220921367406845, -0.039641834795475006, -0.07367104291915894, 0.00029974785866215825, -0.028056127950549126, 0.0008162662270478904, -0.10319515317678452, -0.059035684913396835, -0.2086258977651596, 0.13613224029541016, 0.18122747540473938, 0.023437371477484703, 0.03375490382313728, -0.007692256942391396, -0.014821858145296574, 0.028393426910042763, 0.034641917794942856, -0.01827320083975792, 0.04311969503760338, 0.12505844235420227, -0.06129547208547592, -0.18186238408088684, -0.02172096259891987, -0.10321047902107239, -0.02449021115899086, -0.04504159092903137, -0.07176526635885239, 0.01912994123995304, -0.06779984384775162, 0.08383192867040634, -0.2842341363430023, -0.0880158469080925, 0.14812365174293518, -0.04349720478057861, 0.1567094922065735, 0.09962049871683121, 0.0020348152611404657, -0.04819933697581291, 0.06962819397449493, 0.03750024363398552, 0.15354549884796143, 0.11364595592021942, 0.09389111399650574, 0.04807658493518829, 0.3283797800540924, 0.14604423940181732, 0.10315102338790894, -0.021196134388446808, -0.02036520093679428, 0.07406037300825119, 0.055528901517391205, 0.03563800826668739, -0.04893346503376961, 0.065254345536232, 0.047019585967063904, -0.04867101088166237, -0.013032748363912106, -0.22083108127117157, 0.060617655515670776, -0.16128788888454437, 0.12052787840366364, 0.03141239285469055, 0.02137075923383236, -0.19513121247291565, 0.15776419639587402, -0.036091264337301254, -0.10083780437707901, -0.05565106123685837], [-0.11892368644475937, -0.07238839566707611, -0.07467447966337204, 0.04022888094186783, 0.0947301983833313, 0.11740516126155853, 0.13799089193344116, 0.00048249337123706937, 0.15307684242725372, 0.1684694141149521, -0.06479226797819138, -0.06230161339044571, 0.06384649872779846, -0.05372629314661026, 0.09774340689182281, 0.043850257992744446, 0.24084463715553284, 0.14833594858646393, -0.1558777093887329, -0.022907022386789322, 0.019638804718852043, -0.07554247975349426, 0.08924572169780731, -0.11379798501729965, 0.031026357784867287, -0.026687929406762123, -0.05784260109066963, -0.048287954181432724, -0.038533829152584076, -0.09966813772916794, -0.00828971341252327, 0.011760447174310684, 0.20726925134658813, -0.08364085108041763, -0.0619795024394989, 0.1584746092557907, 0.16583360731601715, 0.23052921891212463, -0.047539450228214264, -0.12826193869113922, 0.12186781316995621, 0.17097565531730652, 0.23590007424354553, -0.002755026100203395, -0.09207644313573837, -0.11231749504804611, -0.11134936660528183, 0.1918274164199829, 0.04437826946377754, 0.021853456273674965, 0.021015062928199768, -0.09227897226810455, -0.04378756135702133, -0.16764140129089355, -0.1698264181613922, -0.0600840263068676, 0.07006299495697021, -0.0673922598361969, -0.034506965428590775, -0.05424603819847107, -0.002798168919980526, -0.1401006430387497, -0.06618958711624146, 0.05185079574584961, -0.02424328215420246, -0.04868227243423462, -0.14336296916007996, 0.010372528806328773, 0.16115537285804749, -0.059647392481565475, 0.104861781001091, 0.08089012652635574, -0.014210428111255169, 0.07475405931472778, -0.21298637986183167, -0.028292570263147354, 0.07758528739213943, 0.05518985539674759, 0.03777686506509781, -0.14642325043678284, 0.10588279366493225, -0.04657997190952301, -0.053342945873737335, 0.13650934398174286, -0.1272130161523819, -0.10022351145744324, -0.16195397078990936, 0.102034792304039, -0.07031803578138351, 0.23991301655769348, 0.15286409854888916, -0.049776896834373474, 0.12216407805681229, 0.2595418691635132, -0.1980351209640503, 0.07147286087274551, -0.05211270600557327, 0.008403979241847992, -0.02030891738831997, 0.05565871670842171, -0.209199920296669, -0.007404360454529524, 0.06738205254077911, -0.07132676243782043, 7.541371451225132e-05, 0.02340308576822281, -0.19718527793884277, 0.07983126491308212, -0.008445040322840214, 0.0656164139509201, 0.01260310411453247, -0.07184169441461563, -0.04239911958575249, -0.08030759543180466, 0.17713293433189392, -0.12111625075340271, 0.016951952129602432, -0.21283942461013794, 0.07464377582073212, -0.13005270063877106, -0.07407968491315842, 0.168105810880661, 0.11478522419929504, -0.05230757221579552, -0.0030883741565048695, 0.06073255464434624, -0.060080766677856445, -0.030467059463262558], [-0.23043906688690186, -0.02143668383359909, 0.07783813029527664, -0.14635302126407623, 0.018686780706048012, -0.06233840063214302, 0.15552358329296112, 0.04372313618659973, -0.01711815781891346, -0.09879936277866364, 0.06899766623973846, 0.03934016078710556, 0.041896265000104904, -0.3480531871318817, 0.10002647340297699, -0.0015850421041250229, 0.11798878014087677, -0.11456412076950073, 0.05917087942361832, -0.19161850214004517, 0.11664425581693649, 0.08421848714351654, -0.06962138414382935, -0.02537907101213932, -0.09235218912363052, 0.004412177950143814, 0.1350933015346527, -0.01532354112714529, 0.1250019371509552, -0.019844377413392067, -0.06630764901638031, -0.02599700354039669, -0.045522890985012054, -0.20330458879470825, -0.050560928881168365, 0.03878501430153847, 0.11277168989181519, -0.08874531835317612, 0.23623789846897125, -0.00888095609843731, 0.0476173497736454, -0.14409121870994568, -0.02678035944700241, 0.08105891942977905, 0.084225133061409, 0.04073099419474602, 0.129173144698143, -0.05935836583375931, -0.009342263452708721, -0.07874792814254761, -0.12181346863508224, -0.16870072484016418, 0.21069280803203583, -0.022708047181367874, -0.02634447067975998, -0.015341638587415218, -0.12162990868091583, 0.05699919909238815, 0.05883914977312088, -0.17258380353450775, -0.1257060319185257, 0.10233929008245468, -0.05544129014015198, -0.027841318398714066, 0.13391876220703125, 0.20870590209960938, -0.04043000936508179, -0.032204773277044296, 0.008697094395756721, -0.01866922341287136, 0.015179472975432873, 0.10770779848098755, -0.03576182946562767, -0.044872887432575226, 0.04521290957927704, -0.07733972370624542, 0.0538308285176754, 0.011424575001001358, 0.019216245040297508, -0.02166636660695076, 0.0367264561355114, 0.20488223433494568, -0.10286153107881546, 0.049051396548748016, 0.07984254509210587, 0.044407960027456284, -0.06551766395568848, -0.0887107402086258, -0.059974245727062225, -0.08959969878196716, -0.138562873005867, 0.04508517310023308, -0.07681801170110703, 0.020619088783860207, -0.015271922573447227, -0.06340599060058594, 0.018590454012155533, -0.07334373891353607, 0.20021432638168335, -0.0018374727806076407, 0.11390655487775803, 0.12962301075458527, -0.04732386767864227, -0.0374901220202446, -0.11914616823196411, 0.18461336195468903, -0.10913071781396866, 0.09934487193822861, 0.03070479817688465, -0.040580444037914276, -0.022266680374741554, -0.061154406517744064, -0.1187562495470047, -0.023936202749609947, -0.020749082788825035, 0.17340199649333954, -0.06455564498901367, -0.083940289914608, 0.03783547505736351, -0.0664810761809349, -0.20207180082798004, 0.004760055337101221, -0.030212830752134323, 0.040832165628671646, 0.039571017026901245, 0.08855283260345459, -0.011021003127098083, 0.08880139887332916], [-0.2350338101387024, 0.017452551051974297, 0.056802500039339066, 0.0011520878178998828, 0.0971267893910408, -0.030592743307352066, 0.017629040405154228, -0.08546735346317291, -0.012066708877682686, 0.0321192592382431, -0.026722807437181473, -0.2756791114807129, -0.10905113816261292, 0.019788652658462524, -0.03314784914255142, -0.06372123956680298, -0.012619676068425179, 0.004596191458404064, -0.03943007066845894, -0.09192804992198944, -0.11789797991514206, 0.1006990596652031, -0.0418187640607357, -0.043309200555086136, -0.08449623733758926, -0.07577794045209885, -0.02309424802660942, 0.1361052244901657, -0.2727062404155731, 0.05010310560464859, -0.17001990973949432, -0.07677754759788513, 0.031843751668930054, 0.1033877283334732, 0.030072785913944244, 0.0756429135799408, -0.20618760585784912, 0.004370786249637604, -0.01664074882864952, 0.17346547544002533, 0.025767510756850243, 0.0798189714550972, 0.16512589156627655, 0.02030344121158123, 0.03389895707368851, 0.10392206162214279, -0.04752213880419731, 0.08218184113502502, -0.09958608448505402, -0.015199866145849228, -0.34042102098464966, -0.05022452026605606, 0.1585274487733841, -0.21236149966716766, -0.15725046396255493, 0.007197179831564426, -0.053570106625556946, -0.0697174221277237, 0.09631217271089554, 0.08858519792556763, -0.055330462753772736, 0.00593576580286026, -0.1591857224702835, 0.09749191254377365, 0.05195890739560127, 0.14062489569187164, -0.01519392803311348, -0.06632781773805618, -0.06912099570035934, 0.032351866364479065, -0.023678304627537727, 0.043202996253967285, 0.03371058404445648, -0.036649253219366074, 0.027426060289144516, -0.0030991188250482082, -0.05686422437429428, -0.057378701865673065, 0.00654960609972477, -0.06401332467794418, -0.1628204584121704, 0.04051921144127846, -0.16168566048145294, 0.07495035231113434, -0.025947870686650276, 0.11071588844060898, -0.10232401639223099, -0.03164196014404297, -0.3433479368686676, 0.07810303568840027, -0.07113983482122421, -0.0659833550453186, -0.11486606299877167, 0.05527685582637787, 0.05424364283680916, 0.07952810078859329, -0.12885339558124542, 0.007313582114875317, 0.04717598855495453, 0.14030981063842773, 0.18257597088813782, -0.022032905369997025, -0.006304972805082798, 0.03369750827550888, -0.09913720935583115, 0.16834349930286407, 0.07607509195804596, 0.13707749545574188, -0.09373108297586441, 0.08216749876737595, -0.026076585054397583, -0.06617168337106705, -0.1856461614370346, -0.00157454377040267, 0.11774609982967377, 0.0907406285405159, 0.040954913944005966, -0.0723850205540657, 0.023790694773197174, -0.03583192452788353, 0.0644216239452362, -0.07197323441505432, -0.05126408860087395, -0.11072476953268051, 0.1461707502603531, 0.06245892122387886, -0.03802163898944855, 0.09579053521156311], [0.20569010078907013, -0.013215640559792519, -0.05521596968173981, -0.1957879513502121, 0.08019868284463882, -0.16062921285629272, 0.04840974137187004, 0.01637229695916176, -0.1126006469130516, 0.0053811101242899895, 0.1560307741165161, 0.10471320897340775, 0.14588196575641632, -0.10376233607530594, 0.16892768442630768, 0.007985913194715977, 0.13061761856079102, -0.11206980794668198, -0.04508642107248306, -0.052427757531404495, 0.08331224322319031, -0.013677146285772324, 0.0972401425242424, 0.03677540272474289, -0.1454731673002243, -0.00901133194565773, -0.045082468539476395, -0.04237062856554985, 0.19660665094852448, 0.09675691276788712, -0.0008195313275791705, -0.08076005429029465, -0.15460504591464996, -0.023352887481451035, 0.10904677212238312, -0.12223012000322342, -0.13705134391784668, -0.235151469707489, -0.09287011623382568, 0.038025449961423874, -0.03418157622218132, 0.15656816959381104, 0.02590169385075569, 0.0284621249884367, 0.006173557136207819, -0.3172023892402649, -0.07358310371637344, 0.0003743646666407585, -0.023260651156306267, -0.07490917295217514, 0.04023716226220131, -0.057967524975538254, 0.18032772839069366, -0.01248345896601677, -0.00907063763588667, -0.050413213670253754, 0.11761976778507233, 0.02820451557636261, 0.0008268419769592583, -0.2781358063220978, -0.02024632878601551, -0.13696825504302979, -0.137932687997818, -0.05978177860379219, 0.1861283928155899, 0.008038344793021679, 0.1321951299905777, 0.16503393650054932, -0.045483142137527466, 0.1636454313993454, 0.024202333763241768, 0.10573962330818176, 0.11700323224067688, -0.06681941449642181, -0.05267077684402466, -0.06545156985521317, -0.038187116384506226, 0.07596807181835175, -0.1603207141160965, -0.07068011164665222, 0.17124734818935394, 0.07119014114141464, -0.005137237720191479, 0.10633350908756256, 0.007012546062469482, 0.035820793360471725, 0.17542965710163116, -0.053735241293907166, 0.13040494918823242, -0.08252357691526413, -0.02089906670153141, -0.0388801284134388, -0.03634130582213402, 0.09872057288885117, 0.021323053166270256, 0.07883868366479874, 0.09824235737323761, -0.18097327649593353, 0.16037517786026, 0.07803753763437271, 0.025002310052514076, -0.08607535064220428, -0.054409656673669815, 0.09484826773405075, -0.030577469617128372, 0.045836806297302246, -0.02830972522497177, 0.02079748548567295, -0.05202176794409752, 0.06865624338388443, -0.054552264511585236, -0.1887979507446289, -0.20965999364852905, -0.21626834571361542, 0.0640324056148529, 0.03240302577614784, -0.14680172502994537, -0.02827294170856476, 0.011022262275218964, 0.17954795062541962, 0.05379951000213623, -0.11532647907733917, 0.03282966464757919, 0.10834121704101562, 0.13256987929344177, 0.0016265942249447107, 0.03164196386933327, 0.1493678241968155], [-0.03906556963920593, -0.10722991824150085, -0.10612974315881729, 0.00869016069918871, -0.04641593247652054, 0.2964678704738617, -0.0740855485200882, 0.2231789529323578, 0.06796269118785858, 0.2058843970298767, -0.02206583134829998, 0.15031084418296814, 0.03652229905128479, -0.08934522420167923, -0.02961789257824421, -0.09937349706888199, 0.04363878816366196, 0.3310191035270691, 0.2145151048898697, -0.09871455281972885, -0.020507341250777245, -0.1236288845539093, 0.20589451491832733, 0.06276194006204605, -0.040930841118097305, -0.11480887979269028, 0.13568748533725739, 0.08015347272157669, -0.1450766921043396, 0.00697836559265852, 0.10713429749011993, -0.15944460034370422, 0.02017921768128872, -0.07065150141716003, 0.06108498573303223, 0.13992586731910706, -0.059794213622808456, -0.0014343583025038242, -0.21286238729953766, -0.12824532389640808, 0.051161494106054306, 0.06582929939031601, -0.1358608603477478, 0.053936515003442764, 0.11670475453138351, -0.01353771798312664, 0.06187867745757103, -0.1957646906375885, -0.17048074305057526, 0.19875262677669525, 0.021169597283005714, 0.10833782702684402, -0.22207331657409668, 0.042310263961553574, 0.1838865727186203, -0.06950217485427856, -0.01276249997317791, -0.14836762845516205, 0.1880880892276764, 0.0024899013806134462, -0.11366253346204758, -0.10697843879461288, 0.03306620568037033, -0.0828005000948906, 0.15057432651519775, 0.1644076406955719, -0.08657564222812653, 0.11409444361925125, 0.171611487865448, 0.07400041073560715, -0.2641116678714752, 0.1606084704399109, -0.13703937828540802, 0.052098847925662994, 0.0529203824698925, -0.02189638651907444, -0.12265541404485703, -0.04253549873828888, 0.013933009468019009, -0.16290044784545898, 0.04891108348965645, -0.023421144112944603, 0.0970870777964592, -0.11873874813318253, 0.022881589829921722, 0.020467136055231094, 0.22388474643230438, 0.15888896584510803, -0.12322411686182022, -0.03447144851088524, -0.011198816820979118, 0.006301563698798418, -0.05399494245648384, 0.045683957636356354, 0.1444130390882492, -0.20762798190116882, -0.09649714827537537, -0.14460091292858124, 0.13985542953014374, -0.006767507176846266, 0.16400077939033508, -0.13798189163208008, -0.21239234507083893, 0.019089024513959885, 0.06884843111038208, 0.053125638514757156, -0.09008005261421204, -0.13162049651145935, 0.04999604448676109, 0.10579425096511841, -0.004985635168850422, 0.057815663516521454, -0.03348730131983757, -0.08594928681850433, -0.02674059011042118, -0.049531009048223495, 0.01108444295823574, -0.05214720591902733, -0.04857705533504486, 0.16628524661064148, -0.006976383272558451, 0.23300257325172424, 0.0607890710234642, 0.040961965918540955, -0.17511354386806488, -0.24331574141979218, -0.17374193668365479, -0.03921019658446312], [-0.0325874425470829, -0.006823101546615362, 0.07784395664930344, -0.11533157527446747, 0.07880046963691711, -0.18368156254291534, -0.11864005029201508, -0.08329448103904724, -0.07654564082622528, 0.14999030530452728, -0.052052855491638184, 0.022394955158233643, 0.20338252186775208, -0.06524539738893509, 0.034734442830085754, 0.040656112134456635, -0.107118159532547, -0.12815573811531067, -0.05004905164241791, 0.06064757704734802, 0.02616986259818077, 0.030200863257050514, -0.04083612933754921, 0.1633550226688385, 0.1565299928188324, -0.09164649248123169, -0.20004446804523468, 0.032523613423109055, 0.010991722345352173, -0.08113342523574829, 0.01192113570868969, 0.1026526391506195, 0.06005429849028587, 0.011463998816907406, -0.05090842396020889, 0.11231506615877151, 0.1093936488032341, -0.03302591294050217, 0.07705587148666382, 0.011871935799717903, -0.05930638313293457, -0.036443378776311874, -0.19920934736728668, 0.14297892153263092, -0.18528874218463898, -0.02101508527994156, 0.06773548573255539, 0.14303810894489288, 0.1158657819032669, 0.059850797057151794, -0.010354877449572086, 0.2101568877696991, 0.1710033267736435, 0.08662720024585724, -0.039761077612638474, -0.19177353382110596, 0.2282385528087616, -0.01778981275856495, -0.08861987292766571, 0.13355706632137299, -0.06471256166696548, 0.07390070706605911, -0.16460898518562317, 0.0019723577424883842, -0.14730918407440186, -0.007559979800134897, -0.1195831298828125, -0.13894124329090118, 0.029948260635137558, -0.24592502415180206, 0.05529778078198433, -0.02612544596195221, -0.12004179507493973, 0.03517935425043106, 0.14913764595985413, 0.04379718005657196, 0.017557336017489433, 0.010117496363818645, 0.04865090921521187, -0.209666907787323, -0.22185328602790833, -0.04267648234963417, -0.07045069336891174, -0.00046066593495197594, -0.07837609946727753, 0.009910549968481064, -0.22944119572639465, 0.0391327403485775, -0.01601547561585903, 0.13223226368427277, 0.13303658366203308, -0.06977689266204834, 0.06351755559444427, 0.0347747839987278, -0.10542530566453934, -0.11500711739063263, 0.08430186659097672, -0.002317669102922082, -0.17866681516170502, -0.08462269604206085, -0.12842799723148346, 0.029374228790402412, 0.1425440013408661, -0.12362902611494064, -0.20095568895339966, 0.032514553517103195, -0.021681588143110275, 0.06767891347408295, 0.11428040266036987, -0.11001891642808914, 0.05715281888842583, 0.05781971663236618, -0.01640145294368267, 0.21010518074035645, 0.10756784677505493, -0.10392286628484726, 0.0716610699892044, -0.11917576938867569, -0.08249497413635254, 0.09408647567033768, 0.13662463426589966, 0.16156764328479767, 0.007470679935067892, -0.23636053502559662, -0.026328131556510925, 0.009144345298409462, 0.08290261030197144, -0.006205566693097353], [0.07658717781305313, 0.011647586710751057, -0.010035086423158646, -0.02773727849125862, 0.049106888473033905, -0.10840842872858047, 0.01619287207722664, -0.006502424832433462, -0.08356088399887085, 0.011589514091610909, 0.10887594521045685, 0.0616278201341629, 0.15156272053718567, 0.10681415349245071, -0.2679998278617859, -0.020212223753333092, -0.0277891606092453, -0.24754492938518524, -0.203637033700943, 0.11192039400339127, 0.1133306622505188, -0.0084623908624053, -0.2566707730293274, 0.14556868374347687, -0.0940544456243515, 0.11440972238779068, 0.09779693931341171, -0.07205527275800705, -0.024265341460704803, 0.14536045491695404, 0.2744565010070801, -0.06529748439788818, -0.13520590960979462, 0.09986843168735504, 0.12283049523830414, -0.10681461542844772, 0.11042912304401398, 0.009665739722549915, -0.0823226347565651, 0.07645831257104874, 0.03580112010240555, -0.2245817333459854, -0.054176755249500275, 0.060405194759368896, 0.06447610259056091, -0.21228279173374176, -0.18919919431209564, 0.0501880906522274, 0.21753592789173126, 0.0038146383594721556, 0.3881736993789673, 0.138294517993927, 0.3470008969306946, 0.20576085150241852, 0.07543044537305832, -0.28309115767478943, 0.041720110923051834, -0.07786394655704498, -0.20112749934196472, 0.03162095323204994, 0.1476096510887146, 0.12481372803449631, -0.14726535975933075, -0.003421686589717865, -0.09756064414978027, 0.02659755013883114, -0.09769308567047119, 0.011335554532706738, 0.11431832611560822, 0.11001665890216827, 0.20511117577552795, 0.05498601496219635, 0.094007708132267, 0.035574983805418015, 0.08462093770503998, -0.12674684822559357, -0.06596853584051132, -0.2246776521205902, -0.029549265280365944, -0.1230902299284935, -0.03883614018559456, -0.1655982881784439, 0.0921361893415451, 0.2958005368709564, -0.17104880511760712, -0.09378527104854584, 0.04360395669937134, 0.053785499185323715, 0.2831772565841675, -0.0568244531750679, 0.359579861164093, -0.10633940994739532, -0.13426490128040314, -0.017416132614016533, -0.07085572183132172, 0.023399651050567627, -0.025699544697999954, 0.09468478709459305, 0.018793979659676552, 0.0039341333322227, -0.08916832506656647, 0.05177432298660278, -0.16854581236839294, 0.04650209844112396, 0.18334190547466278, -0.09892164170742035, 0.06930825114250183, 0.09240562468767166, 0.005501671694219112, -0.11935417354106903, -0.0591847263276577, 0.03741563484072685, 0.022574078291654587, 0.007925157435238361, -0.03913993388414383, -0.12101110816001892, 0.0651298463344574, -0.1860377937555313, 0.1444021314382553, -0.022478777915239334, -0.055253591388463974, 0.18004024028778076, -0.09391981363296509, -0.14224520325660706, -0.08276259154081345, -0.013777248561382294, -0.11789856851100922, 0.10254523158073425], [0.09814970195293427, 0.1218208521604538, -0.00286967889405787, 0.09921736270189285, -0.04833245649933815, 0.06537578999996185, -0.03999881446361542, 0.04893633723258972, 0.127616748213768, -0.04898836463689804, -0.0571829155087471, 0.10530887544155121, -0.039082545787096024, -0.23980794847011566, -0.13702242076396942, -0.021916167810559273, 0.0006817059474997222, 0.09135487675666809, 0.14544044435024261, -0.09515848755836487, -0.22102491557598114, -0.007891293615102768, -0.015176378190517426, -0.09483163803815842, 0.19420698285102844, -0.06996802240610123, -0.10665129870176315, -0.00625403830781579, 0.07391126453876495, -0.18558666110038757, 0.0032164554577320814, 0.05225706100463867, -0.025218011811375618, -0.07647671550512314, 0.08670919388532639, -0.10540569573640823, -0.11988108605146408, 0.056117285043001175, -0.10802016407251358, -0.11777792870998383, -0.17712394893169403, -0.14460192620754242, -0.16454385221004486, -0.18834124505519867, -0.0008132313960231841, -0.14006753265857697, 0.16784830391407013, -0.009629719890654087, 0.13548965752124786, -0.0011068828171119094, 0.052768342196941376, -0.036034226417541504, -0.46135202050209045, -0.04097438231110573, -0.1635926067829132, -0.02807672508060932, 0.10169681161642075, -0.06605387479066849, -0.12436968088150024, 0.061101239174604416, -0.04082810506224632, 0.09716282784938812, 0.12472478300333023, -0.05395931750535965, -0.22763195633888245, 0.023810043931007385, -0.07871231436729431, -0.11264970153570175, 0.016942892223596573, -0.21249094605445862, -0.23692113161087036, -0.1438940316438675, -0.15601788461208344, -0.19328424334526062, 0.014643306843936443, 0.13533057272434235, -0.10196438431739807, -0.1924305111169815, 0.08456122130155563, -0.19597722589969635, -0.1501128375530243, -0.030112413689494133, -0.05582651495933533, -0.23016563057899475, -0.049146994948387146, 0.07280945777893066, -0.003898860886693001, 0.035399168729782104, -0.060052961111068726, -0.018595809116959572, -0.07426593452692032, -0.023456484079360962, -0.023127030581235886, -0.15072785317897797, 0.1235944852232933, -0.049605488777160645, 0.06800675392150879, 0.12285147607326508, -0.19491945207118988, 0.030897874385118484, 0.13120785355567932, 0.037307411432266235, 0.0532769039273262, -0.029838230460882187, 0.2638334631919861, -0.09169270843267441, -0.14065790176391602, -0.005428515374660492, -0.09577363729476929, -0.05896807089447975, -0.11915425211191177, -0.06967592984437943, 0.22993890941143036, 0.1291164755821228, 0.038048241287469864, 0.03431854397058487, -0.12294042855501175, 0.0989583358168602, -0.24475115537643433, -0.027078328654170036, 0.13117572665214539, -0.08492572605609894, -0.00032424076925963163, -0.12963639199733734, -0.15983514487743378, -0.22339916229248047, 0.24072733521461487, 0.00489996001124382]], "down.1.weight": [[0.04813804104924202, 0.018196597695350647, 0.017872778698801994, -0.1353885382413864, 0.006681556813418865, 0.13963580131530762, 0.06421474367380142, 0.19623076915740967, -0.0677289143204689, 0.11343315988779068, 0.041790809482336044, 0.0820799469947815, -0.004796252585947514, 0.12728659808635712, -0.0221034474670887, 0.15244245529174805, 0.001335682813078165, 0.10533437877893448, -0.07080201059579849, 0.07981834560632706, 0.07308769971132278, -0.1869429051876068, 0.02320723421871662, 0.15909136831760406, 0.22638477385044098, -0.0436117984354496, -0.11620420217514038, -0.1455935388803482, -0.08862214535474777, -0.09558374434709549, -0.015922866761684418, 0.05838821828365326, -0.08297746628522873, -0.13120605051517487, -0.10626744478940964, 0.054113034158945084, -0.023620817810297012, 0.28466281294822693, 0.1506912112236023, -0.24571643769741058, -0.09601131081581116, -0.03285132721066475, -0.08875396102666855, -0.054502297192811966, -0.17673860490322113, -0.09784846007823944, -0.015559935942292213, -0.022079462185502052, 0.05460004881024361, -0.16303598880767822, 0.29456084966659546, -0.02471149154007435, 0.0020798936020582914, 0.13811178505420685, 0.0877072885632515, 0.02416617050766945, 0.04238332062959671, -0.03438759967684746, 0.02165183424949646, 0.10986337810754776, 0.0827457457780838, 0.025215651839971542, 0.05592158064246178, 0.11638576537370682, 0.06714246422052383, 0.1352728307247162, -0.1443200409412384, -0.12471216917037964, -0.034332774579524994, -0.07371503114700317, -0.2192116230726242, -0.15696990489959717, -0.06987021863460541, -0.04822620004415512, 0.1722307950258255, 0.023735804483294487, -0.06185879930853844, 0.02576455846428871, 0.12858201563358307, -0.14789444208145142, 0.018678024411201477, -0.0777469351887703, 0.06662161648273468, -0.09242582321166992, -0.06793588399887085, -0.22862623631954193, 0.07806091010570526, 0.03995555266737938, -0.028715772554278374, 0.2532389163970947, 0.10694273561239243, -0.012725831009447575, -0.11212114989757538, -0.0798320323228836, -0.22721965610980988, -0.10776906460523605, 0.12427867203950882, 0.11424810439348221, -0.07531323283910751, 0.2247709333896637, -0.005200836341828108, 0.10656411200761795, 0.06280586868524551, -0.06935615837574005, 0.10082390159368515, 0.07991045713424683, -0.12017747759819031, -0.13871680200099945, 0.025832364335656166, -0.07579398900270462, -0.22267720103263855, -0.04405464977025986, -0.04361993446946144, 0.061587657779455185, 0.07195324450731277, 0.09006628394126892, 0.09771697223186493, 0.06524960696697235, -0.025252899155020714, 0.04753810539841652, 0.1679079830646515, 0.13882116973400116, -0.08861862868070602, -0.3212597668170929, 0.013134513981640339, -0.07279957085847855, 0.25828155875205994, 0.036646611988544464], [0.015324820764362812, 0.1489076316356659, 0.004895268008112907, 0.015144776552915573, 0.03631030023097992, 0.004687441512942314, -0.1424613893032074, 0.1584303379058838, -0.05914682149887085, 0.07804132252931595, -0.09000199288129807, -0.11809101700782776, 0.02406449057161808, -0.3184175491333008, -0.0936153307557106, 0.11382230371236801, 0.14775091409683228, -0.10869459062814713, -0.16346262395381927, 0.042365267872810364, -0.07505525648593903, -0.1676875352859497, -0.17757372558116913, 0.24992790818214417, -0.039373449981212616, -0.17873409390449524, -0.12873977422714233, 0.007404761388897896, -0.20708990097045898, -0.1583375781774521, 0.09530211985111237, 0.08583647012710571, 0.07009328901767731, -0.09174514561891556, 0.0635870099067688, 0.14386862516403198, 0.1107414960861206, 0.15168875455856323, 0.16812781989574432, -0.05966611206531525, 0.13369017839431763, -0.1432904303073883, -0.08902280777692795, 0.01868377812206745, 0.08195143193006516, -0.02266174741089344, 0.038159094750881195, 0.051439378410577774, -0.034413836896419525, -0.016833292320370674, -0.024822354316711426, -0.06690279394388199, 0.07587753236293793, -0.004205381032079458, -0.1409740149974823, -0.08656716346740723, -0.03901205211877823, -0.13369505107402802, -0.10816317796707153, 0.011246001347899437, 0.023237280547618866, 0.06192055344581604, 0.007778136525303125, -0.04633563756942749, -0.09788421541452408, 0.029258957132697105, -0.09752094745635986, -0.16803064942359924, 0.1845170259475708, -0.09707971662282944, 0.0001886420213850215, -0.09456440806388855, -0.006861473899334669, -0.0008417277713306248, -0.2528027594089508, 0.03754941746592522, 0.000359335943358019, -0.15502886474132538, 0.07673381268978119, -0.023711547255516052, -0.022121796384453773, 0.05779067054390907, 0.0266242865473032, -0.046819403767585754, -0.027071421965956688, -0.08359366655349731, -0.10950890928506851, 0.03829742968082428, 0.04353618621826172, -0.05296579375863075, 0.14447662234306335, 0.01770970970392227, -0.016427723690867424, -0.03461972996592522, -0.07268811017274857, -0.07666341960430145, 0.06328272074460983, -0.03213909640908241, -0.012342564761638641, -0.00593939796090126, -0.17113524675369263, -0.11496593803167343, 0.17340539395809174, -0.18130111694335938, -0.10028786212205887, 0.007299243938177824, -0.08984808623790741, -0.1378045231103897, 0.10316908359527588, -0.05981053411960602, -0.1472945660352707, 0.1029600128531456, 0.00630990182980895, 0.1068997010588646, 0.049842312932014465, -0.026179540902376175, 0.07153121381998062, -0.049655139446258545, -0.11932475119829178, -0.08650283515453339, 0.11233461648225784, -0.014100815169513226, 0.0480513870716095, -0.2099667489528656, 0.0011864120606333017, 0.09505536407232285, 0.00315055251121521, -0.12802083790302277], [-0.009308353066444397, -0.13454723358154297, 0.13103492558002472, -0.0989282876253128, -0.08419786393642426, 0.19524841010570526, -0.017166122794151306, 0.12371398508548737, 0.06184127926826477, 0.08164266496896744, 0.05889151990413666, -0.10117282718420029, 0.0758383721113205, -0.044073686003685, -0.012128899805247784, 0.02343170717358589, 0.07774333655834198, 0.09800197929143906, -0.06945545971393585, 0.11058195680379868, 0.12970371544361115, -0.10502184927463531, 0.038469310849905014, 0.03373413160443306, -0.013236580416560173, 0.006206025369465351, -0.15959610044956207, -0.1259024739265442, -0.15173090994358063, -0.21125316619873047, 0.06375940144062042, -0.1190091073513031, 0.27527183294296265, 0.07828784734010696, -0.23271076381206512, 0.01927179843187332, 0.22459734976291656, -0.030891653150320053, 0.1252376288175583, -0.016480805352330208, 0.13454391062259674, -0.09954818338155746, -0.12899120151996613, -0.11958357691764832, -0.11338256299495697, -0.07380369305610657, 0.0940413549542427, -0.09751523286104202, 0.019374428316950798, 0.17745117843151093, 0.171656996011734, 0.01626771315932274, 0.13816353678703308, 0.2435939610004425, -0.029639940708875656, -0.015217175707221031, -0.031340863555669785, -0.03339218720793724, -0.003587814513593912, 0.15101170539855957, 0.03563213720917702, 0.10192681103944778, 0.190632626414299, 0.06146407499909401, 0.08219274878501892, -0.07303832471370697, -0.07013300806283951, -0.03932097554206848, -0.031104568392038345, -0.24203146994113922, 0.05252371355891228, -0.14500652253627777, 0.006867920979857445, 0.20327214896678925, -0.11250875145196915, -0.027027208358049393, 0.16240987181663513, -0.1579381823539734, -0.05437290668487549, -0.16318605840206146, 0.07357825338840485, 0.0025693844072520733, 0.09241607040166855, -0.03412965312600136, -0.08371444791555405, -0.17968827486038208, -0.11848275363445282, 0.05479617789387703, 0.002872748300433159, -0.029162095859646797, -0.009651560336351395, -0.06655143946409225, 0.11447601020336151, 0.014615620486438274, -0.10191807895898819, -0.08912768959999084, -0.04652215167880058, 0.03555138409137726, -0.08691563457250595, -0.11087839305400848, -0.06384413689374924, -0.03345892205834389, 0.07402630150318146, 0.01729721575975418, -0.17538268864154816, -0.04309060797095299, -0.07615172863006592, -0.010136247612535954, -0.03572216257452965, -0.15141448378562927, 0.04684818908572197, 0.07657953351736069, 0.09188341349363327, 0.09869250655174255, 0.03623465448617935, -0.050389088690280914, 0.2010222226381302, 0.09072644263505936, -0.20608127117156982, 0.05653608590364456, -0.12455257773399353, 0.15698786079883575, 0.07074518501758575, 0.046462107449769974, -0.021575262770056725, -0.02312602289021015, -0.14908447861671448, -0.19395461678504944], [-0.0965399444103241, -0.10021240264177322, -0.05928706377744675, 0.31854090094566345, -0.033209510147571564, -0.02781633473932743, -0.2017458975315094, -0.009400572627782822, -0.19149397313594818, 0.025467470288276672, 0.03267217054963112, -0.11277640610933304, 0.003234423929825425, 0.08084410429000854, 0.017718510702252388, -0.2084856480360031, -0.0006060768500901759, -0.04249108210206032, 0.04751819744706154, 0.09179271012544632, -0.1581115573644638, 0.14491687715053558, 0.023758750408887863, 0.06989292055368423, 0.009028904139995575, -0.03891313821077347, 0.16500452160835266, 0.0619378536939621, 0.05561209097504616, -0.07079385966062546, 0.09216795861721039, 0.024198802188038826, 0.022351950407028198, -0.10302422195672989, 0.13090302050113678, 0.002711173612624407, -0.06548022478818893, 0.0542631596326828, 0.034994225949048996, -0.07477294653654099, -0.10352039337158203, 0.23510394990444183, -0.04696952551603317, -0.06506210565567017, -0.11959556490182877, -0.09716425836086273, -0.17309507727622986, 0.06838350743055344, -0.05892014876008034, 0.13605603575706482, -0.06251385807991028, -0.06410128623247147, -0.10015504062175751, 0.014373412355780602, 0.03789502754807472, -0.02331927977502346, -0.15031084418296814, -0.0861511155962944, 0.02176153101027012, 0.10562101006507874, -0.004508228972554207, -0.1293925791978836, -0.14521464705467224, 0.09717396646738052, 0.05212761461734772, 0.08969014137983322, 0.08556835353374481, 0.156928151845932, -0.11636509001255035, -0.14322370290756226, 0.04665558040142059, -0.09251713752746582, -0.11725173890590668, -0.2225891649723053, -0.22630612552165985, -0.019879890605807304, -0.19144225120544434, 0.1862134486436844, 0.026410451158881187, 0.04220176115632057, 0.14519473910331726, -0.046817123889923096, -0.06408626586198807, -0.1901339888572693, 0.013129082508385181, -0.008788862265646458, -0.08015617728233337, -0.17483435571193695, -0.07462926208972931, 0.06325303763151169, 0.10735218971967697, -0.0009263326646760106, 0.13307172060012817, 0.05620579794049263, 0.00302195455878973, -0.04660151153802872, -0.10921520739793777, 0.08893123269081116, -0.001440620282664895, 0.5287190079689026, -0.028723035007715225, -0.07199692726135254, 0.003054435132071376, 0.06727819889783859, 0.01094251312315464, 0.1138826534152031, 0.1417900025844574, 0.14960889518260956, 0.16377314925193787, -0.29203176498413086, -0.26663050055503845, 0.28155088424682617, -0.2948035001754761, 0.12843111157417297, -0.05071200057864189, -0.1483154445886612, 0.14877021312713623, -0.16280722618103027, -0.007666836958378553, -0.007960319519042969, 0.16900521516799927, -0.02286406047642231, -0.0013721330324187875, 0.01572522521018982, 0.1776873916387558, -0.14303545653820038, 0.1402590274810791, -0.036498405039310455], [-0.09127260744571686, -0.06673327088356018, -0.08209297806024551, -0.19552817940711975, 0.11015833169221878, 0.06776838004589081, 0.01175469346344471, 0.10632847249507904, 0.08202606439590454, 0.07466109842061996, 0.09163731336593628, -0.044516511261463165, 0.09683047235012054, -0.07161211967468262, -0.008327016606926918, 0.08354121446609497, 0.0628107339143753, 0.06555134803056717, 0.16086076200008392, 0.022273359820246696, -0.12980933487415314, 0.0016555781476199627, -0.2397136688232422, 0.15777438879013062, 0.03353024274110794, 0.018972454592585564, 0.023770486935973167, -0.11326554417610168, -0.0988774374127388, 0.02877543494105339, 0.03418087586760521, 0.1423618644475937, 0.14194738864898682, 0.022030776366591454, 0.000937245727982372, 0.11697287112474442, -0.03230123594403267, -0.17700496315956116, 0.08517219126224518, 0.07616564631462097, -0.1316923052072525, -0.09600798785686493, -0.04838521033525467, 0.004934640601277351, 0.04190540313720703, 0.060243792831897736, 0.2221093326807022, -0.12740899622440338, 0.08853498101234436, 0.26491308212280273, 0.051217418164014816, 0.05599341168999672, -0.0056569138541817665, -0.019406573846936226, -0.08922477066516876, -0.07368109375238419, 0.0017552091740071774, 0.025834377855062485, 0.004486355930566788, 0.19524122774600983, -0.005461229011416435, 0.2609884440898895, 0.10322066396474838, -0.07120373845100403, -0.10699640214443207, 0.09885317087173462, -0.14872848987579346, -0.05253548547625542, -0.052375566214323044, -0.1904955357313156, 0.033334292471408844, -0.11811181902885437, -0.2095433473587036, 0.0628596618771553, -0.013996551744639874, 0.13080835342407227, 0.04800543189048767, -0.14678925275802612, 0.1844664365053177, -0.18636389076709747, 0.08502545207738876, -0.09520966559648514, -0.03834543377161026, 0.02931748330593109, -0.06880785524845123, -0.04528343677520752, 0.03179309517145157, 0.23739594221115112, -0.0894361361861229, -0.09654737263917923, 0.05382354184985161, 0.0106071000918746, 0.023245545104146004, 0.11881601065397263, -0.05828925594687462, -0.03415196016430855, 0.007355435751378536, -0.05765674263238907, -0.14113739132881165, -0.08099983632564545, -0.03205970674753189, 0.1549239456653595, -0.02439231425523758, 0.04447471350431442, -0.032607052475214005, -0.13688622415065765, -0.03184685483574867, 0.012621763162314892, 0.09494402259588242, 0.05212319642305374, 0.1912967562675476, -0.007471977733075619, 0.18091337382793427, -0.15085452795028687, 0.05611436069011688, -0.0024387026205658913, 0.036734484136104584, 0.07744280993938446, -0.1823035329580307, 0.025327438488602638, -0.11567488312721252, 0.15235555171966553, 0.024562940001487732, -0.106412872672081, 0.12368126958608627, -0.09843992441892624, 0.0032373066060245037, 0.04975416883826256], [-0.29490670561790466, 0.08810808509588242, 0.0900084525346756, 0.15273934602737427, -0.018834134563803673, 0.08179062604904175, -0.10004810988903046, 0.032700199633836746, 0.16568171977996826, 0.02853531576693058, 0.12069901823997498, 0.0609540157020092, -0.17597870528697968, -0.13785000145435333, -0.10102158039808273, -0.04576892778277397, 0.06458563357591629, -0.05078927055001259, 0.1402277946472168, -0.017651192843914032, 0.08711779862642288, 0.012191079556941986, 0.03273581713438034, -0.04792877286672592, 0.20468047261238098, 0.08881846070289612, 0.026644300669431686, -0.12898516654968262, 0.07961694151163101, -0.0397556908428669, 0.01315989438444376, -0.013001538813114166, 0.052902888506650925, -0.052620768547058105, 0.046342819929122925, 0.11197878420352936, 0.07464825361967087, -0.11881846934556961, 0.006177566479891539, -0.045773666352033615, 0.1288180649280548, -0.010676966048777103, 0.006445489823818207, 0.18800696730613708, -0.03457394242286682, 0.12292154878377914, 0.12713494896888733, 0.08491440117359161, -0.10887978971004486, 0.023929936811327934, 0.3392842710018158, -0.031156983226537704, -0.16070495545864105, 0.15728551149368286, 0.01620052568614483, 0.15713316202163696, 0.024982262402772903, -0.06712968647480011, -0.11046864837408066, -0.031410831958055496, -0.13874061405658722, 0.1849614828824997, -0.12790453433990479, -0.1022297814488411, -0.07729683816432953, -0.12749452888965607, 0.2618905007839203, -0.07345201075077057, -0.17091228067874908, 0.13791562616825104, -0.3080521523952484, 0.10341308265924454, 0.04175881668925285, 0.09698424488306046, -0.012373145669698715, -0.1063603013753891, -0.09274445474147797, -0.12518203258514404, -0.039867252111434937, -0.11763259768486023, 0.02800396829843521, 0.0033538585994392633, -0.07076401263475418, -0.1756378561258316, -0.08334646373987198, 0.055724214762449265, -0.01132274977862835, 0.040920596569776535, 0.1677035391330719, -0.03194190934300423, 0.022234926000237465, 0.057767655700445175, -0.02690248005092144, -0.11179541796445847, 0.13757391273975372, 0.09402346611022949, 0.11088758707046509, -0.02453238144516945, -0.19372524321079254, -0.02348674274981022, -0.10571375489234924, -0.09846112877130508, 0.050147056579589844, -0.07122354209423065, 0.06095770746469498, -0.0337638221681118, -0.10267627984285355, 0.038732074201107025, 0.10233300179243088, -0.0225936621427536, -0.1417364776134491, -0.14719314873218536, -0.05440434440970421, -0.014891304075717926, -0.16116513311862946, 0.05297696217894554, -0.046286441385746, -0.1995975822210312, -0.09470777958631516, -0.17862339317798615, -0.10295043140649796, -0.08156809955835342, -0.09538247436285019, 0.05203359201550484, 0.12364140152931213, -0.11291605979204178, -0.031676653772592545, 0.12791450321674347], [0.1550857275724411, -0.11380545794963837, 0.07798953354358673, -0.06209956109523773, 0.07528982311487198, 0.08728629350662231, 0.10521714389324188, 0.14051559567451477, -0.0407118946313858, -0.15080828964710236, 0.12139517068862915, -0.07224991172552109, 0.03678970783948898, 0.23918461799621582, -0.019567441195249557, -0.16429556906223297, 0.06431043148040771, 0.25728556513786316, 0.20117361843585968, -0.07091154903173447, 0.10960657894611359, 0.09278208762407303, 0.03072204627096653, -0.0570557676255703, 0.22905583679676056, 0.025666911154985428, -0.006333064287900925, 0.01008093822747469, 0.0779775083065033, -0.12786796689033508, -0.00994147453457117, -0.09510815143585205, 0.011449797078967094, -0.19895759224891663, -0.015847932547330856, -0.08727507293224335, -0.2158835381269455, 0.029555851593613625, 0.05793844908475876, -0.1513979136943817, -0.0987183079123497, 0.056802451610565186, 0.09019666910171509, 0.01767728477716446, 0.14382310211658478, 0.09458395093679428, -0.01910758763551712, 0.10662664473056793, -0.07073844224214554, 0.09635727107524872, -0.1412598341703415, -0.157765731215477, -0.08642613142728806, 0.05459734797477722, 0.08609193563461304, 0.0942307561635971, -0.08096757531166077, 0.1030760332942009, 0.038890257477760315, 0.052446428686380386, -0.059959813952445984, 0.15352976322174072, -0.02027147449553013, -0.09754569828510284, 0.1257178634405136, 0.13035544753074646, 0.0012435304233804345, 0.2643469274044037, 0.047518204897642136, 0.15259350836277008, -0.15255150198936462, -0.05104611814022064, -0.031114371493458748, 0.17497313022613525, -0.08078674972057343, 0.03360395506024361, 0.054162826389074326, 0.08513118326663971, 0.024183446541428566, -0.07844090461730957, 0.11935236304998398, -0.09930846840143204, -0.05695689842104912, -0.12242428958415985, 0.12348815053701401, 0.06114887446165085, -0.040576908737421036, -0.08370617777109146, -0.05094798654317856, -0.20651623606681824, -0.15231576561927795, -0.07887036353349686, 0.07157239317893982, -0.031009532511234283, 0.11910896748304367, 0.06843800842761993, 0.22206300497055054, -0.16371874511241913, 0.023258056491613388, -0.1947358101606369, 0.1258162558078766, -0.1476525068283081, -0.08647999167442322, -0.01387898437678814, 0.23864592611789703, -0.12597104907035828, -0.2892501652240753, 0.153206005692482, -0.08735254406929016, 0.09097331762313843, 0.07978785783052444, -0.05858033895492554, 0.08380366116762161, 0.12720783054828644, 0.027636880055069923, 0.018970130011439323, -0.09709065407514572, 0.3389384150505066, -0.12889745831489563, 0.094431072473526, 0.059263404458761215, -0.005665601696819067, -0.11235734075307846, -0.006857787258923054, 0.0614459253847599, -0.05244971439242363, 0.10968603938817978, 0.039199355989694595], [0.04221469163894653, 0.028807099908590317, -0.04743950068950653, 0.09447596967220306, 0.11606302112340927, 0.05298871546983719, 0.0521208718419075, -0.14259855449199677, 0.08522644639015198, 0.09094744175672531, -0.06636929512023926, -0.09081888943910599, -0.053008828312158585, -0.02447506971657276, -0.041222576051950455, 0.07415857911109924, 0.14069874584674835, -0.0725773498415947, 0.038399506360292435, 0.10275422781705856, 0.010050811804831028, -0.15637639164924622, -0.18813954293727875, -0.07840654999017715, -0.10339996963739395, -0.03483867645263672, 0.04740312322974205, 0.06804709881544113, -0.1985260248184204, 0.26364025473594666, -0.004832531791180372, 0.03274567797780037, -0.14424674212932587, -0.0021930488292127848, -0.008956470526754856, 0.06177046522498131, -0.07196705043315887, 0.06752246618270874, 0.006502394564449787, 0.10905920714139938, -0.1356072574853897, -0.02110796608030796, 0.08864501118659973, -0.09396243840456009, -0.1616683453321457, -0.03258278965950012, -0.027664102613925934, 0.1854579597711563, 0.11168458312749863, 0.008165356703102589, 0.21160367131233215, 0.058488357812166214, 0.1500343382358551, -0.1293831318616867, -0.07146993279457092, 0.03946029022336006, 0.10085343569517136, -0.17358162999153137, 0.07572455704212189, -0.1404571682214737, 0.028506705537438393, 0.10685510188341141, 0.10757642984390259, -0.006547676399350166, 0.009263427928090096, -0.020446959882974625, -0.05980444699525833, -0.04812765493988991, -0.06698121875524521, -0.10901716351509094, 0.3557969629764557, 0.02434263378381729, -0.0193315576761961, 0.17757144570350647, 0.11711565405130386, 0.1751338690519333, 0.051506318151950836, -0.04060867801308632, 0.11885002255439758, -0.014183838851749897, -0.12361731380224228, 0.008518627844750881, 0.09674347937107086, 0.02872619405388832, 0.06497419625520706, -0.006640052422881126, -0.10079795867204666, -0.020560825243592262, -0.31144630908966064, -0.06657861918210983, 0.042136300355196, -0.1025102287530899, -0.11057773977518082, 0.015325578860938549, -0.10506914556026459, 0.04757850989699364, -0.022676343098282814, -0.045578520745038986, 0.08467444032430649, -0.30823346972465515, -0.002274504629895091, -0.06973228603601456, -0.06325523555278778, 0.05374132841825485, 0.11651204526424408, -0.2377399504184723, -0.09895908832550049, -0.1397399753332138, 0.05074477940797806, 0.011173226870596409, 0.10775665193796158, -0.11406398564577103, -0.16742335259914398, -0.2018531858921051, 0.008479885756969452, -0.007107079494744539, -0.008021031506359577, 0.01148883905261755, 0.06824256479740143, -0.11294680833816528, 0.1280432641506195, -0.033466268330812454, 0.0030078913550823927, -0.04140186309814453, -0.011792650446295738, -0.07812470197677612, -0.08972498029470444, -0.06359399855136871], [-0.13047154247760773, 0.049409858882427216, -0.08458007872104645, 0.03250148892402649, 0.013898741453886032, 0.1311553716659546, -0.06571658700704575, 0.17716176807880402, -0.0880410373210907, 0.1286441683769226, -0.18421299755573273, -0.12836956977844238, 0.15615996718406677, -0.006337548606097698, -0.05515516921877861, 0.12740403413772583, 0.08784797787666321, -0.052057895809412, -0.039738308638334274, 0.018856925889849663, -0.019084861502051353, -0.1022801548242569, -0.04281933605670929, 0.1808483600616455, 0.23175251483917236, -0.035110678523778915, -0.01368763018399477, -0.034794922918081284, -0.0864471048116684, 0.04726970195770264, 0.10451812297105789, 0.15949669480323792, 0.1464075744152069, 0.08151077479124069, 0.05340375006198883, 0.14520163834095, 0.22956763207912445, 0.03125884011387825, 0.05762828513979912, -0.015568635426461697, -0.1415383219718933, -0.08951403945684433, -0.07214321196079254, 0.01274381298571825, -0.03570353239774704, -0.1043197438120842, -0.02179446630179882, 0.026949072256684303, 0.016008945181965828, -0.0847868025302887, 0.06736018508672714, 0.0860825851559639, 0.13272838294506073, -0.001697090920060873, -0.04135001078248024, -0.001250776695087552, 0.04352850839495659, 0.032549478113651276, 0.03441474959254265, 0.08562543243169785, 0.11725986003875732, 0.17364193499088287, 0.012051018886268139, 0.1995965987443924, -0.010771195404231548, 0.018605895340442657, 0.04403990879654884, -0.15433456003665924, 0.033113233745098114, -0.006224584765732288, 0.19532901048660278, 0.18493877351284027, -0.14066068828105927, 0.08359189331531525, -0.07853908091783524, 0.0778563842177391, -0.05702558532357216, -0.24004244804382324, 0.13451267778873444, -0.1409740000963211, 0.1270224004983902, 0.03991596773266792, 0.01888667792081833, 0.05997418239712715, -0.3029552102088928, -0.0958617553114891, 0.12603412568569183, 0.12298484146595001, -0.023217542096972466, 0.20951612293720245, 0.02958926558494568, 0.0018602745840325952, 0.15409217774868011, -0.015141557902097702, -0.18002334237098694, -0.0861232578754425, 0.0683189406991005, -0.05295182019472122, 0.028957145288586617, 0.22292503714561462, -0.1328078657388687, 0.13377991318702698, 0.031383536756038666, -0.11745459586381912, -0.043901652097702026, -0.07280285656452179, 0.017920535057783127, -0.09614831209182739, -0.020512200891971588, -0.16366423666477203, -0.09678880125284195, 0.08463104814291, 0.033510103821754456, -0.10898080468177795, 0.06471572816371918, 0.063931405544281, 0.010410577990114689, 0.10252021253108978, 0.05171896144747734, -0.11309095472097397, 0.05897578224539757, -0.09259676188230515, 0.05093478411436081, -0.2535676658153534, -0.04424883797764778, 0.05394509434700012, -0.1734752058982849, -0.12515003979206085], [-0.12913651764392853, -0.16904699802398682, -0.045423638075590134, -0.22455984354019165, -0.01982794888317585, 0.013159275986254215, 0.1956346333026886, -0.27756670117378235, -0.11641492694616318, -0.029601650312542915, 0.11437325924634933, 0.10584352165460587, -0.09790822118520737, -0.2019721418619156, 0.1429140418767929, 0.035083670169115067, -0.07103323191404343, -0.11052815616130829, 0.01299776416271925, 0.07563474029302597, -0.020010488107800484, 0.07393823564052582, 0.1753280609846115, -0.0020870056468993425, -0.020460307598114014, 0.013681920245289803, -0.026715407148003578, 0.020486418157815933, -0.1216215193271637, 0.10632357746362686, -0.04316982626914978, -0.180362731218338, 0.07944820076227188, 0.2992018759250641, -0.14006806910037994, 0.08459465950727463, -0.009942565113306046, 0.2997016906738281, -0.11602099984884262, -0.04133516922593117, 0.029199009761214256, -0.22761301696300507, -0.1347576081752777, -0.15022622048854828, 0.20687884092330933, 0.039266593754291534, 0.20350684225559235, 0.02742030844092369, 0.04997175559401512, -0.10797939449548721, -0.1555393636226654, -0.024025114253163338, 0.11378531903028488, 0.009018710814416409, 0.05643923953175545, 0.124928317964077, -0.1291828155517578, 0.011349002830684185, -0.12815888226032257, 0.05283106490969658, 0.1017635241150856, 0.104512520134449, -0.08542927354574203, -0.1085088849067688, -0.025342362001538277, 0.02799542248249054, 0.14939574897289276, -0.09673015773296356, -0.1364583969116211, 0.0018603582866489887, 0.16653156280517578, -0.057708170264959335, 0.1529526561498642, -0.1606506109237671, 0.03904624655842781, -0.130910724401474, -0.06703153997659683, -0.05804435908794403, -0.08988519757986069, 0.14035315811634064, 0.0717504620552063, 0.13196209073066711, -0.2121473103761673, 0.020365143194794655, 0.15752112865447998, 0.23254680633544922, -0.02906898967921734, -0.11036822944879532, 0.10901660472154617, -0.017917944118380547, 0.13650357723236084, 0.041684068739414215, -0.020864350721240044, 0.28811144828796387, 0.0015027621993795037, 0.05655999854207039, -0.13135066628456116, -0.020387539640069008, 0.19061970710754395, 0.05427496135234833, -0.14502470195293427, -0.0305402260273695, -0.14995348453521729, 0.07581347227096558, -0.3887646496295929, -0.06130185350775719, 0.07294471561908722, 0.05275632441043854, -0.1703537106513977, 0.06339088827371597, 0.3413925766944885, -0.12497039139270782, 0.07465837895870209, 0.014196706935763359, -0.18441054224967957, 0.05591884255409241, -0.16794244945049286, -0.31095263361930847, 0.0620473213493824, 0.14580146968364716, -0.224193274974823, 0.01827363111078739, -0.08367117494344711, 0.17949384450912476, -0.10553956031799316, 0.09074684977531433, 0.019415829330682755, 0.08818631619215012], [0.11839639395475388, -0.06405559182167053, 0.00852644257247448, 0.009270560927689075, -0.00612420029938221, -0.177933007478714, 0.10745059698820114, -0.19820964336395264, 0.06217245012521744, -0.10469283163547516, 0.07460649311542511, 0.033609483391046524, -0.016993969678878784, 0.08585866540670395, -0.09326930344104767, -0.1702577769756317, 0.01822539046406746, -0.10219599306583405, 0.07291161268949509, -0.08700742572546005, 0.08933650702238083, 0.09393322467803955, -0.06703530997037888, -0.12276895344257355, -0.2734262943267822, -0.0658523291349411, 0.0047154659405350685, 0.1491546928882599, 0.12372519075870514, -0.02867996133863926, 0.07333862036466599, 0.00326638319529593, -0.014658454805612564, 0.09674423933029175, -0.10267062485218048, -0.01797928847372532, 0.03054332733154297, -0.027163313701748848, -0.3089393079280853, -0.025239162147045135, 0.13841357827186584, 0.14595098793506622, 0.2871171832084656, 0.042341943830251694, 0.030198829248547554, 0.03513651341199875, -0.013903557322919369, 0.13709843158721924, 0.05312395095825195, -0.1411534994840622, -0.0719609409570694, -0.13181118667125702, -0.03612867370247841, -0.18353809416294098, -0.04511535167694092, 0.0959978774189949, -0.07725522667169571, 0.011515404097735882, -0.05619528517127037, -0.22927145659923553, -0.05103255808353424, 0.0686945766210556, 0.04321560263633728, 0.0037578498013317585, 0.15183959901332855, 0.1961580365896225, 0.06929036974906921, 0.13268813490867615, 0.004938234109431505, 0.14113053679466248, 0.14245711266994476, 0.0007405506912618876, 0.20526446402072906, -0.16048914194107056, 0.05385030061006546, -0.039714403450489044, -0.1425897628068924, 0.05539894104003906, -0.01358757633715868, 0.21142473816871643, 0.2117229700088501, -0.025893591344356537, -0.11099627614021301, 0.062353868037462234, -0.08462121337652206, -0.07522381097078323, -0.03909198194742203, -0.14937324821949005, 0.071407251060009, 0.16256414353847504, 0.0424308255314827, -0.02667035534977913, 0.16632884740829468, 0.03604632988572121, 0.04130742698907852, -0.1082865372300148, -0.006583838257938623, -0.11209813505411148, 0.06794875860214233, 0.19193996489048004, 0.13428868353366852, 0.05918605998158455, -0.024740008637309074, 0.024188971146941185, 0.11289896816015244, 0.07243188470602036, 0.15325580537319183, 0.004610941279679537, -0.020417595282197, 0.1076323613524437, 0.07743614912033081, -0.04913421720266342, -0.12942886352539062, -0.06465306878089905, -0.049325935542583466, -0.05468711256980896, -0.17243163287639618, -0.11583015322685242, 0.25438493490219116, -0.07057739049196243, 0.010407195426523685, 0.02641933225095272, -0.06575258821249008, 0.11666060984134674, 5.5008873459883034e-05, -0.06439079344272614, -0.006129294168204069, 0.07848827540874481], [-0.04647812247276306, 0.04735371097922325, -0.29387831687927246, -0.05141720548272133, -0.0044286116026341915, 0.12659941613674164, 0.006291585974395275, -0.023393014445900917, -0.10267585515975952, 0.05501975491642952, 0.0494256317615509, -0.12127228826284409, -0.06732948869466782, 0.2037176787853241, -0.056331709027290344, -0.11609142273664474, -0.093217633664608, 0.24646228551864624, 0.025140194222331047, -0.01009698398411274, -0.04770449921488762, -0.11778505891561508, -0.016422269865870476, 0.154527485370636, 0.09256193786859512, -0.07715969532728195, 0.0416623018682003, -0.024205341935157776, -0.24337251484394073, -0.17493712902069092, -0.025240618735551834, 0.01964241825044155, -0.1003037616610527, -0.0028531234711408615, 0.17205274105072021, 0.02420394867658615, -0.11357935518026352, 0.33495989441871643, -0.023648450151085854, -0.048152465373277664, 0.019596433266997337, 0.21049292385578156, -0.09732193499803543, 0.09853828698396683, 0.012727757915854454, 0.13244715332984924, -0.00021777264191769063, -0.02498660795390606, 0.03734630346298218, 0.031258147209882736, 0.030379777774214745, 0.0069216894917190075, 0.16827191412448883, -0.03282010555267334, -0.05382522568106651, -0.08406940847635269, 0.1597186177968979, -0.09660937637090683, -0.11493675410747528, 0.3037416636943817, -0.035185039043426514, 0.10340063273906708, 0.0855618268251419, 0.048137277364730835, -0.20365890860557556, -0.12210846692323685, -0.048875343054533005, 0.04392853006720543, -0.05867958813905716, 0.011564116925001144, -0.025554439052939415, 0.02870592474937439, -0.02891920506954193, 0.2103262096643448, -0.14636512100696564, 0.04334390163421631, -0.1485273391008377, -0.008841032162308693, 0.04721518233418465, -0.19353052973747253, -0.12115197628736496, -0.025285951793193817, -0.10254443436861038, 0.1231154128909111, 0.28332239389419556, 0.015372786670923233, -0.007470148615539074, 0.07265066355466843, -0.09952565282583237, -0.02163046784698963, -0.09850294888019562, -0.07908409833908081, 0.10693912208080292, -0.07492012530565262, -0.07222451269626617, -0.013375170528888702, 0.044169023633003235, 0.1370282620191574, -0.015756860375404358, -0.18036609888076782, -0.029081126675009727, -0.028332896530628204, 0.12115208804607391, -0.12411796301603317, 0.059046246111392975, 0.24429510533809662, -0.30561593174934387, -0.022514108568429947, 0.09525813162326813, 0.18950873613357544, -0.026172246783971786, -0.04162529483437538, 0.0903947651386261, -0.016784382984042168, 0.21084223687648773, 0.047903720289468765, 0.102979376912117, 0.29586926102638245, 0.0038464004173874855, 0.018765361979603767, -0.16729490458965302, 0.08960386365652084, 0.14007963240146637, -0.018822859972715378, 0.14229577779769897, 0.07150524109601974, 0.06536076962947845, -0.012277812696993351], [-0.2682689130306244, -0.009623860009014606, -0.050396230071783066, -0.014644259586930275, -0.014070544391870499, -0.1598416268825531, -0.12671558558940887, -0.07894258201122284, -0.07407582551240921, 0.09866654872894287, -0.07815466821193695, 0.03898979723453522, -0.21136008203029633, 0.0936029851436615, -0.09062284231185913, 0.12093061953783035, 0.1019056960940361, 0.20995564758777618, -0.19280532002449036, -0.06832287460565567, -0.07353690266609192, 0.037062689661979675, 0.13564175367355347, 0.11764836311340332, 0.12417704612016678, 0.05736452341079712, 0.1325196474790573, -0.07575061172246933, -0.09555146843194962, -0.022040700539946556, 0.18229487538337708, -0.13953593373298645, 0.010767699219286442, 0.0012926853960379958, 0.054334525018930435, 0.11963904649019241, 0.07891666144132614, -0.17266547679901123, -0.022003445774316788, 0.13290895521640778, -0.023205138742923737, -0.14648085832595825, -0.16702230274677277, 0.08440127968788147, 0.0399620458483696, 0.20174826681613922, -0.008190147578716278, 0.02054232731461525, 0.09062401950359344, 0.08550296723842621, -0.11684366315603256, 0.003429614705964923, -0.17993900179862976, 0.12140166014432907, -0.13723652064800262, -0.07144776731729507, -0.20223583281040192, -0.02352401427924633, -0.022509638220071793, 0.1909189671278, -0.06567966192960739, -0.008432874456048012, 0.018864667043089867, -0.08074925094842911, 0.054929107427597046, 0.11997915804386139, -0.12575362622737885, -0.10991217195987701, -0.28355708718299866, -0.03554253652691841, 0.0008428401197306812, -0.089727483689785, 0.10756417363882065, 0.023905348032712936, -0.1115809977054596, 0.1519545465707779, 0.03031693398952484, -0.17209352552890778, 0.012952761724591255, 0.4399282932281494, -0.024319233372807503, 0.09491568803787231, -0.21021053194999695, -0.11862863600254059, -0.0477912537753582, -0.01597847230732441, -0.028911778703331947, -0.10182011872529984, -0.10918456315994263, 0.013124562799930573, 0.028287362307310104, 0.0353250727057457, 0.09104669839143753, -0.024029508233070374, 0.18389420211315155, 0.0005138746928423643, -0.05707625672221184, 0.19512583315372467, -0.24533773958683014, -0.09923656284809113, 0.021701788529753685, -0.07094848901033401, 0.2129594385623932, 0.007227323018014431, -0.011265604756772518, -0.2963598966598511, -0.0014193892711773515, -0.10644665360450745, 0.03929616138339043, -0.2617831528186798, -0.11310983449220657, 0.17433494329452515, -0.1673079878091812, -0.15279066562652588, 0.07663673162460327, -0.07714527100324631, -0.034683555364608765, -0.0789811834692955, -0.00043492301483638585, -0.022054968401789665, 0.2966482937335968, 0.017738666385412216, -0.043028369545936584, -0.04388556629419327, -0.043208878487348557, -0.05987914279103279, -0.05154232680797577, 0.07543229311704636], [-0.03001219965517521, -0.16195033490657806, 0.08800684660673141, 0.03551540896296501, 0.02891569212079048, -0.13233505189418793, 0.08043710887432098, 0.14097997546195984, -0.19333472847938538, -0.19240625202655792, 0.0027655449230223894, -0.06639859825372696, -0.21036772429943085, 0.043369852006435394, 0.16384769976139069, -0.3264394700527191, 0.09967520833015442, -0.00013206893345341086, -0.02061302214860916, -0.10832998901605606, -0.043380092829465866, 0.058805570006370544, 0.05588176101446152, -0.0992632731795311, -0.0671236589550972, 0.06414729356765747, 0.17578217387199402, 0.08243174850940704, 0.0032997154630720615, -0.07588724046945572, 0.14228393137454987, -0.2540167272090912, 0.14527545869350433, -0.014964476227760315, 0.1437140554189682, -0.14542637765407562, -0.04465614631772041, -0.16669705510139465, 0.09176564961671829, 0.1049344539642334, -0.03549998253583908, 0.0424107126891613, -0.10080210119485855, 0.023007003590464592, 0.11506397277116776, 0.16303275525569916, 0.04101107642054558, 0.058509428054094315, -0.05450228974223137, -0.11981458216905594, -0.23253662884235382, -0.21206863224506378, 0.0007911601569503546, -0.004108867142349482, 0.17724569141864777, -0.008903850801289082, -0.09931068122386932, 0.10651575028896332, 0.046508438885211945, -0.028038542717695236, -0.05226723104715347, -0.1323770433664322, -0.15748907625675201, -0.11236894130706787, 0.0496385283768177, 0.13955670595169067, 0.03706883266568184, 0.2811239957809448, -0.19858558475971222, 0.019190799444913864, 0.20313426852226257, 0.049628764390945435, 0.14049223065376282, -0.10359828174114227, 0.3004619777202606, 0.013789007440209389, -0.08128581196069717, 0.058668848127126694, -0.07927560806274414, 0.13860316574573517, 0.056685082614421844, 0.210643470287323, 0.04410729557275772, -0.07338167726993561, 0.15386734902858734, -0.01244689803570509, 0.06955312192440033, -0.22887742519378662, -0.024801263585686684, -0.08333413302898407, -0.007275724783539772, 0.02381730265915394, 0.1112150326371193, -0.018011417239904404, -0.13902243971824646, 0.10563004016876221, 0.12946419417858124, -0.022938121110200882, 0.14123481512069702, 0.11354252696037292, 0.08242217451334, -0.08016641438007355, -0.21952877938747406, 0.027810977771878242, -0.01337967999279499, 0.1895294189453125, -0.0652213990688324, -0.08992195874452591, 0.02138039469718933, 0.13011924922466278, 0.03425218164920807, 0.0060378173366189, 0.0100697698071599, 0.062460094690322876, -0.07806570082902908, 0.007754062302410603, 0.08836033940315247, -0.17745274305343628, 0.08881741762161255, 0.06122342869639397, -0.1240583136677742, -0.14840343594551086, 0.1206187829375267, 0.062103986740112305, 0.0590692013502121, 0.0005555649986490607, -0.14330287277698517, 0.026918331161141396], [-0.15865157544612885, 0.012214766815304756, 0.041362907737493515, -0.11513688415288925, -0.05122639611363411, -0.03989081829786301, -0.05442161485552788, 0.10050269216299057, 0.10653895884752274, 0.09758315235376358, -0.12784188985824585, 0.026281295344233513, 0.020687095820903778, -0.005678927525877953, -0.21693752706050873, 0.3016778528690338, 0.11690450459718704, 0.045480068773031235, 0.009470042772591114, 0.08118399232625961, 0.06754100322723389, -0.025058478116989136, -0.062074001878499985, 0.029328983277082443, -0.07680332660675049, -0.2599646747112274, -0.016555028036236763, -0.014910082332789898, -0.020411329343914986, 0.07157471776008606, 0.017039841040968895, 0.0007319800788536668, 0.1878039389848709, 0.049826160073280334, -0.017868004739284515, 0.043981652706861496, 0.1482810527086258, -0.1538831740617752, -0.20306554436683655, 0.12721233069896698, -0.05856139585375786, 0.07807914912700653, 0.1146264597773552, -0.09435524791479111, -0.06938036531209946, -0.15702837705612183, -0.0049553923308849335, -0.09976587444543839, 0.07163053005933762, -0.03356584161520004, 0.20349055528640747, 0.1090196892619133, 0.09632008522748947, -0.1607985943555832, -0.275094598531723, 0.08462148159742355, 0.12354268878698349, 0.03077724389731884, -0.0737440213561058, 0.24406224489212036, 0.13934043049812317, 0.07838527858257294, 0.028651421889662743, 0.016016455367207527, -0.09638383984565735, 0.026629017665982246, 0.06071259453892708, -0.1446041613817215, -0.1297006756067276, -0.12250179797410965, 0.21647074818611145, 0.005320541560649872, 0.02896600402891636, 0.06635337322950363, -0.024835404008626938, 0.004164348356425762, -0.026951989158988, -0.21849828958511353, 0.027937496080994606, 0.11991386860609055, 0.09404149651527405, 0.02838985063135624, -0.008214849978685379, 0.08244743198156357, -0.04904830455780029, -0.008362223394215107, -0.09288468956947327, -0.005398871842771769, -0.06065421923995018, 0.11322624981403351, 0.02306903339922428, -0.037077631801366806, 0.23393502831459045, 0.11156483739614487, -0.03535294532775879, -0.21793828904628754, 0.04475456848740578, 0.08235255628824234, 0.32483696937561035, 0.10594501346349716, 0.02945093624293804, 0.00016566796693950891, 0.2009827196598053, 0.11215794831514359, -0.11761138588190079, -0.08567864447832108, -0.1415097713470459, 0.01156608760356903, -0.05708419904112816, -0.01667334884405136, 0.10381563752889633, -0.025133533403277397, 0.15557560324668884, -0.1157442182302475, 0.006562948692589998, -0.147304505109787, 0.2800351083278656, 0.08649814128875732, 0.007013870868831873, -0.007797001861035824, -0.08485039323568344, -0.16931216418743134, 0.09952256828546524, 0.08565973490476608, 0.01589956507086754, -0.01504268404096365, -0.14684614539146423, 0.09532146155834198], [-0.05167275667190552, 0.0006394648808054626, -0.021914394572377205, -0.045781731605529785, -0.10541298240423203, 0.006203364580869675, 0.17782847583293915, 0.14618346095085144, -0.04836546629667282, -0.0665283277630806, -0.24008257687091827, -0.0974293053150177, 0.03972863033413887, 0.09256932139396667, 0.017075642943382263, -0.1063610315322876, 0.12288543581962585, 0.007565279025584459, 0.05899897962808609, 0.03212833032011986, -0.004034106619656086, 0.09609764814376831, 0.16388152539730072, -0.03130321577191353, -0.08515165001153946, -0.06554216891527176, -0.05411812290549278, -0.00561335776001215, -0.01916474662721157, -0.1673949956893921, -0.04764146730303764, -0.2194574922323227, 0.0878487080335617, -0.21251791715621948, 0.15823039412498474, -0.08929740637540817, -0.20358623564243317, 0.20626403391361237, -0.1508501172065735, -0.10939851403236389, -0.0968223512172699, -0.07460875809192657, 0.201087087392807, 0.05505748465657234, 0.06057922914624214, 0.08775584399700165, -0.05724275857210159, 0.13221587240695953, -0.09500367939472198, -0.08801621943712234, -0.1348060965538025, -0.10403624922037125, -0.1341237872838974, 0.004910818766802549, 0.073212169110775, 0.042299509048461914, -0.10827025026082993, 0.10709311068058014, 0.08242803812026978, -0.05026169493794441, 0.08428067713975906, 0.05509954318404198, 0.020842500030994415, -0.13573221862316132, 0.15007439255714417, 0.05220402032136917, -0.0930025652050972, 0.3428194224834442, -0.07037872821092606, 0.07514897733926773, -0.17068958282470703, -0.037842754274606705, -0.1347479522228241, -0.11529581993818283, -0.42662888765335083, -0.007976914756000042, -0.09341233223676682, -0.09663806855678558, -0.018330423161387444, 0.16834856569766998, 0.07747342437505722, -0.03308030217885971, 0.01632428914308548, -0.07888370007276535, -0.07641883194446564, -0.09122814238071442, -0.18105925619602203, -0.0176223274320364, 0.0760079026222229, 0.006788876373320818, -0.0857343077659607, -0.10587489604949951, 0.12191864103078842, -0.12537893652915955, 0.20735366642475128, 0.07951323688030243, 0.07259171456098557, 0.023741165176033974, -0.009004530496895313, -0.0944080650806427, -0.06587818264961243, 0.11084401607513428, -0.0023727479856461287, 0.009316046722233295, 0.09007355570793152, 0.2480797916650772, -0.19506610929965973, 0.13397419452667236, -0.028867611661553383, 0.12808778882026672, -0.11186208575963974, -0.019686855375766754, -0.043276555836200714, -0.036065731197595596, 0.027991333976387978, 0.015485754236578941, -0.1945054531097412, -0.22686325013637543, 0.18944716453552246, -0.010609978809952736, 0.09713762253522873, -0.057220458984375, -0.05489296838641167, -0.12040986120700836, 0.07568962872028351, 0.0344645157456398, -0.10927774757146835, -0.12383736670017242]], "down.2.weight": [[-0.22412216663360596, 0.016906924545764923, -0.004080208018422127, 0.0848105326294899, -0.08710385859012604, -0.19250410795211792, -0.059442900121212006, -0.17117466032505035, -0.036935608834028244, -0.08493655174970627, -0.05659301578998566, 0.10873223841190338, -0.13178837299346924, 0.0214784387499094, 0.010261334478855133, 0.1600988358259201, -0.23749415576457977, 0.07891705632209778, -0.05773654580116272, -0.2671484351158142, -0.15427051484584808, 0.05560007318854332, -0.1315300166606903, -0.233261376619339, -0.11791406571865082, 0.07342825084924698, 0.21606634557247162, -0.0336100310087204, 0.06962601840496063, -0.16256776452064514, 0.1072390079498291, -0.1709708720445633, -0.09672793000936508, -0.11072351038455963, 0.013958724215626717, 0.18303506076335907, -0.02998722903430462, 0.04764524847269058, 0.012129083275794983, 0.07512368261814117, -0.13452403247356415, -0.12427353113889694, 0.05008981004357338, 0.04960929602384567, 0.002617241581901908, 0.11650614440441132, -0.19602158665657043, -0.10370870679616928, -0.10707560926675797, 0.12850040197372437, 0.28380757570266724, -0.13146841526031494, -0.03548949956893921, -0.2123567909002304, 0.01170914527028799, -0.07704159617424011, -0.15948288142681122, 0.09683986753225327, 0.1560838222503662, 0.017016159370541573, -0.03725915774703026, 0.005801122169941664, -0.08898691833019257, 0.0741022601723671, 0.0655609518289566, -0.08187778294086456, -0.03470323607325554, 0.04736633226275444, -0.33973610401153564, 0.02695639058947563, 0.13552086055278778, -0.2702406942844391, 0.11865361779928207, 0.25079283118247986, 0.1742296665906906, -0.04881361499428749, 0.009301876649260521, -0.1146746575832367, 0.13218893110752106, -0.032199472188949585, -0.0642203837633133, -0.0014443721156567335, -0.007294796407222748, 0.14047741889953613, 0.1324094980955124, -0.010601256974041462, 0.04946724325418472, -0.02741052396595478, -0.2413603514432907, -0.0860501155257225, 0.06537790596485138, 0.05190063267946243, 0.025223350152373314, -0.059607669711112976, 0.1921883076429367, -0.0024649903643876314, -0.11629407852888107, 0.08693648874759674, 0.04323001950979233, -0.10209532827138901, 0.04241633787751198, -0.020750541239976883, -0.05030909180641174, 0.0003263605176471174, 0.06677450984716415, 0.19330425560474396, 0.2768073081970215, 0.11444023996591568, -0.03243664279580116, 0.03939293324947357, 0.12481587380170822, 0.28634223341941833, -0.13215826451778412, -0.3512616753578186, 0.1771855652332306, -0.1515604704618454, -0.012655239552259445, -0.16245262324810028, 0.1884687840938568, -0.10145991295576096, 0.06410190463066101, 0.2661978602409363, -0.030940689146518707, -0.17904512584209442, -0.06952229887247086, -0.38222700357437134, -0.023519298061728477, 0.04506780207157135], [-0.010122502222657204, -0.12559185922145844, 0.08396308869123459, -0.14752192795276642, 0.40693560242652893, -0.144028440117836, 0.04075760394334793, -0.04333532601594925, 0.03512630984187126, 0.04715052619576454, 0.041409220546483994, 0.17077577114105225, 0.013668076135218143, -0.20149512588977814, -0.008817102760076523, 0.16672785580158234, -0.01977521739900112, 0.06583058834075928, 0.06162397935986519, 0.1326862871646881, -0.21908628940582275, -0.1852814257144928, 0.029991067945957184, -0.18652066588401794, -0.023816732689738274, 0.2535022795200348, -0.007925673387944698, 0.1707402616739273, -0.013527934439480305, -0.06560442596673965, -0.15994475781917572, -0.006026081275194883, 0.03522304818034172, -0.18674995005130768, -0.004421635065227747, 0.16320034861564636, -0.01663057506084442, -0.19356127083301544, 0.10930398106575012, -0.04912897199392319, -0.15782539546489716, -0.07213179767131805, -0.16298596560955048, 0.1355610489845276, 0.2019401490688324, 0.10703421384096146, 0.008140862919390202, 0.19374310970306396, -0.14649046957492828, 0.09358829259872437, -0.16869254410266876, 0.03264999017119408, -0.16417911648750305, 0.0705968588590622, -0.06785808503627777, 0.2319735437631607, -0.30197736620903015, 0.085190549492836, 0.22654666006565094, 0.007173759397119284, -0.18143098056316376, -0.0897487998008728, 0.18176455795764923, -0.11790993064641953, -0.09981351345777512, -0.008537057787179947, -0.12257649749517441, -0.22415649890899658, 0.43738213181495667, 0.03763004392385483, 0.04164594039320946, -0.02822345495223999, -0.12683142721652985, 0.0364982932806015, 0.09228092432022095, -0.029108967632055283, 0.04306335374712944, 0.049474384635686874, -0.10410404205322266, 0.0692204013466835, -0.05947570875287056, 0.07065343856811523, -0.03866347298026085, -0.06169966980814934, 0.04600943624973297, 0.3136494755744934, -0.0892411395907402, 0.16035909950733185, -0.04921214282512665, -0.06901118159294128, 0.11620112508535385, 0.17630712687969208, -0.10480187088251114, -0.12641283869743347, 0.19091583788394928, -0.02053099125623703, -0.04108687490224838, 0.11573280394077301, 0.08654097467660904, -0.20456326007843018, 0.015267787501215935, 0.10517600923776627, 0.18206050992012024, 0.2447371780872345, 0.09952250868082047, -0.17763997614383698, 0.007081650197505951, 0.013626466505229473, 0.10432664304971695, -0.33920204639434814, -0.11770499497652054, -0.09457162767648697, 0.19934305548667908, 0.07991282641887665, 0.0981864482164383, 0.28681251406669617, 0.16062478721141815, -0.06529580056667328, 0.09942207485437393, -0.25010111927986145, 0.1553465723991394, -0.094463050365448, -0.027974549680948257, 0.01928229071199894, 0.0054977890104055405, 0.07066378742456436, 0.2152533084154129, 0.10475181043148041], [-0.2395060807466507, 0.07856213301420212, 0.09984243661165237, -0.08349192887544632, 0.17724499106407166, 0.022300394251942635, -0.02148975245654583, 0.14076629281044006, -0.11241215467453003, -0.03614267706871033, -0.17249618470668793, -0.3270466923713684, -0.03961148485541344, -0.08993931859731674, -0.06540443003177643, -0.19632606208324432, -0.19356077909469604, -0.1848374605178833, -0.11091453582048416, 0.17919282615184784, -0.15235592424869537, -0.14310498535633087, -0.019657209515571594, 0.13596414029598236, -0.07468161731958389, 0.05742538720369339, 0.03631437569856644, 0.02757469192147255, -0.11351997405290604, 0.06463368237018585, -0.005427757278084755, 0.04371443763375282, -0.11614251881837845, -0.07512183487415314, -0.05400954186916351, -0.19827057421207428, -0.006841269321739674, 0.06520574539899826, -0.049919288605451584, 0.09661386162042618, -0.011162807233631611, -0.07999579608440399, 0.07275808602571487, 0.05950610339641571, 0.20217116177082062, 0.26834434270858765, -0.07159719616174698, 0.11796143651008606, 0.0513063482940197, 0.10585617274045944, -0.07579484581947327, -0.03636316955089569, 0.10192669928073883, -0.04194200783967972, 0.02400045655667782, -0.02739577926695347, 0.11965367197990417, -0.1523953676223755, -0.15475738048553467, 0.16282133758068085, 0.13397803902626038, -0.2640610933303833, -0.09058798104524612, -0.008097128942608833, 0.12800025939941406, 0.11037597805261612, -0.05004939064383507, -0.03573999181389809, 0.04527666047215462, -0.00496569462120533, 0.0027310436125844717, -0.26412948966026306, -0.016137607395648956, 0.011081880889832973, -0.07502619922161102, 0.0805247351527214, 0.19930383563041687, -0.07616855949163437, -8.467854786431417e-05, 0.04824670031666756, 0.08326613903045654, -0.051663756370544434, 0.0053494758903980255, 0.04586810618638992, 0.1740129590034485, 0.08530198782682419, 0.1407104730606079, 0.2551688849925995, -0.05946548283100128, -0.2485445737838745, -0.0070150685496628284, -0.0752229392528534, -0.04243921488523483, 0.16154035925865173, 0.06177680939435959, -0.21306106448173523, 0.013196798972785473, 0.061908140778541565, -0.0009495846461504698, -0.08309248089790344, -0.11945999413728714, -0.11461138725280762, -0.134380504488945, -0.21500852704048157, 0.12722496688365936, 0.11030033975839615, 0.11482638865709305, 0.18558365106582642, 0.09236360341310501, -0.07753722369670868, -0.04181041195988655, 0.19796641170978546, 0.1012507826089859, -0.10409203171730042, -0.09957415610551834, 0.0684342160820961, 0.09580224007368088, -0.2370499074459076, -0.055180661380290985, -0.03630446642637253, -0.07351429760456085, 0.24235592782497406, 0.018441898748278618, -0.058739952743053436, -0.023292651399970055, 0.047026775777339935, -0.05302383750677109, 0.09296508878469467], [-0.07036440074443817, 0.20376980304718018, -0.14974193274974823, 0.05233278125524521, 0.10142599791288376, -0.05674589425325394, -0.025059685111045837, 0.058497000485658646, -0.18268226087093353, -0.04052093252539635, 0.07849008589982986, -0.005248365458101034, 0.06892276555299759, -0.018375122919678688, -0.036637600511312485, 0.11322633922100067, -0.1440846472978592, -0.03130371868610382, -0.1200372651219368, -0.018514689058065414, -0.006011629942804575, -0.027806157246232033, -0.16116419434547424, 0.04003826156258583, 0.21286380290985107, -0.1760467141866684, -0.006671307608485222, -0.05976829677820206, -0.138259157538414, -0.18735551834106445, -0.0036034018266946077, 0.08856859803199768, 0.22553235292434692, 0.030597837641835213, 0.052698876708745956, -0.3325977623462677, -0.008082607761025429, 0.07997100800275803, 0.15364353358745575, -0.13241024315357208, 0.12503425776958466, -0.16171588003635406, -0.12206573784351349, 0.06484445184469223, -0.10242615640163422, 0.06515154242515564, -0.001114727114327252, -0.15197603404521942, -0.06507524847984314, 0.07245803624391556, -0.07932215929031372, 0.029372965916991234, -0.09986181557178497, 0.0662330687046051, -0.07061517238616943, -0.12499754875898361, 0.20006485283374786, -0.08405964821577072, 0.04617198556661606, 0.08303657919168472, 0.09067957103252411, 0.07312293350696564, 0.05750571936368942, 0.10296966880559921, -0.03347122669219971, 0.029907336458563805, 0.068550705909729, 0.06388866156339645, -0.015017403289675713, -0.023932745680212975, -0.13964460790157318, -0.050015661865472794, -0.12848640978336334, 0.1681155115365982, -0.14407038688659668, 0.008567535318434238, 0.011243665590882301, 0.022924868389964104, 0.09915357828140259, -0.27893123030662537, -0.09129376709461212, -0.16590644419193268, -0.14509442448616028, -0.20140185952186584, -0.4054110646247864, 0.000801401911303401, -0.04091310501098633, 0.07486135512590408, -0.000713967951014638, -0.06856591999530792, 0.13863253593444824, -0.12463177740573883, -0.28617945313453674, -0.019408168271183968, 0.16789981722831726, 0.1621541976928711, -0.2065715193748474, 0.005537023302167654, -0.0685148611664772, -0.3697432279586792, 0.028460053727030754, 0.016919204965233803, -0.055947963148355484, -0.07109858840703964, -0.1627681702375412, -0.07826703041791916, 0.0038854244630783796, -0.131484717130661, 0.12854482233524323, -0.047558803111314774, 0.05977802723646164, 0.0503007136285305, 0.04330097883939743, 0.08298619091510773, -0.044775672256946564, -0.1093127429485321, 0.19663496315479279, 0.07171116024255753, -0.17684827744960785, 0.1510114222764969, 0.10166595131158829, 0.17190568149089813, 0.15893623232841492, -0.012464543804526329, 0.10566676408052444, -0.17014680802822113, -0.28567197918891907, 0.07671567052602768], [-0.01779046282172203, -0.052270811051130295, -0.1289258450269699, 0.10838703066110611, 0.0827387198805809, -0.01011434756219387, -0.030747031792998314, -0.19113487005233765, -0.0592312216758728, 0.13876675069332123, -0.07053008675575256, -0.029294142499566078, 0.03225259482860565, 0.08764089643955231, -0.16445739567279816, 0.09841775894165039, 0.14095421135425568, 