{"carry_table.digit_embed.weight": [[-0.26493343710899353, 0.010606057941913605, 0.0019734171219170094, 0.326693058013916, 0.5152441263198853, 0.5158244967460632, -0.15346325933933258, 0.2191116362810135, -0.08734841644763947, 0.4043043851852417, -0.5107583999633789, 0.549464762210846, 0.7886614799499512, 0.29844194650650024, -0.3200741112232208, -0.8399734497070312, -0.1433081030845642, -0.08970743417739868, 0.30283883213996887, -0.00017116364324465394, -0.1421685814857483, 0.501753568649292, -0.19158384203910828, 0.11072417348623276, -0.0573435053229332, -0.40042534470558167, 0.04875807836651802, 0.5701587796211243, -0.660269021987915, 0.22164086997509003, 1.1284269094467163, -0.8439931869506836, -0.6763195395469666, -0.8352574706077576, 0.7851223945617676, 0.5770971775054932, -0.6596029996871948, -0.8503178954124451, -0.25596970319747925, 0.6476669907569885, -0.6753035187721252, -0.35923758149147034, -0.6067469120025635, -0.6720083355903625, -0.3279084861278534, -0.9787741899490356, 0.49831128120422363, 0.13637599349021912], [-0.16077981889247894, 0.03738224878907204, 0.1085641086101532, 0.47737136483192444, 0.3534095585346222, 0.9881280064582825, -0.10895723849534988, -0.09712635725736618, -0.41204020380973816, 0.599854052066803, -0.008057191967964172, 0.42800697684288025, 0.5152994990348816, 0.31916967034339905, -0.042529020458459854, -0.5275170803070068, -0.3317912518978119, -0.55877286195755, 0.9506943225860596, 0.1450832337141037, -0.26061317324638367, 0.32160893082618713, -0.5933599472045898, -0.27981847524642944, 0.5825701951980591, -0.18524058163166046, -0.4961465299129486, 0.6846203804016113, -0.5312807559967041, 0.08413144201040268, 0.47964099049568176, -0.921012282371521, -0.16164688766002655, -0.6847152709960938, 0.3209085762500763, 0.3627065420150757, -0.18419067561626434, -0.29530903697013855, -0.8783122897148132, 0.43399718403816223, -0.39982351660728455, 0.11355246603488922, -0.8737638592720032, -0.5763580203056335, -0.7134640216827393, -0.4105106592178345, 0.16658735275268555, 0.2509366273880005], [-0.14581339061260223, 0.43046635389328003, 0.3489702343940735, 0.642672598361969, 0.2626148760318756, 0.7330577969551086, 0.2992287576198578, -0.7581661343574524, -0.4819593131542206, 0.5951875448226929, 0.2769523859024048, 0.3805490732192993, 0.3286997079849243, 0.07222975790500641, 0.2961219549179077, -0.3932267129421234, -0.39108341932296753, -0.8224606513977051, 0.6262908577919006, 0.1438256800174713, -0.46371304988861084, 0.09168607741594315, -0.8470878005027771, -0.6462916731834412, 1.0369020700454712, 0.05253462865948677, -1.242745280265808, 0.6251747012138367, -0.2121618688106537, 0.08110450953245163, 0.18893851339817047, -0.6674832105636597, 0.17495597898960114, -0.3886374831199646, -0.21613726019859314, 0.23067936301231384, -0.015871217474341393, -0.057477544993162155, -0.8264220952987671, 0.09745114296674728, -0.30356019735336304, 0.28076252341270447, -0.5498113036155701, -0.3756341338157654, -0.8727890849113464, -0.1029023677110672, -0.3202170431613922, 0.20510230958461761], [-0.07928541302680969, 0.2759791314601898, 0.19292420148849487, 0.5191973447799683, 0.00031781592406332493, 0.45065605640411377, 0.45781296491622925, -0.963991105556488, -0.3975127935409546, 0.35946300625801086, 0.4872731566429138, 0.1710781306028366, 0.14425702393054962, 0.027869023382663727, 0.5290728807449341, -0.16783306002616882, -0.36120176315307617, -0.5856595039367676, 0.2977661192417145, 0.18804781138896942, -0.4380441904067993, -0.19536571204662323, -0.5576949119567871, -0.8000345826148987, 0.8629399538040161, 0.2686138153076172, -1.2032654285430908, 0.3284227252006531, -0.027260256931185722, 0.0038984701968729496, -0.031723592430353165, -0.5183600187301636, 0.5347891449928284, -0.2235172837972641, -0.3566005825996399, -0.05367206037044525, 0.3676651418209076, 0.14834821224212646, -0.49173685908317566, -0.12399914860725403, -0.10597958415746689, 0.5483443737030029, -0.28345999121665955, -0.17482268810272217, -0.535693883895874, 0.12699027359485626, -0.9486621618270874, 0.25387927889823914], [0.31397074460983276, 0.20224501192569733, 0.0754438042640686, 0.30420204997062683, -0.13175423443317413, 0.1941060572862625, 0.5243385434150696, -0.5759886503219604, -0.32871249318122864, 0.1105940192937851, 1.02964448928833, -0.08221397548913956, -0.1326092630624771, 0.08233083784580231, 0.5446875095367432, -0.044971007853746414, -0.21576447784900665, -0.4852648675441742, 0.012327941134572029, 0.23430649936199188, -0.4397179186344147, -0.2646670639514923, -0.188120499253273, -0.5797380805015564, 0.49657735228538513, 0.2182941734790802, -0.5814984440803528, 0.027315489947795868, -0.09105204045772552, -0.04496554285287857, -0.3164607882499695, -0.24214665591716766, 0.5891886949539185, 0.026578465476632118, -0.33102893829345703, -0.34809795022010803, 0.6956385374069214, 0.20200835168361664, -0.23903639614582062, -0.3008565306663513, 0.1251111477613449, 0.5665994882583618, -0.14216333627700806, 0.013616801239550114, -0.22870232164859772, 0.2603653371334076, -1.3077632188796997, 0.3699328899383545], [0.5556038022041321, -0.08527453988790512, -0.1411908119916916, 0.17588022351264954, -0.39321330189704895, -0.11369296163320541, 0.25527146458625793, -0.191050186753273, -0.31093189120292664, -0.1218569427728653, 1.2028541564941406, -0.3018728196620941, -0.4366283416748047, 0.08730968832969666, 0.28491973876953125, 0.13779877126216888, -0.14427435398101807, -0.3015323877334595, -0.10366569459438324, -0.051515430212020874, -0.23198893666267395, -0.6987910270690918, 0.28944066166877747, -0.3539929986000061, 0.23110705614089966, 0.14500486850738525, -0.2139805555343628, -0.12118318676948547, -0.10419885814189911, 0.03008389100432396, -0.45262640714645386, 0.16217653453350067, 0.825738251209259, 0.11795549839735031, -0.393572598695755, -0.34308767318725586, 0.7112563848495483, 0.34744638204574585, -0.023746341466903687, -0.3010016977787018, 0.3464805781841278, 0.18577143549919128, 0.01117938943207264, 0.22488321363925934, -0.09440923482179642, 0.3671109676361084, -0.6402130722999573, 0.36443209648132324], [0.5193286538124084, -0.572736382484436, -0.7219220399856567, -0.04820936545729637, -0.5602092742919922, -0.13829495012760162, 0.026812082156538963, 0.21742737293243408, -0.09487095475196838, -0.24913813173770905, 0.37989136576652527, -0.4450908601284027, -0.8192946910858154, -0.040318265557289124, -0.10729063302278519, 0.48597779870033264, -0.1435292661190033, -0.07520556449890137, -0.21871502697467804, -0.11212287098169327, -0.24830247461795807, -0.41284626722335815, 0.3586105406284332, -0.05260688066482544, 0.025157339870929718, 0.1933337301015854, -0.018281113356351852, -0.1862335503101349, 0.09569285064935684, -0.13354891538619995, -0.6442469358444214, 0.21143659949302673, 0.4607490301132202, 0.2355090081691742, -0.3136705160140991, -0.37532415986061096, 0.18258368968963623, 0.5100334286689758, 0.287344366312027, -0.07349687069654465, 0.8069605827331543, 0.09577998518943787, 0.16045239567756653, 0.4242520034313202, 0.16617725789546967, 0.33117642998695374, 0.025241699069738388, 0.30768314003944397], [0.3125472664833069, -0.3501792848110199, -0.6619387269020081, -0.2688230574131012, -0.2545565962791443, -0.42600056529045105, -0.22777728736400604, 0.5203468203544617, 0.09445318579673767, -0.5958124995231628, 0.1722465455532074, -0.5876884460449219, -0.5726409554481506, -0.161324605345726, -0.6489296555519104, 0.6802490949630737, 0.032013267278671265, -0.06187823414802551, -0.3556707799434662, -0.5426156520843506, 0.0388278067111969, -0.2365192174911499, 0.20652250945568085, 0.19944606721401215, -0.014547323808073997, 0.01247323490679264, 0.2897702753543854, -0.38487622141838074, 0.28681862354278564, -0.685055673122406, -0.6609618663787842, 0.48961928486824036, 0.17445960640907288, 0.37523043155670166, 0.03085559420287609, -0.3753651976585388, -0.03569398820400238, 0.5079447627067566, 0.5777081847190857, -0.09106023609638214, 0.5729039311408997, -0.25995126366615295, 0.3142870366573334, 0.7475035190582275, 0.35464605689048767, 0.290295273065567, 0.4742889702320099, 0.11436272412538528], [0.05836423486471176, -0.02503153868019581, -0.17687182128429413, -0.6105152368545532, 0.31385156512260437, -0.719317615032196, -0.33908113837242126, 0.4294538199901581, 0.2826803922653198, -0.7372069954872131, -0.1421293467283249, -0.2142043262720108, -0.13234685361385345, -0.4544160068035126, -0.5341523289680481, 0.45969879627227783, 0.29271045327186584, 0.21653294563293457, -0.41915416717529297, -0.6779496669769287, 0.25136587023735046, 0.10435901582241058, 0.08234342187643051, 0.5056061148643494, -0.26302072405815125, 0.0441647469997406, 0.4922468960285187, -0.363222599029541, 0.5309014320373535, -0.8887507915496826, -0.39306342601776123, 0.664742112159729, -0.05956672877073288, 0.5095981955528259, 0.10594961792230606, -0.1424388885498047, -0.429834246635437, 0.29441574215888977, 0.8661324977874756, -0.2531367540359497, 0.19926196336746216, -0.4377519190311432, 0.6008985638618469, 0.6699669361114502, 0.6977699398994446, 0.3923206627368927, 0.7458799481391907, -0.27289000153541565], [-0.08559265732765198, 0.4165074825286865, 0.21988661587238312, -1.2114098072052002, 0.8918898701667786, -0.8644179701805115, -0.3700324296951294, -0.08913493901491165, 0.9370216131210327, -0.740362823009491, -0.24666093289852142, 0.18680113554000854, 0.46352747082710266, -0.927985429763794, 0.0455649197101593, 0.17032648622989655, 0.8002005815505981, 0.5209981799125671, -0.31367143988609314, -0.3574295938014984, 0.6194263100624084, 0.726121187210083, -0.057576775550842285, 1.0682421922683716, -0.39928048849105835, -0.14244335889816284, 0.38860252499580383, -0.21915456652641296, 1.0728697776794434, -1.2043312788009644, -0.21991586685180664, 0.5710050463676453, -0.1988414078950882, 0.6766343712806702, 0.28158968687057495, -0.05084240064024925, -0.8467739224433899, 0.012057199142873287, 0.8050926327705383, -0.45028766989707947, -0.45332586765289307, -0.1422557234764099, 0.9695653319358826, 0.19875019788742065, 1.0283308029174805, 0.5702841877937317, 0.6452339291572571, -0.9411003589630127]], "carry_table.carry_embed.weight": [[-0.31619107723236084, -0.3426426947116852, 0.26144036650657654, -0.08181042224168777, 0.05476927384734154, -0.08369740098714828, 9.93483408819884e-05, -0.006961822975426912, -0.11880867183208466, -0.3296247124671936, -0.16303882002830505, -0.25879591703414917, 0.04194209724664688, -0.13473017513751984, -0.15801583230495453, 0.09760968387126923, -0.03699531778693199, 0.3856281340122223, -0.301313191652298, 0.03049885295331478, -0.07689250260591507, 0.3174583613872528, -0.1278749257326126, -0.017358936369419098, 0.21163088083267212, -0.11451683938503265, -0.24606730043888092, 0.05999259278178215, 0.11008515954017639, 0.3599717617034912, 0.13476893305778503, -0.007620064076036215, -0.03268883004784584, -0.3562048077583313, 0.33772677183151245, 0.14524883031845093, -0.2425772249698639, 0.1947253793478012, 0.2515459656715393, -0.4069294035434723, -0.20014344155788422, 0.15942560136318207, -0.18143178522586823, -0.011803396046161652, 0.30188021063804626, 0.14364278316497803, -0.22735480964183807, -0.23994180560112], [0.23117658495903015, -0.05696473643183708, -0.013288763351738453, -0.3745276629924774, 0.4557701349258423, 0.14513665437698364, 0.3612799644470215, -0.5278393626213074, 0.3038448989391327, 0.15141569077968597, 0.22746773064136505, 0.09655565768480301, 0.5483248233795166, 0.33584290742874146, -0.26542988419532776, -0.0051145050674676895, -0.48223140835762024, -0.3838954567909241, -0.27027907967567444, -0.3008948862552643, 0.1614772379398346, -0.21020939946174622, 0.22507895529270172, -0.038090359419584274, 0.30205246806144714, 0.38262471556663513, 0.11545179039239883, 0.06568238139152527, -0.2418367564678192, -0.020129358395934105, -0.13368868827819824, -0.2688816785812378, -0.3439166843891144, 0.2348734587430954, -0.0683458223938942, 0.36351823806762695, 0.2778567969799042, -0.11775359511375427, -0.18679070472717285, 0.14331914484500885, 0.07666980475187302, 0.06628818064928055, 0.085825115442276, 0.15622249245643616, 0.20451132953166962, -0.30198433995246887, -0.18175551295280457, 0.049498051404953]], "carry_table.fc1.weight": [[-0.021977664902806282, -0.05577346682548523, 0.25380566716194153, 0.19299674034118652, -0.2780618667602539, -0.032350804656744, -0.13947762548923492, 0.15593135356903076, -0.0035063354298472404, -0.07417456805706024, -0.43745195865631104, -0.2573186457157135, -0.12839728593826294, 0.18988147377967834, -0.04215344786643982, -0.045764513313770294, 0.04169818013906479, 0.3123236298561096, -0.056550148874521255, 0.13649651408195496, 0.3272486627101898, -0.12015103548765182, 0.41807499527931213, 0.026050841435790062, -0.36673617362976074, 0.013734450563788414, 0.45887303352355957, -0.175051748752594, -0.30667081475257874, 0.43299347162246704, 0.2262396514415741, 0.09548109769821167, -0.09766896069049835, 0.07582475244998932, -0.025637859478592873, 0.11689132452011108, -0.07908368110656738, -0.15308287739753723, 0.1046009510755539, 0.09217482060194016, 0.15660102665424347, -0.351448118686676, -0.026008211076259613, -0.07620182633399963, 0.06524565070867538, -0.16532300412654877, 0.3635390102863312, 0.02965526282787323, -0.1259724646806717, -0.1425856351852417, -0.2506069839000702, 0.17645855247974396, -0.32617437839508057, 0.04593757912516594, -0.5473395586013794, 0.47271430492401123, -0.32973089814186096, 0.10718009620904922, -0.4033876359462738, -0.3209325671195984, -0.23623335361480713, 0.16450268030166626, -0.18348129093647003, 0.2575180232524872, 0.2284943163394928, 0.5535373687744141, -0.02759365551173687, -0.6029032468795776, 0.1962316632270813, -0.30347228050231934, 0.48147040605545044, -0.05316409841179848, -0.27797091007232666, -0.5486856698989868, 0.47262322902679443, -0.41175976395606995, -0.4146812856197357, 0.5773031711578369, -0.10842198878526688, 0.14438503980636597, -0.3574976921081543, -0.06805193424224854, 0.1749206781387329, 0.02970278076827526, -0.4768819212913513, 0.20061247050762177, 0.09842018038034439, 0.328890323638916, 0.1295187771320343, -0.6243763566017151, -0.055917877703905106, 0.20504431426525116, 0.013295118696987629, -0.1829339861869812, 0.10544570535421371, 0.19039754569530487, -0.053225159645080566, 0.4009222686290741, -0.16543656587600708, 0.46419233083724976, -0.43509581685066223, -0.254341185092926, -0.3511597514152527, 0.5945485830307007, -0.12997595965862274, 0.17000924050807953, -0.24635416269302368, -0.01841122657060623, -0.5881951451301575, -0.3015472888946533, 0.47518667578697205, 0.14377929270267487, 0.48422971367836, 0.19975747168064117, 0.47579246759414673, 0.44388291239738464, -0.29415518045425415, 0.10740584135055542, -0.4278586506843567, -0.1581069827079773, -0.4547232687473297, -0.5270090699195862, 0.21625536680221558, -0.16200357675552368, 0.2901226282119751, -0.3645261824131012, -0.14749975502490997, 0.4200538098812103, 0.41767045855522156, -0.010577759705483913, -0.28975576162338257, -0.5384036898612976, -0.16616947948932648, -0.13021089136600494, -0.18040098249912262, 0.2967892587184906, 0.34913524985313416, -0.4550275504589081, 0.19864699244499207, -0.15066567063331604, -0.5266223549842834, 0.27969852089881897, 0.4983339011669159, 0.12071529775857925], [0.11265935748815536, -0.0319674089550972, 0.24761338531970978, 0.042116522789001465, -0.26179587841033936, 0.07050351798534393, -0.09164232760667801, -0.05119169130921364, -0.017516139894723892, 0.1896265745162964, -0.1576249748468399, 0.03092294931411743, 0.0006538761081174016, 0.1476508229970932, -0.13385827839374542, 0.03710787370800972, 0.036475274711847305, 0.14466430246829987, 0.09220688790082932, 0.0638161152601242, 0.01107659749686718, -0.18621645867824554, 0.47260162234306335, -0.17349748313426971, -0.01046575978398323, -0.08850681781768799, 0.11079055070877075, -0.16794925928115845, -0.15664489567279816, 0.17093008756637573, 0.1420164257287979, 0.027981797233223915, 0.09318302571773529, -0.02191021852195263, -0.1325133889913559, 0.05511074140667915, 0.38093575835227966, -0.03582872450351715, -0.03188163787126541, 0.21110683679580688, 0.019887590780854225, -0.16926418244838715, -0.045757681131362915, -0.1609017252922058, -0.10176081955432892, -0.05333510413765907, -0.18527965247631073, -0.020909881219267845, 0.32427075505256653, -0.12141053378582001, -0.049444280564785004, 0.3385033905506134, -0.09008517116308212, 0.12318485975265503, 0.39423882961273193, -0.04111580550670624, 0.153999924659729, -0.09893874824047089, 0.15062735974788666, -0.2338937222957611, -0.34356674551963806, 0.3042919933795929, 0.13974079489707947, 0.12944987416267395, 0.18191517889499664, -0.18941240012645721, -0.05265737697482109, 0.11701040714979172, -0.2335144579410553, -0.1544092744588852, 0.369381844997406, -0.1258772909641266, -0.22276176512241364, -0.10293073207139969, 0.06736959517002106, -0.1664637327194214, -0.18848474323749542, 0.3872350752353668, -0.09684596210718155, 0.3119727671146393, -0.3405742645263672, 0.18903177976608276, 0.18878528475761414, 0.06252072751522064, 0.29924026131629944, -0.3020767271518707, 0.04525364190340042, 0.24429729580879211, 0.2781136929988861, -0.1227971687912941, 0.010304821655154228, -0.015028852969408035, 0.07832949608564377, -0.025655215606093407, -0.1405622661113739, -0.0852082297205925, 0.09940622001886368, 0.6178988814353943, -0.25765755772590637, 0.43577253818511963, -0.3179602026939392, 0.07281813025474548, -0.26406216621398926, 0.500381350517273, -0.026150548830628395, 0.16534844040870667, 0.2448868602514267, 0.3490971624851227, -0.5095083713531494, 0.2630195617675781, 0.4846288859844208, 0.031034134328365326, 0.43385306000709534, -0.25946205854415894, 0.4905388057231903, 0.37229230999946594, -0.03503372520208359, 0.09521689265966415, 0.0869707390666008, 0.010817475616931915, -0.39297041296958923, -0.04247079789638519, 0.19495508074760437, 0.11118531972169876, 0.05210162699222565, -0.2551563084125519, -0.3062238097190857, -0.017144566401839256, 0.29165294766426086, 0.08315026760101318, -0.3598431348800659, -0.607074499130249, 0.22069890797138214, -0.07844817638397217, -0.32421568036079407, 0.34192419052124023, 0.5204566121101379, -0.5354297757148743, 0.33082252740859985, 0.18299750983715057, -0.4535249173641205, 0.1651831716299057, 0.5492112636566162, 0.27732551097869873], [0.2101060152053833, -0.413262277841568, -0.24249306321144104, -0.0016323591116815805, -0.4421254098415375, -0.3045879006385803, -0.5300949811935425, 0.38452428579330444, -0.02707313559949398, -0.4911409616470337, -0.22081010043621063, -0.5638545155525208, -0.5932348966598511, -0.013208303600549698, -0.358957439661026, 0.6177278161048889, 0.14679069817066193, 0.19840514659881592, -0.3100081980228424, -0.46161872148513794, 0.13185444474220276, -0.315814346075058, 0.5431744456291199, 0.06389270722866058, -0.3880128860473633, 0.2132682502269745, 0.5141611099243164, -0.41639357805252075, -0.004899218212813139, -0.06160026416182518, -0.465395987033844, 0.5397799015045166, -0.009634765796363354, 0.26849979162216187, -0.1092638447880745, -0.20894479751586914, -0.0829811841249466, 0.44446617364883423, 0.20571531355381012, 0.03720267489552498, 0.4275009334087372, -0.27488991618156433, 0.229498952627182, 0.5995305776596069, 0.16457100212574005, 0.3087582290172577, 0.30408644676208496, 0.07123956084251404, -0.2466868758201599, -0.06529754400253296, -0.007807664107531309, -0.2927262485027313, 0.4066767990589142, 0.03419610485434532, -0.513166606426239, 0.20954683423042297, 0.45635414123535156, -0.02397925779223442, -0.5437053442001343, 0.09197435528039932, 0.37248942255973816, -0.447075217962265, -0.0018920429283753037, -0.14571605622768402, 0.5458434224128723, 0.38516920804977417, 0.0817505419254303, -0.3554700016975403, 0.41728028655052185, 0.7263884544372559, 0.02278224192559719, 0.23662777245044708, -0.19493256509304047, -0.18429233133792877, 0.08432364463806152, -0.020701443776488304, 0.0659879669547081, -0.16184905171394348, 0.38294512033462524, -0.03485921770334244, -0.5422351360321045, -0.05335145816206932, 0.3413168787956238, 0.33640149235725403, -0.592786967754364, -0.094393789768219, -0.0377119779586792, 0.09687886387109756, -0.4342338442802429, -0.345770001411438, -0.07242781668901443, -0.10008067637681961, 0.044520072638988495, -0.1575227975845337, 0.41462305188179016, -0.7392625212669373, 0.016142940148711205, 0.040349096059799194, 0.11178272217512131, 0.08706045150756836, -0.013791986741125584, -0.12201553583145142, -0.056753020733594894, 0.08173046261072159, 0.08464309573173523, -0.006764184217900038, -0.14306890964508057, -0.020987166091799736, -0.04190170764923096, -0.04988396167755127, 0.1835530698299408, 0.22330577671527863, -0.05632442235946655, -0.033563122153282166, 0.16008572280406952, 0.055969398468732834, -0.18587492406368256, -0.010945345275104046, 0.07255364954471588, 0.03059185855090618, -0.1302848607301712, 0.06582235544919968, 0.009121761657297611, -0.10023469477891922, -0.06353036314249039, -0.07912882417440414, -0.05904608592391014, 0.06947331875562668, 0.09420312941074371, 0.06127937138080597, 0.004032936878502369, 0.00944237969815731, 0.08029378205537796, 0.04977846145629883, -0.02670716680586338, 0.08339478075504303, 0.07825671881437302, 0.09102249890565872, 0.058148764073848724, -0.07981836050748825, -0.016343306750059128, -0.01564725488424301, 0.06700608879327774, -0.09000290930271149], [-0.08950342983007431, -0.15528589487075806, 0.17084938287734985, 0.19931450486183167, -0.25537756085395813, 0.3070037364959717, -0.32191231846809387, 0.058052465319633484, 0.0370747447013855, 0.33417677879333496, 0.02847745642066002, -0.3735390901565552, -0.2053881138563156, 0.05324173346161842, 0.21997684240341187, 0.04412800818681717, 0.18641290068626404, 0.007057480048388243, 0.34224414825439453, 0.12733060121536255, 0.006667591631412506, -0.2472429871559143, 0.302167147397995, -0.05865469202399254, -0.09669619798660278, 0.19882909953594208, -0.009917514398694038, -0.012228941544890404, -0.2262449562549591, 0.2577376067638397, 0.15500646829605103, -0.05826253816485405, -0.16678598523139954, -0.31594714522361755, -0.3456897735595703, 0.24278250336647034, 0.2073250263929367, -0.05905255675315857, -0.2553585171699524, 0.1989496499300003, 0.1704738885164261, -0.07471708208322525, -0.1574946939945221, -0.269305020570755, -0.09390272945165634, -0.09123985469341278, -0.12723679840564728, -0.007083273027092218, -0.04831717908382416, -0.12322680652141571, 0.06798959523439407, -0.06381990760564804, -0.5988408923149109, -0.030154947191476822, -0.17290760576725006, 0.25647029280662537, 0.049572207033634186, 0.057214491069316864, -0.3958132863044739, -0.20952674746513367, -0.19154755771160126, 0.5236949324607849, 0.008910329081118107, 0.2711806297302246, 0.02781793661415577, 0.3948948383331299, 0.11898821592330933, 0.06224094331264496, 0.36894506216049194, -0.05673077702522278, 0.61720210313797, -0.040301449596881866, -0.42280417680740356, 0.21786630153656006, 0.42912986874580383, -0.46664369106292725, -0.13854455947875977, 0.30965593457221985, 0.002336663194000721, 0.3053152561187744, -0.33548006415367126, 0.18349121510982513, -0.15851685404777527, -0.12290564179420471, 0.2027505785226822, 0.030318476259708405, -0.0915805995464325, 0.27047714591026306, 0.24085599184036255, -0.16369374096393585, 0.02753480337560177, 0.04616210237145424, -0.025367414578795433, -0.10863135755062103, -0.17313429713249207, -0.22946955263614655, 0.1513218879699707, 0.5888358354568481, -0.19917652010917664, 0.2895205616950989, -0.46461305022239685, -0.21080338954925537, -0.22876451909542084, 0.4993116855621338, 0.018638938665390015, 0.3421166241168976, 0.010357387363910675, 0.34559598565101624, -0.4657348096370697, -0.1620950996875763, 0.2573842704296112, 0.22360874712467194, 0.5646669864654541, -0.1999918520450592, 0.4646852910518646, 0.22541998326778412, -0.3200671970844269, -0.04029066860675812, -0.103458933532238, -0.03610840067267418, -0.24055613577365875, -0.20401139557361603, 0.1104307770729065, -0.056139517575502396, -0.07413696497678757, -0.45246008038520813, -0.18507370352745056, 0.13384734094142914, 0.3769276440143585, 0.16275955736637115, -0.21540597081184387, -0.5969997644424438, 0.06324204802513123, -0.1868172287940979, -0.22539062798023224, 0.17711037397384644, 0.5199009776115417, -0.5225081443786621, 0.1354023963212967, -0.07383785396814346, -0.4400266706943512, -0.01599269174039364, 0.41126638650894165, 0.19671404361724854], [0.1880548596382141, -0.7636677622795105, -0.5966854095458984, 0.10509954392910004, -0.6782945990562439, 0.24458040297031403, -0.5328617691993713, 0.6197967529296875, 0.05044176056981087, 0.08542500436306, -0.09123087674379349, -0.36749473214149475, -0.3536643087863922, 0.5809088349342346, -0.30908870697021484, 0.16295218467712402, -0.2070016711950302, 0.15606077015399933, -0.050187598913908005, 0.2303077131509781, -0.4253855049610138, 0.035314351320266724, 0.2150387167930603, -0.21736523509025574, -0.3100212812423706, -0.22929538786411285, 0.2975882291793823, -0.3273669183254242, -0.2491786926984787, 0.387780100107193, 0.17651942372322083, 0.0011631499510258436, -0.16370734572410583, -0.020123688504099846, 0.5297760963439941, 0.02849442884325981, 0.3480287194252014, 0.03510699421167374, 0.1352529376745224, 0.3859059810638428, 0.3267723619937897, 0.04048306867480278, -0.11034513264894485, -0.14078262448310852, -0.0032441760413348675, -0.4109446406364441, 0.4189108908176422, 0.40313470363616943, 0.27107861638069153, -0.700217068195343, -0.353674978017807, 0.18184693157672882, -0.7143139839172363, 0.12022295594215393, -0.14386536180973053, 0.5299220085144043, -0.235337495803833, -0.13627415895462036, 0.1820048689842224, -0.4086337983608246, -0.8177465200424194, 0.09987197071313858, -0.005676896311342716, 0.328731894493103, -0.37485623359680176, -0.004683210980147123, -0.26917052268981934, 0.26680392026901245, -0.6896348595619202, 0.029049957171082497, -0.16746872663497925, 0.027396196499466896, -0.07464659214019775, 0.10390003025531769, 0.15936888754367828, -0.293182373046875, 0.12305426597595215, 0.20144540071487427, -0.1821025162935257, 0.3280960023403168, 0.03982597216963768, 0.34577688574790955, -0.13514472544193268, -0.0494040884077549, 0.15321798622608185, 0.2600863575935364, 0.16211271286010742, 0.009642815217375755, 0.7409471273422241, 0.4026150107383728, 0.06524242460727692, 0.1588541716337204, 0.03131544962525368, -0.08204001933336258, 0.019667286425828934, 0.5533655285835266, -0.18021772801876068, 0.04800068214535713, -0.2935084104537964, 0.3604746460914612, -0.4467328190803528, -0.3671032190322876, -0.5203280448913574, 0.48094549775123596, -0.5999422669410706, -0.16368691623210907, -0.23973548412322998, 0.04144628345966339, -0.4990670680999756, -0.39946576952934265, 0.13245879113674164, 0.2515701949596405, 0.4467428922653198, 0.44452622532844543, 0.17063380777835846, 0.3433827757835388, -0.2626076936721802, 0.15073764324188232, -0.6713849306106567, -0.1950555443763733, -0.16226108372211456, -0.7058741450309753, -0.376203715801239, 0.12087445706129074, 0.2575151324272156, 0.04983648285269737, 0.4668540060520172, 0.0541185662150383, 0.3416137099266052, -0.22904472053050995, 0.2651788294315338, -0.25951603055000305, -0.32279855012893677, 0.048859383910894394, 0.12346906960010529, -0.33316048979759216, 0.01477906946092844, -0.08820746839046478, -0.13482166826725006, -0.03192126378417015, -0.14379745721817017, 0.39546751976013184, 0.1333197057247162, 0.07297738641500473], [0.047146767377853394, -0.30143335461616516, 0.2848409116268158, 0.11341214925050735, -0.16518349945545197, -0.18254564702510834, -0.1030731350183487, -0.08523251861333847, 0.0869356095790863, -0.04364444315433502, -0.08883009105920792, -0.18110069632530212, -0.29337215423583984, 0.06286705285310745, 0.17239399254322052, 0.07542607188224792, 0.23188374936580658, 0.13091672956943512, -0.012099087238311768, -0.08234106004238129, 0.1964731216430664, -0.12315567582845688, 0.23938405513763428, 0.1270526945590973, -0.3060704469680786, 0.22675731778144836, 0.14340372383594513, -0.06317069381475449, 0.024495014920830727, 0.22849524021148682, -0.15265890955924988, 0.25715702772140503, -0.014067660085856915, 0.05300420895218849, 0.09204172343015671, -0.07814422249794006, 0.10223587602376938, 0.09497237950563431, -0.11295762658119202, 0.011877940967679024, 0.24327363073825836, 0.10348443686962128, 0.13063472509384155, 0.03796884045004845, -0.11769382655620575, 0.13312497735023499, -0.18235182762145996, -0.11005529016256332, -0.17256267368793488, 0.09337618947029114, 0.1331489235162735, 0.08533992618322372, -0.2912765443325043, 0.23538976907730103, -0.06732659786939621, 0.0773545503616333, -0.025375496596097946, 0.36536794900894165, -0.40215593576431274, -0.0012375349178910255, 0.010044217109680176, 0.23834115266799927, 0.14647088944911957, 0.22803717851638794, 0.023932447656989098, 0.3428533375263214, 0.36499932408332825, -0.015586743131279945, 0.33468303084373474, -0.29296401143074036, 0.2366379052400589, -0.38535022735595703, 0.1303790658712387, 0.03275912255048752, 0.28662750124931335, -0.36419957876205444, -0.2932583689689636, 0.36828991770744324, -0.04230532795190811, 0.1713389754295349, 0.01329650916159153, 0.01952662505209446, -0.19358474016189575, -0.10078573226928711, 0.48666512966156006, 0.2531639337539673, -0.19652268290519714, 0.24506710469722748, -0.053316764533519745, 0.05935796722769737, -0.24273309111595154, -0.06482352316379547, -0.23785628378391266, -0.03247123211622238, -0.26175346970558167, -0.015818599611520767, -0.011602146551012993, 0.45190665125846863, 0.08854919672012329, 0.19357267022132874, -0.13326235115528107, -0.1539297252893448, -0.22626325488090515, 0.3536241054534912, -0.21950623393058777, 0.20755717158317566, -0.062441639602184296, 0.2939508259296417, -0.4359920620918274, -0.13052502274513245, 0.25092169642448425, 0.20526717603206635, 0.3577824831008911, 0.16165517270565033, 0.3456985354423523, 0.21324853599071503, -0.17054064571857452, 0.08348099887371063, -0.21253620088100433, 0.2108534872531891, -0.28884756565093994, -0.27122896909713745, 0.2289779633283615, -0.11674853414297104, 0.15466709434986115, -0.4350343346595764, -0.4653491973876953, 0.12788009643554688, 0.2039104849100113, 0.038952648639678955, -0.2447662204504013, -0.4459545910358429, -0.17813147604465485, 0.13989366590976715, -0.0662669837474823, 0.24368055164813995, 0.20340421795845032, -0.36636093258857727, 0.25197505950927734, -0.09571994096040726, -0.39358511567115784, 0.16650912165641785, 0.35169243812561035, -0.07690221816301346], [-0.07762972265481949, -0.06193043664097786, 0.10929003357887268, 0.4738233983516693, 0.01982673443853855, 0.6337061524391174, 0.07266364991664886, -0.13811129331588745, -0.42105230689048767, 0.485951691865921, 0.054026681929826736, 0.17957966029644012, 0.23894841969013214, 0.31030213832855225, 0.2361697554588318, -0.388958603143692, -0.355072557926178, -0.2611573338508606, 0.40735262632369995, 0.21244098246097565, -0.2432539016008377, 0.1505134552717209, -0.22169484198093414, -0.41537171602249146, 0.31695249676704407, -0.051334649324417114, -0.28917285799980164, 0.31709301471710205, -0.6251771450042725, 0.18682926893234253, 0.4236779808998108, -0.49858367443084717, -0.05691268667578697, -0.4940066635608673, -0.058979880064725876, 0.24171170592308044, 0.05189909413456917, -0.22551573812961578, -0.5489930510520935, 0.39702633023262024, -0.28222396969795227, 0.17773286998271942, -0.6171884536743164, -0.46480247378349304, -0.5391756892204285, -0.36916014552116394, -0.16392287611961365, 0.33914831280708313, 0.008600382134318352, 0.2544477880001068, 0.24729490280151367, 0.5023894309997559, -0.1631661355495453, 0.46821698546409607, 0.21477244794368744, -0.3928415775299072, -0.2745180130004883, 0.4252736568450928, 0.16104276478290558, 0.35315945744514465, 0.27459022402763367, 0.28187161684036255, 0.19827024638652802, -0.4572276473045349, -0.3550633490085602, -0.29055657982826233, 0.22809335589408875, 0.4528055489063263, -0.2685397267341614, -0.15604422986507416, -0.12345000356435776, -0.4140346646308899, 0.22711555659770966, 0.23412658274173737, -0.32898566126823425, 0.29842934012413025, -0.2903553247451782, 0.22164060175418854, 0.3511870801448822, -0.4740067422389984, 0.11277925968170166, -0.47986873984336853, -0.19995948672294617, 0.01427430659532547, 0.28570356965065, -0.224699929356575, -0.5932126045227051, -0.009373350068926811, -0.19427746534347534, 0.12662094831466675, -0.46518030762672424, -0.39439043402671814, -0.534714937210083, -0.3173627555370331, -0.490660697221756, 0.3020469546318054, -0.42469725012779236, -0.1302960067987442, 0.06678766757249832, -0.02425750158727169, -0.11676764488220215, -0.07646383345127106, -0.0657016932964325, 0.10819309204816818, -0.2900063693523407, -0.41530853509902954, -0.15779931843280792, -0.13350412249565125, -0.09709110110998154, -0.21749001741409302, -0.027715563774108887, 0.03513004630804062, 0.08864586055278778, 0.451582133769989, -0.08658836036920547, 0.11124279350042343, -0.040803149342536926, 0.4528352916240692, -0.19171901047229767, 0.10707473009824753, 0.015008954331278801, -0.19412119686603546, -0.18772804737091064, 0.04039466753602028, 0.26592329144477844, 0.28191328048706055, 0.13436222076416016, -0.0032312762923538685, 0.11155933886766434, -0.411228209733963, 0.23448041081428528, 0.05842650681734085, -0.341006338596344, 0.21103724837303162, 0.42399969696998596, -0.32305413484573364, -0.1618511825799942, 0.03347308561205864, -0.10111025720834732, 0.015300685539841652, 0.07637174427509308, 0.27366262674331665, -0.05960899591445923, -0.18617402017116547], [0.10352089256048203, 0.022620365023612976, 0.16884954273700714, 0.30987125635147095, -0.2486032396554947, -0.12288767099380493, 0.09104320406913757, 0.2143542319536209, 0.10809909552335739, -0.025977162644267082, -0.4790027439594269, 0.03977225348353386, -0.005395123735070229, 0.48770585656166077, 0.16925650835037231, -0.1169564351439476, -0.15646590292453766, 0.24959425628185272, -0.11868911981582642, 0.43375521898269653, 0.37163010239601135, 0.17982117831707, 0.5657584071159363, 0.0734286680817604, -0.29960915446281433, 0.6685575842857361, 0.35611897706985474, 0.006118553224951029, -0.04007824510335922, 0.3678317666053772, 0.4716349244117737, 0.2750970423221588, -0.3344957232475281, 0.1690843552350998, -0.5242727994918823, 0.09799370169639587, 0.5401033759117126, -0.17017531394958496, -0.027294784784317017, -0.07685521245002747, -0.239035964012146, -0.028570648282766342, -0.17199160158634186, 0.024257684126496315, -0.3495977818965912, -0.4207896292209625, -0.05385974794626236, -0.13445249199867249, -0.2100798636674881, -0.13105572760105133, 0.12466670572757721, 0.11289533227682114, -0.30294305086135864, -0.03046274557709694, 0.11964040994644165, 0.1456231325864792, -0.10675182193517685, 0.08151548355817795, -0.053778111934661865, -0.12289941310882568, -0.02593807876110077, 0.08819887787103653, 0.17834533751010895, 0.08935978263616562, -0.07804220169782639, 0.2746989130973816, -0.03615022450685501, 0.19325485825538635, -0.0043090167455375195, -0.21708433330059052, 0.2092517465353012, -0.22154393792152405, -0.06865501403808594, 0.07945192605257034, 0.2635974884033203, -0.1432398110628128, -0.0037420974113047123, 0.5167528986930847, 0.14078576862812042, 0.14407017827033997, -0.12181764841079712, 0.1837439239025116, -0.12455533444881439, 0.032846011221408844, 0.14655746519565582, 0.17997507750988007, 0.02470293641090393, 0.014510469511151314, -0.1602456122636795, 0.10863251239061356, -0.20717747509479523, 0.04309609904885292, -0.09604857861995697, -0.13329406082630157, -0.2765462100505829, -0.07976005971431732, -0.08752306550741196, 0.47426143288612366, -0.3716856837272644, 0.4085928201675415, -0.45166873931884766, -0.3509758412837982, -0.30288586020469666, 0.36666303873062134, 0.22198311984539032, -0.05683503672480583, 0.08892381936311722, 0.22863943874835968, -0.36576032638549805, -0.011077511124312878, 0.11906982958316803, 0.15731145441532135, 0.475873202085495, -0.4123595952987671, 0.41598859429359436, -0.05057006701827049, -0.3180880546569824, 0.0015035796677693725, -0.2631399631500244, -0.4615921974182129, -0.04941694810986519, -0.25347957015037537, -0.09959641844034195, -0.05330679938197136, -0.06837352365255356, -0.033494461327791214, 0.02206580527126789, 0.07813460379838943, 0.28935927152633667, 0.04689569026231766, -0.06851768493652344, -0.3850610852241516, 0.2891899049282074, -0.5061932802200317, -0.21528810262680054, -0.0006189584382809699, 0.4902157783508301, -0.4926438629627228, 0.16981109976768494, -0.016240907832980156, -0.16407731175422668, 0.03651917353272438, 0.2985011637210846, 0.5305202007293701], [0.6993399262428284, -0.5634294748306274, -0.4250430762767792, 0.042909350246191025, -0.9132837057113647, -0.37781137228012085, -0.004538766574114561, 0.4183519184589386, -0.24259372055530548, -0.2551359534263611, 0.05287593975663185, -0.7988808751106262, -0.9004965424537659, 0.3014076054096222, -0.027201812714338303, 0.6182088255882263, -0.2780844271183014, 0.24061524868011475, -0.6211349368095398, 0.067506805062294, -0.1468670517206192, -0.5489205718040466, 0.7278817296028137, -0.06297167390584946, -0.3840911090373993, 0.33231061697006226, 0.4082852900028229, -0.8635475039482117, -0.05106526240706444, 0.17203256487846375, -0.6243592500686646, 0.5750502943992615, 0.2705729603767395, 0.40528807044029236, -0.695245623588562, -0.675442099571228, 0.6603293418884277, 0.6314917802810669, 0.24014055728912354, -0.1426207274198532, 0.8082525730133057, -0.03778859227895737, 0.203791543841362, 0.6252129673957825, 0.04609335586428642, 0.21298335492610931, 0.10559466481208801, 0.3665674924850464, -0.3431427478790283, -0.30962806940078735, -0.37659186124801636, -0.4074397385120392, 0.029445549473166466, -0.16195937991142273, -0.6065216660499573, 1.0487699508666992, 0.34518536925315857, -0.12546391785144806, -0.7387663125991821, -0.2259773463010788, -0.03481582924723625, -0.30112507939338684, -0.6747562885284424, 0.6439198851585388, 0.3061915934085846, 0.5663909912109375, -0.13224638998508453, -0.34186363220214844, 0.3913151025772095, 0.11708292365074158, 0.09700450301170349, 0.1371191293001175, -0.5959864258766174, -0.217725470662117, 1.153145670890808, -0.36286479234695435, 0.17707297205924988, -0.1308007687330246, 0.01782395876944065, 0.4705084562301636, -0.7820842266082764, 0.18410304188728333, 0.39558878540992737, 0.37923020124435425, -0.33071503043174744, 0.23615023493766785, 0.6457684636116028, 0.21158452332019806, 0.10714443027973175, -0.7075352072715759, 0.24952690303325653, 0.2981787621974945, 0.5132943987846375, -0.10177738964557648, 0.607240617275238, -0.36296728253364563, -0.5746955871582031, -0.11146560311317444, 0.143281027674675, 0.367204487323761, -0.26433226466178894, -0.2599850594997406, -0.5411617755889893, 0.6473727226257324, -0.6482779383659363, -0.3912692964076996, -0.36318689584732056, -0.15598389506340027, -0.5078223347663879, -0.631167471408844, 0.18197651207447052, 0.017313921824097633, 0.3658001720905304, 0.6670607328414917, 0.19786453247070312, 0.42015039920806885, -0.27604278922080994, 0.633837103843689, -0.49428731203079224, 0.23780839145183563, -0.2507320046424866, -0.629166305065155, -0.1278037577867508, 0.09115820378065109, 0.8101765513420105, 0.14350920915603638, -0.04646439105272293, 0.2498871088027954, 0.5207271575927734, -0.633626401424408, 0.08387784659862518, -0.19269010424613953, -0.5157099962234497, 0.3380184769630432, 0.5793758034706116, -0.16184765100479126, -0.21869947016239166, 0.1045362651348114, -0.045634690672159195, 0.0199006088078022, -0.23516280949115753, 0.746025025844574, 0.26241374015808105, -0.2814415991306305], [-0.23737701773643494, -0.1033484935760498, -0.03416223078966141, 0.12431325018405914, -0.2566480338573456, -0.011706193909049034, -0.10832598805427551, 0.19358889758586884, 0.007697111926972866, 0.0316656269133091, -0.24174809455871582, -0.1519487202167511, -0.2189788669347763, 0.12029857188463211, 0.25665727257728577, 0.0688631534576416, 0.09230555593967438, 0.07389441132545471, 0.028236135840415955, 0.12243276834487915, 0.0913781002163887, 0.07852595299482346, 0.5879514813423157, -0.2317528873682022, 0.0077951205894351006, 0.08315562456846237, 0.11310835927724838, -0.2380732148885727, -0.1598549783229828, 0.37981754541397095, 0.08980315923690796, 0.2798742949962616, -0.2622966170310974, 0.19577805697917938, 0.044458676129579544, 0.26073727011680603, 0.1306312531232834, 0.10502507537603378, 0.11903494596481323, -0.026813102886080742, -0.02331586182117462, -0.055015455931425095, 0.027743544429540634, -0.10588265210390091, 0.02220875769853592, -0.01523006334900856, -0.09921905398368835, -0.18575620651245117, -0.15739771723747253, -0.02287762425839901, -0.07230330258607864, 0.06136539205908775, -0.2965126037597656, 0.03867119923233986, -0.29288285970687866, 0.09267813712358475, 0.31180939078330994, 0.10274548828601837, -0.3114186227321625, -0.22914013266563416, -0.20069032907485962, -0.07410666346549988, -0.015864171087741852, 0.053451500833034515, 0.28426048159599304, 0.412308007478714, -0.010859190486371517, -0.03199180215597153, 0.40050530433654785, -0.15115420520305634, 0.4571755826473236, -0.020510265603661537, -0.5981709361076355, -0.04444998502731323, 0.3046855926513672, -0.396270215511322, -0.15302853286266327, 0.23970666527748108, 0.11550788581371307, 0.08081623911857605, -0.18906499445438385, 0.04402224346995354, -0.050567369908094406, 0.0078084589913487434, -0.016279663890600204, 0.16421598196029663, 0.05526626855134964, 0.17623163759708405, -0.05960817635059357, -0.003668334800750017, 0.02979811653494835, -0.06841422617435455, 0.059184931218624115, -0.11890697479248047, -0.007340553216636181, -0.23658527433872223, -0.09903360903263092, 0.3754485547542572, -0.03134731948375702, 0.27480801939964294, -0.35440295934677124, -0.19571292400360107, -0.37412557005882263, 0.2784550189971924, -0.18942658603191376, 0.13765957951545715, -0.17624600231647491, 0.060306139290332794, -0.3933291435241699, -0.2116469442844391, 0.2282266616821289, 0.1813373565673828, 0.38693442940711975, -0.04476366937160492, 0.25858694314956665, 0.258493036031723, -0.271846204996109, 0.10472392290830612, -0.19239693880081177, 0.09430733323097229, -0.28819480538368225, -0.20321211218833923, 0.23703108727931976, -0.21570336818695068, 0.21775880455970764, -0.15966276824474335, -0.08298039436340332, 0.18419545888900757, 0.4838946461677551, -0.16171449422836304, -0.2784997224807739, -0.3496135175228119, -0.06315866857767105, -0.0922832265496254, -0.2675696313381195, 0.18392544984817505, 0.37368953227996826, -0.3888914883136749, 0.2885052561759949, -0.22196422517299652, -0.3415091931819916, 0.33976951241493225, 0.33893874287605286, 0.11065909266471863], [-0.11221189796924591, -0.014773705042898655, 0.3267488181591034, 0.3208564519882202, -0.2347494214773178, 0.1667928695678711, 0.25807496905326843, 0.17854489386081696, -0.019909417256712914, 0.18734903633594513, -0.42669546604156494, 0.15139739215373993, 0.29497024416923523, 0.48984643816947937, -0.08278313279151917, -0.26186618208885193, -0.3665142059326172, 0.0542420893907547, -0.08657587319612503, 0.582962691783905, 0.03618217259645462, 0.016762297600507736, 0.2454041838645935, -0.0024374190252274275, -0.15373219549655914, 0.15917155146598816, 0.11390455067157745, 0.1564921885728836, -0.31161633133888245, 0.5557160377502441, 0.7790329456329346, -0.18689978122711182, -0.43040311336517334, -0.386027067899704, -0.0561164915561676, 0.13084954023361206, 0.08146259188652039, -0.5313076376914978, -0.10424444079399109, 0.30049970746040344, -0.2550945580005646, -0.2577267587184906, -0.2532324492931366, -0.38255369663238525, -0.1694789081811905, -0.6143563389778137, 0.17306672036647797, 0.22788746654987335, -0.37477004528045654, -0.02545837126672268, 0.5992540121078491, 0.5239065885543823, 0.003918951377272606, 0.1759672909975052, -0.14460736513137817, 0.1350378692150116, -0.23876450955867767, 0.2805390954017639, -0.7150485515594482, 0.22966918349266052, 0.26491013169288635, 0.5964075326919556, 0.031894393265247345, -0.20672960579395294, -0.21479232609272003, 0.286040335893631, 0.18334929645061493, 0.4148549437522888, 0.13521121442317963, -0.16248127818107605, 0.3334144949913025, -0.08192351460456848, -0.2811373770236969, 0.14309756457805634, 0.2113187313079834, 0.13237640261650085, -0.3597865402698517, 1.0527184009552002, 0.576831042766571, -0.033784154802560806, -0.22924789786338806, -0.3898108899593353, 0.06441666185855865, 0.46642863750457764, 0.0005798119236715138, -0.25320953130722046, -0.29405683279037476, 0.4156878888607025, -0.29139620065689087, 0.017469212412834167, -0.30871909856796265, -0.3957293629646301, -0.3524467647075653, -0.5468224883079529, 0.017628991976380348, -0.052955660969018936, -0.2116168588399887, 0.2668777406215668, -0.11708386987447739, 0.7654880881309509, -0.7787374258041382, -0.41753295063972473, -0.80585116147995, 1.2394696474075317, -0.8360797166824341, 0.014075182378292084, -0.4903401732444763, -0.056666456162929535, -1.0558546781539917, -0.8959673643112183, 0.6347538232803345, -0.048886556178331375, 0.9209815859794617, 0.7824099063873291, 0.5509626269340515, 0.8650116920471191, -0.5493654012680054, 0.07458633184432983, -0.5431287884712219, -0.038242172449827194, -0.684977114200592, -0.9755495190620422, -0.07080791890621185, -0.2071293294429779, 0.662906289100647, -0.4012565314769745, 0.21977676451206207, 0.8219917416572571, 0.8133589625358582, -0.1335587054491043, -0.0760011300444603, -0.7734068632125854, -0.6278760433197021, 0.058836255222558975, 0.23043783009052277, 0.02645498886704445, 0.04816426709294319, -0.25346609950065613, -0.09507428854703903, -0.3069000542163849, -0.5558474063873291, 0.8265600204467773, 0.4847310781478882, 0.04996022954583168], [0.2164115309715271, -0.10652811825275421, -0.023731855675578117, 0.4643949866294861, -0.12787331640720367, 0.3616061210632324, 0.2958255112171173, -0.041404008865356445, -0.39770710468292236, 0.19066010415554047, 0.38835522532463074, 0.0632455125451088, -0.014284994453191757, 0.3555294871330261, 0.042387139052152634, -0.11356280744075775, -0.2814173400402069, -0.39492547512054443, 0.19131781160831451, 0.20337961614131927, -0.25804266333580017, -0.2904057204723358, 0.009099186398088932, -0.37275272607803345, 0.2718523144721985, 0.13257192075252533, -0.1890520453453064, 0.16659389436244965, -0.42478853464126587, 0.07618545740842819, 0.06471111625432968, -0.26860311627388, 0.28879567980766296, -0.39396780729293823, -0.08815746754407883, -0.1248338520526886, 0.460891991853714, -0.07273174077272415, -0.4306568205356598, 0.11784062534570694, 0.2147594541311264, 0.23231665790081024, -0.5190930366516113, -0.031977150589227676, -0.4518470764160156, -0.1613388955593109, -0.17451262474060059, 0.36322084069252014, 0.05103616416454315, 0.3100578784942627, 0.32656365633010864, 0.6549943685531616, 0.3573032021522522, 0.34194308519363403, 0.36742469668388367, -0.3207646608352661, -0.4345378577709198, 0.3536278009414673, 0.289204478263855, 0.4242938458919525, 0.40426141023635864, 0.3350489139556885, 0.039126623421907425, -0.5297945737838745, -0.3789677321910858, -0.46399906277656555, 0.3918660879135132, 0.010199278593063354, -0.08178240805864334, -0.07242077589035034, 0.023981818929314613, -0.3827931582927704, 0.37045133113861084, -0.1744183748960495, -0.32297465205192566, 0.4715506136417389, -0.6117492914199829, 0.31000015139579773, 0.4917619824409485, -0.3677566945552826, 0.08941861987113953, -0.6216581463813782, 0.366545170545578, 0.3394853472709656, 0.005626161117106676, -0.4473286271095276, -0.6071200966835022, 0.26197659969329834, -0.428288072347641, -0.018092142418026924, -0.6134693026542664, -0.3620460331439972, -0.6096072793006897, -0.39731717109680176, -0.2688734829425812, 0.24683913588523865, -0.25017571449279785, -0.12054629623889923, 0.18716278672218323, -0.07736153155565262, -0.04268188774585724, -0.0143533144146204, 0.003395224455744028, -0.011376028880476952, -0.04527965188026428, -0.202132448554039, -0.05780288577079773, -0.16806332767009735, 0.05451075732707977, -0.04292229935526848, -0.15724024176597595, 0.028064096346497536, -0.01035995688289404, 0.1530158817768097, -0.13141323626041412, -0.0874224305152893, 0.003419118467718363, 0.2922138273715973, 0.02817889302968979, 0.02801802195608616, 0.14777840673923492, -0.017902472987771034, -0.15919272601604462, 0.02132987603545189, 0.014422308653593063, 0.23191308975219727, 0.05132714658975601, -0.0693732425570488, 0.03227759152650833, -0.2700812816619873, 0.23767022788524628, 0.04173851013183594, -0.12121593952178955, 0.09390302747488022, 0.14970959722995758, -0.2281862199306488, -0.1357979029417038, 0.08810630440711975, 0.02345181629061699, 0.02382323332130909, 0.14636822044849396, 0.11339610815048218, -0.09652912616729736, -0.1055992841720581], [-0.5750815272331238, 0.09930474311113358, 0.41200026869773865, -0.4261547923088074, 0.296467125415802, -0.20865246653556824, -0.5227537155151367, 0.11457494646310806, 0.5148939490318298, -0.051321547478437424, -0.6935726404190063, 0.07329843193292618, 0.11902318149805069, -0.17147687077522278, 0.4241209626197815, -0.03805113583803177, 0.5937273502349854, 0.6139297485351562, -0.09141019731760025, -0.12038739025592804, 0.6065394878387451, 0.3054825961589813, 0.28112393617630005, 0.3546465039253235, -0.4827060401439667, 0.1271096020936966, 0.5109611749649048, -0.32725831866264343, 0.14359620213508606, 0.0727769061923027, 0.08054840564727783, 0.17465302348136902, -0.4584161639213562, 0.1789468228816986, 0.10047364979982376, -0.17573703825473785, -0.001595590147189796, -0.0653969943523407, 0.2185671627521515, -0.09768809378147125, -0.2879667580127716, 0.36795181035995483, 0.35439997911453247, -0.09486061334609985, 0.3641798794269562, 0.12805911898612976, 0.06267520040273666, -0.4702044129371643, 0.43968918919563293, -0.7711050510406494, -0.6181983351707458, 0.24805736541748047, -0.984512209892273, -0.1767812967300415, 0.2233710139989853, 0.756048858165741, -0.4750552177429199, -0.3280460238456726, 0.10809850692749023, -0.7318734526634216, -0.8703528046607971, 0.5446796417236328, -0.5952982902526855, 0.8387225270271301, -0.4910041093826294, -0.11270813643932343, -0.5004559755325317, 0.05727551877498627, -0.333166241645813, -0.46382543444633484, 0.5902904868125916, -0.21340824663639069, -0.04931189864873886, -0.1380842924118042, 0.518563449382782, -0.8732618689537048, -0.1785673052072525, 0.26173511147499084, -0.3377991020679474, 0.5511959791183472, 0.24933655560016632, 0.150557279586792, -0.10193238407373428, -0.4221167266368866, 0.7188174724578857, 0.3142745792865753, 0.2739144563674927, 0.08459693938493729, 0.8106854557991028, -0.08649163693189621, -0.08577696233987808, 0.566210925579071, 0.02004193514585495, -0.12390704452991486, -0.08403079211711884, 0.5987000465393066, 0.448963463306427, 0.6336585283279419, -0.5388140082359314, 0.36791205406188965, -0.30338701605796814, -0.006164150778204203, -0.44463539123535156, 0.264039546251297, 0.26841920614242554, 0.44362106919288635, 0.14080816507339478, 0.5221700668334961, -0.3540778160095215, -0.07705928385257721, 0.3581477403640747, -0.4799977242946625, 0.32003578543663025, -0.25243106484413147, 0.5263286828994751, -0.09698044508695602, -0.1148260161280632, -0.3291788101196289, 0.21104146540164948, -0.37019291520118713, -0.37574049830436707, -0.09974224120378494, -0.04726974293589592, -0.06467742472887039, -0.2945685088634491, -0.5638657808303833, -0.1369141787290573, 0.2366776317358017, 0.4434632658958435, 0.2942863702774048, -0.42998096346855164, -0.47578051686286926, 0.32186344265937805, -0.42305120825767517, -0.26143601536750793, 0.31790855526924133, 0.4234287440776825, -0.31852149963378906, 0.5675562620162964, 0.0343155562877655, -0.4048520028591156, 0.18898938596248627, 0.441164493560791, 0.5129051208496094], [0.36042582988739014, -0.037848230451345444, -0.02289764955639839, 0.5052454471588135, -0.6109878420829773, 0.23642447590827942, 0.21920564770698547, -0.3449859917163849, -0.4354030191898346, 0.03145384415984154, 0.428907573223114, -0.32258841395378113, -0.5553640127182007, 0.16751372814178467, 0.19401724636554718, 0.3065051734447479, -0.36033037304878235, -0.27417653799057007, 0.1121237501502037, -0.12030471861362457, -0.13258463144302368, -0.5798352956771851, 0.12743373215198517, -0.631550669670105, 0.42892706394195557, 0.45836007595062256, -0.4202096164226532, -0.08364862203598022, -0.18121379613876343, 0.1340305358171463, -0.5882940888404846, -0.052809517830610275, 0.6769943237304688, 0.10601621121168137, -0.9076519012451172, -0.37656068801879883, 0.6946688890457153, 0.6575842499732971, -0.3337633013725281, -0.3152945041656494, 0.36028343439102173, 0.40174010396003723, -0.18860192596912384, 0.2455228716135025, -0.5159382820129395, 0.5214947462081909, -0.7179219126701355, 0.33880987763404846, -0.2984272241592407, 0.39056843519210815, 0.3487143814563751, 0.5625671744346619, 0.4394844174385071, 0.5939117670059204, 0.07549171149730682, -0.14543269574642181, -0.36231088638305664, 0.6780983805656433, -0.09582033008337021, 0.2777150869369507, 0.5519406795501709, 0.2754373252391815, 0.36999210715293884, -0.7043504118919373, -0.05133452266454697, -0.12566645443439484, 0.39678505063056946, 0.030850710347294807, -0.1782582700252533, 0.18687023222446442, -0.11664826422929764, -0.45628616213798523, 0.27567926049232483, -0.22209936380386353, -0.29867446422576904, 0.40419477224349976, -0.6209716796875, 0.5753529071807861, 0.6546645164489746, -0.5966377258300781, -0.19527579843997955, -0.6256899237632751, 0.4262489080429077, 0.3881594240665436, -0.25983864068984985, -0.358884334564209, -0.6254723072052002, 0.3102332651615143, -0.6197693943977356, -0.07564833015203476, -0.5885209441184998, -0.5800653100013733, -0.586605429649353, -0.4832254946231842, -0.24422195553779602, 0.1393660455942154, -0.36861833930015564, -0.1177588701248169, -0.00026552987401373684, 0.12869003415107727, -0.04660730063915253, -0.12161548435688019, -0.20512880384922028, 0.11872678995132446, -0.1711731255054474, -0.3570000231266022, 0.08280398696660995, 0.04864794388413429, -0.1760600209236145, -0.04074613377451897, -0.023557759821414948, 0.06287093460559845, 0.11506391316652298, 0.20656737685203552, 0.05850912258028984, 0.12511961162090302, -0.0343158133327961, 0.328531950712204, -0.33341896533966064, 0.07724250108003616, 0.00976315513253212, -0.2521432638168335, -0.03153656795620918, 0.11347360908985138, 0.2464844435453415, 0.31207868456840515, -0.1781974583864212, -0.19166304171085358, 0.12789277732372284, -0.3257955014705658, 0.002463491866365075, -0.0685504749417305, -0.15415740013122559, 0.12769198417663574, 0.3282015323638916, -0.07580769807100296, -0.047862324863672256, 0.016584735363721848, 0.11793001741170883, 0.12482868134975433, -0.046817123889923096, 0.238359734416008, 0.05546968802809715, -0.08272308111190796], [0.6619246006011963, -0.3344508111476898, -0.393240749835968, 0.28095152974128723, -0.7333448529243469, -0.2153553068637848, 0.08491666615009308, 0.39458027482032776, -0.16073305904865265, -0.4028870463371277, 0.3576792776584625, -0.877031147480011, -0.8806562423706055, 0.09372065961360931, -0.07938528060913086, 0.4863656759262085, -0.15310551226139069, -0.06309912353754044, -0.49377259612083435, -0.19947603344917297, -0.24074184894561768, -0.7334811091423035, 0.5053051710128784, -0.15056109428405762, -0.05788571760058403, 0.26835402846336365, 0.19679532945156097, -0.46994078159332275, -0.17965668439865112, 0.032750990241765976, -0.5283783078193665, 0.3466528356075287, 0.09974708408117294, 0.22308936715126038, -0.43213582038879395, -0.5865895748138428, 0.251248836517334, 0.6603250503540039, 0.05894980952143669, -0.14921146631240845, 0.7890999913215637, 0.0965496376156807, 0.06842904537916183, 0.6486276388168335, -0.010364959947764874, 0.36077702045440674, -0.25627219676971436, 0.39645615220069885, 0.26475203037261963, 0.1718178391456604, -0.025553055107593536, 0.5395132899284363, -0.37031495571136475, 0.14934290945529938, 0.32018062472343445, -0.27816829085350037, -0.3459310829639435, 0.2288375347852707, 0.4079108238220215, -0.36237290501594543, -0.5172982215881348, 0.0014358953339979053, 0.6566852331161499, -0.03798967972397804, -0.0441318079829216, 0.031142551451921463, -0.10920462012290955, 0.21410903334617615, -0.4168696105480194, -0.5921911001205444, 0.1664239913225174, -0.5722889304161072, 0.095325767993927, 0.386081725358963, -0.2881530523300171, 0.011614066548645496, -0.36999064683914185, 0.22975297272205353, -0.37782979011535645, -0.16839748620986938, 0.21180309355258942, -0.04849235713481903, -0.5258223414421082, -0.5749499797821045, 0.43867412209510803, 0.5201457738876343, -0.4615158438682556, -0.45174428820610046, 0.30136460065841675, 0.5181916952133179, -0.23720388114452362, 0.20494993031024933, -0.3933838903903961, 0.6418443918228149, -0.7762011885643005, 0.31297919154167175, -0.43337327241897583, -0.0755893662571907, 0.05777411162853241, 0.252377450466156, -0.06269136816263199, -0.4811784327030182, -0.1570710688829422, 0.25469228625297546, -0.3494599461555481, -0.32417798042297363, -0.1577894538640976, -0.08633577078580856, -0.23886947333812714, -0.23959337174892426, 0.08520447462797165, 0.4800252318382263, 0.14501634240150452, 0.23117445409297943, 0.10959911346435547, 0.1181509867310524, -0.3730679452419281, 0.29514873027801514, -0.5005607008934021, 0.10944534093141556, -0.04531271010637283, -0.4585675299167633, 0.009816148318350315, -0.042563460767269135, 0.38374966382980347, 0.28041818737983704, 0.14511054754257202, -0.06789228320121765, 0.18426842987537384, -0.44274523854255676, -0.03909114748239517, -0.09614628553390503, -0.1642082780599594, 0.1589619219303131, 0.46640896797180176, -0.08646273612976074, -0.10268792510032654, 0.15567953884601593, 0.07470805943012238, -0.09204521775245667, 0.07611334323883057, 0.31104567646980286, 0.06495532393455505, -0.1602436602115631], [0.9198236465454102, -0.6885393261909485, -0.5632449388504028, 0.24749332666397095, -0.6152145266532898, -0.4485366940498352, 0.5106416344642639, 0.18533305823802948, -0.5345025062561035, -0.4323931634426117, 0.8825725317001343, -0.602370023727417, -0.727435290813446, 0.5360801815986633, 0.7240321636199951, 0.2597632110118866, -0.4492011070251465, 0.131087526679039, -0.4465938210487366, 0.20028923451900482, -0.18834756314754486, -0.7316200137138367, 0.9350241422653198, -0.5166861414909363, -0.43357834219932556, 0.16277873516082764, 0.3787064850330353, -0.37569302320480347, -0.21227237582206726, 0.5567609071731567, -0.4205986559391022, 0.4589003026485443, 0.7761993408203125, 0.18199694156646729, -0.4793443977832794, -0.5368672013282776, 0.787350058555603, 0.3212042450904846, 0.2235202193260193, -0.23598183691501617, 0.7504010796546936, 0.7042824029922485, 0.1822618991136551, 0.3991627097129822, 0.14989401400089264, 0.1878136396408081, -0.9179713129997253, 1.027692437171936, -0.71727454662323, -0.05101102963089943, 0.2559492886066437, -0.16658489406108856, 0.1954709142446518, 0.40756726264953613, -0.6023356318473816, 0.2952522933483124, 0.3256836235523224, 0.4850420355796814, -0.9948606491088867, 0.39386942982673645, 0.48105233907699585, 0.17573846876621246, 0.003559171687811613, -0.6134750247001648, 0.32705432176589966, 0.23475342988967896, 1.4228849411010742, 0.19176329672336578, 0.17974811792373657, 0.4548654556274414, -0.376823365688324, 0.11937561631202698, 0.0687532126903534, 0.05292768031358719, -0.12813054025173187, 0.46212702989578247, -0.06185973435640335, 0.013429268263280392, 0.6994898319244385, -0.36545318365097046, -0.7271144390106201, -0.1370532363653183, 0.34175437688827515, 0.9752300381660461, -0.18328222632408142, -0.39549046754837036, -0.3843868374824524, 0.5594994425773621, -0.39526015520095825, -0.2360750138759613, -0.22215226292610168, -0.8571859002113342, -0.13885831832885742, -0.3500257730484009, 0.5610873699188232, -0.4984329044818878, 0.1772918403148651, 0.39325109124183655, -0.2674219608306885, 0.4533519148826599, -0.3956352472305298, -0.547188401222229, 0.06307049840688705, 0.42498907446861267, 0.18834605813026428, 0.06682377308607101, -0.37041720747947693, 0.1684185117483139, -0.3012735843658447, -0.3967686593532562, 0.31328532099723816, 0.293593168258667, 0.37801593542099, -0.40115121006965637, 0.40133529901504517, 0.3819347023963928, -0.5196611881256104, -0.08632800728082657, -0.27734291553497314, -0.45856302976608276, -0.13259071111679077, -0.22977162897586823, -0.20482343435287476, -0.11033454537391663, -0.14953003823757172, -0.0891384407877922, 0.24994008243083954, 0.34542685747146606, 0.3786250352859497, 0.14972983300685883, 0.06714136898517609, -0.3692634403705597, 0.27530086040496826, -0.4164913594722748, -0.3091402053833008, -0.1838046759366989, 0.4224199950695038, -0.3582369089126587, -0.12779955565929413, -0.3231481909751892, -0.2671378254890442, -0.03128238394856453, 0.3252916634082794, 0.2764601707458496], [0.15017499029636383, 0.23627890646457672, 0.29843050241470337, 0.5804377198219299, -0.3233664631843567, -0.0648476630449295, 0.3583946228027344, -0.5843690633773804, -0.25110530853271484, 0.06446909159421921, -0.048279888927936554, -0.19947350025177002, -0.22176043689250946, 0.1733376532793045, 0.6005323529243469, -0.05613410100340843, 0.06242271140217781, 0.2510889768600464, -0.20298224687576294, 0.2853753864765167, 0.4681546092033386, -0.5343866348266602, 0.3698071837425232, -0.4334687292575836, -0.14609791338443756, 0.23454654216766357, -0.12459878623485565, -0.2020874321460724, -0.23471592366695404, 0.5688949227333069, -0.0016731469659134746, 0.051823925226926804, -0.21890251338481903, 0.17834338545799255, -0.3418366611003876, -0.43800637125968933, 0.567782461643219, 0.13694661855697632, -0.2834128737449646, 0.008849121630191803, 0.14948071539402008, 0.24931854009628296, -0.10412190854549408, 0.024467576295137405, -0.45826831459999084, -0.03132123127579689, -0.5797425508499146, 0.08517322689294815, -0.1586579531431198, 0.08800093084573746, 0.24136048555374146, -0.06696703284978867, -0.016269685700535774, -0.2601846158504486, -0.013618391007184982, 0.3994739055633545, -0.08721287548542023, -0.08383482694625854, -0.4979710280895233, 0.03657006099820137, -0.0535043329000473, 0.3829134702682495, 0.1127251535654068, -0.15568503737449646, 0.1054484099149704, 0.34844112396240234, -0.150972381234169, -0.5246087908744812, 0.39012035727500916, 0.015378206968307495, 0.37674811482429504, 0.3120100200176239, -0.2701386511325836, 0.03441643714904785, 0.5205605626106262, 0.02034364640712738, -0.384616494178772, 0.42190825939178467, 0.40754958987236023, 0.24090373516082764, -0.2705390751361847, 0.09219701588153839, -0.015105849131941795, 0.1253640204668045, 0.05673332139849663, 0.026244496926665306, 0.24801389873027802, 0.14804869890213013, -0.09538578242063522, -0.031524933874607086, -0.06847590208053589, 0.20818912982940674, 0.02767253667116165, -0.29326507449150085, 0.17115582525730133, -0.020603423938155174, -0.2157890796661377, 0.312838077545166, -0.14750903844833374, 0.5938639044761658, -0.5766096711158752, -0.49672961235046387, -0.6273794174194336, 0.679601788520813, -0.5923924446105957, 0.1512012928724289, -0.4962441921234131, -0.06997691094875336, -0.603858232498169, -0.69301837682724, 0.5350419282913208, 0.29500094056129456, 0.6176741123199463, 0.4601772129535675, 0.44419702887535095, 0.6584810018539429, -0.5331531763076782, 0.04279482364654541, -0.48418742418289185, -0.3386386036872864, -0.6225024461746216, -0.6512278318405151, -0.002026060363277793, -0.3323463797569275, 0.41173848509788513, -0.2576545774936676, 0.2762613296508789, 0.5650453567504883, 0.6996317505836487, -0.07412856817245483, -0.024477625265717506, -0.5310354232788086, -0.51451575756073, -0.02752969041466713, 0.07999329268932343, -0.006912102922797203, 0.21781621873378754, -0.35793963074684143, -0.15540002286434174, -0.41574764251708984, -0.4510447680950165, 0.40241098403930664, 0.4934290945529938, 0.23040135204792023], [0.23677954077720642, 0.06265958398580551, 0.22212253510951996, 0.6994338035583496, -0.16666235029697418, 0.5673254728317261, -0.21533739566802979, -0.12052208185195923, -0.3699837923049927, 0.5033632516860962, -0.08748211711645126, 0.16993632912635803, 0.30723658204078674, 0.7269736528396606, 0.043824490159749985, -0.5115803480148315, -0.32652392983436584, -0.18321116268634796, 0.25121182203292847, 0.17257630825042725, -0.2929416000843048, -0.09453652799129486, 0.2178359180688858, -0.40723344683647156, 0.03932240232825279, -0.21880893409252167, -0.07927525788545609, 0.27622634172439575, -0.7963608503341675, 0.3495044708251953, 0.6746007204055786, -0.5967480540275574, -0.05406254902482033, -0.6654489636421204, 0.23044058680534363, 0.26591557264328003, 0.18769893050193787, -0.49730148911476135, -0.6927289962768555, 0.48770344257354736, -0.24540860950946808, 0.003464092267677188, -0.7465443015098572, -0.49237629771232605, -0.6059936285018921, -0.6474266052246094, -0.1798226684331894, 0.5127457976341248, -0.25892338156700134, -0.5732657313346863, -0.33725276589393616, 0.6601879000663757, 0.07740017771720886, 0.586261510848999, -0.27495327591896057, 0.4988381266593933, -0.38466715812683105, 0.5565844178199768, -0.6853801012039185, 0.11081629246473312, 0.24646766483783722, 0.5263820886611938, -0.2822062373161316, -0.40596064925193787, -0.2610044777393341, -0.08677180856466293, 0.39052125811576843, -0.2593308687210083, -0.25577059388160706, 0.03007631190121174, -0.0012917916756123304, -0.2593670189380646, 0.03356923907995224, -0.4513598382472992, 0.18679609894752502, 0.24161893129348755, -0.7235463857650757, 0.4694805145263672, 0.6483023166656494, -0.3512715995311737, -0.5339687466621399, -0.5301910638809204, 0.5761328935623169, 0.6082101464271545, -0.4397311210632324, -0.24441418051719666, -0.42212367057800293, 0.740303635597229, -0.16713295876979828, -0.6383885741233826, -0.6241664886474609, -0.3528401553630829, -0.531154215335846, -0.5561379790306091, 0.426209956407547, 0.44499048590660095, -0.38919541239738464, 0.1517035961151123, 0.13043053448200226, 0.1216839924454689, -0.42891165614128113, -0.2005442976951599, -0.1508626788854599, 0.25975239276885986, -0.24985989928245544, -0.3982471525669098, -0.15965548157691956, 0.03855782374739647, -0.2732011377811432, -0.320243775844574, 0.04725562781095505, 0.09954918920993805, 0.39284318685531616, 0.33697500824928284, 0.13104569911956787, 0.12888357043266296, -0.23020650446414948, 0.39615193009376526, -0.2888886630535126, 0.1163015365600586, -0.09258987009525299, -0.3033008575439453, -0.12183065712451935, -0.028027208521962166, 0.2880992889404297, 0.2782767713069916, 0.016834862530231476, 0.07341012358665466, 0.2513512074947357, -0.4415576756000519, 0.06604810059070587, -0.24636264145374298, -0.21080614626407623, 0.2104114592075348, 0.3277193307876587, -0.17753872275352478, 0.12894071638584137, -0.13088922202587128, -0.015666967257857323, -0.10643388330936432, -0.13651332259178162, 0.3804553747177124, 0.03340006619691849, -0.19819170236587524], [-0.10114025324583054, -0.20360109210014343, 0.30014050006866455, 0.23385800421237946, -0.3376384675502777, 0.050133176147937775, -0.18056528270244598, 0.19210466742515564, -0.1464473009109497, 0.2254871129989624, -0.3762250244617462, -0.07638116180896759, -0.0828695073723793, 0.03512134775519371, 0.23456934094429016, 0.12583373486995697, 0.0659768357872963, 0.3881407380104065, 0.01998073235154152, 0.12009524554014206, 0.269905149936676, -0.29841095209121704, 0.24736855924129486, -0.09931513667106628, -0.3010759651660919, 0.4334401786327362, 0.23113180696964264, -0.07655779272317886, -0.19586718082427979, 0.40259987115859985, 0.20554207265377045, 0.15305957198143005, -0.09602063149213791, -0.34702104330062866, -0.20597265660762787, 0.2006838321685791, 0.16951444745063782, 0.12793056666851044, -0.335075706243515, 0.3029229938983917, -0.07135824859142303, 0.04705532640218735, -0.11271583288908005, -0.023524098098278046, -0.21436548233032227, 0.016806170344352722, -0.10739163309335709, -0.10049457103013992, -0.10177118331193924, -0.12050481885671616, 0.14369671046733856, 0.16319555044174194, -0.2457469403743744, 0.15771207213401794, -0.30065417289733887, 0.1685350388288498, 0.08171620965003967, 0.2660650312900543, -0.24825426936149597, -0.2155124694108963, -0.11191146820783615, 0.10245070606470108, -0.021459361538290977, 0.40306493639945984, 0.03814401850104332, 0.21357731521129608, 0.22693473100662231, -0.03706924617290497, 0.19478803873062134, -0.31328731775283813, 0.521373450756073, -0.14556410908699036, -0.24029047787189484, 0.11487074941396713, 0.29345381259918213, -0.2619343101978302, -0.060996588319540024, 0.25948095321655273, 0.029101453721523285, 0.08888543397188187, -0.19689171016216278, -0.10706044733524323, -0.0743965208530426, 0.04913990944623947, 0.12869960069656372, 0.13638567924499512, -0.3036019504070282, 0.29235878586769104, 0.014662770554423332, -0.2876020669937134, -0.0915256068110466, -0.1458573341369629, -0.1637069284915924, 0.09541170299053192, -0.32759878039360046, -0.1825045645236969, 0.11057714372873306, 0.2787059247493744, -0.24561169743537903, 0.33774852752685547, -0.2908356785774231, -0.21309863030910492, -0.36449939012527466, 0.24785330891609192, 0.02024656906723976, 0.08445526659488678, -0.06021451577544212, 0.3007170557975769, -0.22725960612297058, -0.25913068652153015, 0.22891812026500702, 0.14395350217819214, 0.3126406967639923, -0.20760805904865265, 0.3261498212814331, 0.25142601132392883, -0.21674081683158875, 0.19632717967033386, -0.16634412109851837, -0.21039918065071106, -0.29024821519851685, -0.2825862467288971, -0.09363184124231339, -0.05574343353509903, 0.24814969301223755, -0.06764862686395645, 0.04022982716560364, 0.2267708033323288, 0.5087807178497314, -0.035112883895635605, -0.049323175102472305, -0.2505882978439331, 0.1461573839187622, -0.14122894406318665, -0.16358016431331635, 0.034609876573085785, 0.18667979538440704, -0.2116643488407135, 0.21709151566028595, -0.09775876998901367, -0.2749893069267273, 0.41156649589538574, 0.3130093812942505, 0.2589147388935089], [-0.13896000385284424, -0.3163521885871887, 0.34500256180763245, -0.03919637203216553, -0.25001785159111023, 0.1133849024772644, -0.029705069959163666, 0.05155735835433006, 0.19494189321994781, 0.11961202323436737, -0.4138563275337219, 0.057352423667907715, 0.22437328100204468, 0.0960683524608612, 0.004396854899823666, 0.0897509902715683, 0.08275314420461655, 0.38577374815940857, 0.2123909443616867, 0.10574548691511154, 0.2930073142051697, 0.059830669313669205, 0.180973082780838, -0.0816485658288002, -0.10645186901092529, 0.19731473922729492, 0.1738547384738922, -0.13284780085086823, -0.0763382688164711, 0.20892612636089325, 0.15725161135196686, 0.04173363372683525, -0.00833873450756073, -0.058484625071287155, -0.28386029601097107, 0.18838968873023987, 0.15726391971111298, 0.17830955982208252, -0.12406851351261139, 0.14054326713085175, -0.23533672094345093, -0.10702940076589584, -0.03203447908163071, -0.12894509732723236, -0.03418189287185669, 0.00529076624661684, 0.007606480736285448, -0.1840004324913025, 0.17505133152008057, -0.2599862813949585, 0.0002935111988335848, -0.07523249834775925, -0.10274646431207657, 0.11696284264326096, 0.15966424345970154, -0.19578927755355835, 0.14774653315544128, 0.10143859684467316, -0.13639770448207855, -0.11017842590808868, -0.044358979910612106, 0.0566440150141716, -0.4087488353252411, 0.42392706871032715, 0.07533851265907288, 0.19605258107185364, 0.1323881298303604, -0.07339786738157272, 0.04269234091043472, -0.24140876531600952, 0.2361822873353958, -0.06858397275209427, -0.10423175990581512, 0.12172664701938629, 0.20265749096870422, -0.4365270137786865, -0.090967558324337, -0.0373295322060585, -0.07114703953266144, 0.05928879231214523, 0.22676970064640045, -0.07164748013019562, -0.2502000331878662, 0.01981337182223797, 0.2889377176761627, 0.03346104174852371, 0.01402539387345314, 0.23622412979602814, 0.1278391033411026, -0.16698014736175537, 0.07397150248289108, -0.12463876605033875, 0.12395492941141129, 0.014663382433354855, 0.09670368582010269, -0.08712198585271835, 0.18532611429691315, 0.31469446420669556, -0.09026584029197693, 0.4283529222011566, -0.1551225483417511, 0.319143146276474, -0.2653472423553467, 0.4867103695869446, -0.30718323588371277, 0.3585134446620941, 0.14471876621246338, 0.11645563691854477, -0.3235933482646942, -0.016213078051805496, 0.46752968430519104, -0.13174015283584595, 0.20354397594928741, 0.2507522702217102, 0.4235805869102478, 0.24316386878490448, 0.323278546333313, -0.1401403397321701, 0.34786152839660645, 0.16306708753108978, -0.5518299341201782, -0.08725812286138535, 0.29823407530784607, 0.0792262852191925, 0.2097512185573578, -0.48642775416374207, -0.3271225690841675, 0.12755191326141357, 0.11817719042301178, 0.22864826023578644, -0.40920716524124146, -0.34570327401161194, -0.024718236178159714, 0.17263491451740265, -0.08800331503152847, 0.35619056224823, 0.1355733871459961, -0.21003879606723785, 0.306767076253891, 0.13539278507232666, -0.5235690474510193, 0.029493441805243492, 0.46350404620170593, 0.05934978649020195], [-0.3563007116317749, -0.060012999922037125, 0.02751370519399643, -0.25161704421043396, 0.13071240484714508, -0.3486176133155823, -0.4348376989364624, 0.7895839810371399, 0.1696547269821167, -0.3161620497703552, -0.774654746055603, -0.4675687551498413, -0.14273719489574432, -0.11680969595909119, -0.7417393326759338, 0.5766782760620117, 0.26888611912727356, 0.44693195819854736, -0.34857168793678284, -0.5431150794029236, 0.3825680911540985, -0.189035102725029, 0.17231307923793793, 0.12987081706523895, -0.4579327404499054, 0.5032151341438293, 1.1267688274383545, -0.6457299590110779, 0.07940087467432022, -0.2660219073295593, -0.19362296164035797, 0.7607057690620422, -0.2784128189086914, 0.37521734833717346, -0.36433982849121094, 0.10774477571249008, -0.18889635801315308, 0.39609992504119873, 0.44128939509391785, -0.014916953630745411, 0.2483808696269989, -1.1066075563430786, 0.27756190299987793, 0.5668594837188721, 0.4219897389411926, 0.2476780265569687, 0.8176459670066833, -0.2876153588294983, 0.2056179940700531, -0.6317297220230103, -0.3937395215034485, -0.28553369641304016, -1.0365087985992432, -0.37321606278419495, -0.3459784686565399, 0.6246836185455322, -0.485757976770401, -0.4100129306316376, -0.1692754477262497, -0.48807597160339355, -0.5469925403594971, 0.060957979410886765, -0.5773687362670898, 0.8758878111839294, -0.24359366297721863, 0.3088028132915497, -0.014287329278886318, -0.8977148532867432, 0.482290118932724, -0.5748213529586792, 0.45429933071136475, -0.26462796330451965, -0.009266888722777367, 0.3361371159553528, 0.6328874230384827, -0.44943365454673767, 0.28482234477996826, -0.134262353181839, -0.6023540496826172, 0.7976113557815552, 0.36908525228500366, 0.3861672282218933, -0.5252249240875244, -0.14975444972515106, 0.2817957103252411, 0.6790741086006165, 0.2550916075706482, -0.03530602902173996, 0.690229058265686, -0.6112305521965027, 0.14794112741947174, 0.7847005128860474, 0.19080187380313873, 0.4262195825576782, 0.5857243537902832, 0.21708758175373077, -0.7227742671966553, 0.04806862771511078, 0.281706303358078, 0.8024264574050903, -0.21677593886852264, -0.4185999929904938, -1.1177096366882324, 0.9636020660400391, -1.6020835638046265, -0.24353118240833282, -0.6692641973495483, -0.34385791420936584, -0.7914740443229675, -0.7066273093223572, 0.8282508254051208, 0.24433569610118866, 0.4911036789417267, 1.1456272602081299, 0.6133469343185425, 0.9725044965744019, -0.44302281737327576, 0.3640470504760742, -0.4710524380207062, 0.26103389263153076, -0.9849968552589417, -0.7805918455123901, 0.2774657905101776, -0.2341863065958023, 0.7901284694671631, -0.09212974458932877, -0.03249451145529747, 0.4326179027557373, 0.6181092858314514, -0.6504207253456116, -0.4434930384159088, -0.5699046850204468, -0.9678348898887634, 0.4277859926223755, 0.6625329852104187, 0.2549099922180176, -0.13807544112205505, -0.14355389773845673, 0.1781027764081955, -0.3661266267299652, -0.5899080634117126, 0.92701256275177, 0.5837514996528625, -0.3352240324020386], [0.03208017349243164, -0.2122187614440918, -0.1382184773683548, 0.33801406621932983, -0.3324408531188965, -0.12849992513656616, 0.040583979338407516, 0.23862746357917786, -0.15074633061885834, -0.05546564236283302, -0.2577277719974518, -0.2297530621290207, -0.235213503241539, 0.13296867907047272, -0.06811024248600006, 0.1306033879518509, -0.21244482696056366, 0.20171308517456055, -0.1593046933412552, 0.23295652866363525, -0.06132607161998749, 0.08845885097980499, 0.2047637403011322, -0.14013585448265076, -0.18026547133922577, -0.25157731771469116, 0.3284022808074951, -0.26143893599510193, -0.395468533039093, 0.3062012791633606, 0.0621657595038414, 0.17601074278354645, -0.16598102450370789, 0.09798265993595123, -0.23249836266040802, -0.05266343057155609, 0.18586811423301697, 0.05148507282137871, 0.13371774554252625, -0.0608651377260685, 0.1945924609899521, -0.2929275631904602, 0.012808616273105145, 0.17323099076747894, -0.06870078295469284, -0.3343197703361511, 0.15547175705432892, 0.3199390172958374, -0.11715009063482285, -0.08965609967708588, 0.004182984586805105, 0.07964732497930527, -0.35087719559669495, -0.0797051340341568, -0.22276204824447632, 0.09034103900194168, -0.253233402967453, 0.18291452527046204, -0.2329116016626358, -0.05816366896033287, -0.12536831200122833, 0.07181825488805771, 0.15655846893787384, 0.003479182254523039, -0.15164467692375183, 0.16723112761974335, -0.06474432349205017, 0.20035500824451447, 0.21945802867412567, -0.0033778741490095854, 0.3169366717338562, 0.0035008895210921764, -0.22805897891521454, 0.10376960784196854, 0.12703406810760498, 0.03772155940532684, -0.34090080857276917, 0.19401749968528748, 0.10393603891134262, 0.15856045484542847, -0.2918761372566223, 0.029726609587669373, -0.09668408334255219, 0.18871237337589264, 0.19304929673671722, 0.1533898413181305, -0.03856543451547623, 0.0502612367272377, -0.10899604856967926, 0.13438676297664642, -0.010703240521252155, 0.07014771550893784, -0.1488134115934372, -0.14431200921535492, -0.17266355454921722, 0.16398508846759796, 0.3320710361003876, 0.25930503010749817, -0.3779836595058441, 0.23275667428970337, -0.37725797295570374, -0.25963640213012695, -0.29299530386924744, 0.24229301512241364, 0.179375559091568, 0.18705233931541443, -0.19631563127040863, 0.16127553582191467, -0.2604235112667084, -0.22992761433124542, 0.2275509238243103, 0.23804272711277008, 0.3006913959980011, -0.1971818506717682, 0.2550317943096161, 0.22370603680610657, -0.21549353003501892, -0.05480656027793884, -0.2632282078266144, -0.29175254702568054, -0.15474802255630493, -0.24614837765693665, -0.020292948931455612, -0.10342933982610703, 0.12086078524589539, -0.17453409731388092, 0.049954213201999664, 0.25442883372306824, 0.360248863697052, 0.18984277546405792, -0.029309799894690514, -0.2570900619029999, 0.007011049427092075, -0.26246505975723267, -0.331139475107193, 0.11375093460083008, 0.30825743079185486, -0.2652967870235443, -0.013592706993222237, -0.14020046591758728, -0.27678540349006653, 0.14277054369449615, 0.23419682681560516, 0.31826698780059814], [-0.8047276139259338, 0.45145225524902344, 0.765892505645752, -0.02534029632806778, 0.31591421365737915, 0.2059493213891983, 0.26673081517219543, -0.6442632079124451, 0.14578481018543243, 0.4570232033729553, -0.3728412985801697, 0.6526183485984802, 0.5307101011276245, 0.299917995929718, 0.5736583471298218, -0.3411850929260254, -0.0328456275165081, -0.05425284430384636, 0.5785245895385742, 0.25139158964157104, 0.3175605237483978, 0.24458901584148407, -0.38430172204971313, 0.010593038983643055, 0.4787972867488861, 0.42090922594070435, -0.3581027388572693, 0.39677783846855164, 0.07861568033695221, -0.016263963654637337, 0.1911105215549469, -0.23598214983940125, -0.28666356205940247, -0.17805345356464386, -0.36851364374160767, 0.23254668712615967, 0.08504181355237961, -0.10907160490751266, -0.511717677116394, 0.06387917697429657, -0.4364416301250458, 0.7304179072380066, -0.1331024318933487, -0.5412535071372986, -0.244520366191864, -0.03820252791047096, -0.3132135570049286, -0.4538057744503021, 0.8338130712509155, 0.5659862160682678, 0.574608564376831, 0.4620537757873535, -0.18761318922042847, 0.09357736259698868, 0.8180115818977356, -0.45249879360198975, -0.21255870163440704, 0.11648833751678467, 0.5369995832443237, -0.2942604124546051, -0.26208603382110596, 0.45183688402175903, 0.45659980177879333, -0.21587549149990082, -0.2051648199558258, -0.07384850829839706, -0.25052329897880554, 0.7039804458618164, -0.3425337076187134, -0.7151867151260376, 0.42712822556495667, -0.4538571238517761, 0.028704553842544556, 0.22487609088420868, -0.06853384524583817, -0.29855236411094666, -0.5502805113792419, 0.37948691844940186, -0.5657458305358887, -0.038874827325344086, 0.2582125663757324, 0.061623357236385345, -0.3437730371952057, -0.7813436388969421, 0.9889869689941406, 0.04700808227062225, -0.3935348689556122, -0.6626294851303101, 0.21148093044757843, 0.22417141497135162, -0.16956858336925507, 0.0036476855166256428, -0.3396376371383667, 0.4312317669391632, -0.8801902532577515, 0.4672248959541321, 0.3989206850528717, 0.35879790782928467, -0.4755721092224121, 0.1023893877863884, -0.3237851858139038, 0.14280684292316437, -0.03833019733428955, -0.0018537738360464573, 0.16742782294750214, 0.3531518578529358, 0.3831610679626465, 0.6645152568817139, -0.12355217337608337, 0.22648493945598602, -0.0013142975512892008, 0.21929240226745605, 0.2088790237903595, -0.2163705825805664, 0.1893576979637146, -0.0849989727139473, 0.18061667680740356, 0.00949339009821415, 0.3219151794910431, -0.19119605422019958, -0.08073598891496658, 0.021318653598427773, 0.23073531687259674, 0.1868278980255127, -0.13166847825050354, -0.15311995148658752, -0.4533129334449768, -0.31709155440330505, 0.2828935384750366, 0.39601564407348633, -0.22194543480873108, -0.19964797794818878, 0.3017915189266205, -0.25600937008857727, -0.3667590916156769, 0.19189704954624176, 0.44466784596443176, -0.35042399168014526, 0.21143393218517303, 0.2064266949892044, -0.288211464881897, 0.08158344775438309, 0.21564827859401703, 0.31845173239707947], [0.12630414962768555, -0.3131491541862488, -0.13090091943740845, -0.028195306658744812, -0.35440677404403687, -0.2455860674381256, -0.04765477403998375, 0.09488410502672195, 0.07365453988313675, -0.30677229166030884, -0.036914125084877014, -0.40783900022506714, -0.4657658338546753, -0.04694646596908569, -0.1303565800189972, 0.6981889605522156, 0.00730314664542675, 0.13301615417003632, -0.3267355263233185, -0.06669257581233978, 0.3265940845012665, -0.2181270569562912, 0.39640143513679504, 0.02855328470468521, -0.14897166192531586, 0.34600213170051575, 0.13249126076698303, -0.36870139837265015, 0.2534694969654083, -0.0962488204240799, -0.611298680305481, 0.3316463828086853, 0.19228652119636536, 0.3984799087047577, -0.29297640919685364, -0.2831328809261322, 0.1707102656364441, 0.6323042511940002, 0.0865262821316719, -0.12678121030330658, 0.44737333059310913, -0.08028651028871536, 0.21720166504383087, 0.5360437631607056, 0.09781146049499512, 0.5165024995803833, -0.019841039553284645, -0.07212653756141663, 0.0329795740544796, 0.17215143144130707, 0.39411690831184387, 0.6867217421531677, 0.11449865996837616, 0.4028930366039276, 0.16484366357326508, -0.5033612847328186, -0.12192661315202713, 0.32880765199661255, 0.21142084896564484, 0.045350268483161926, 0.16940349340438843, 0.17104777693748474, 0.5400626063346863, -0.313904345035553, -0.09725961089134216, -0.10118035227060318, 0.24991878867149353, 0.3501417934894562, 0.012706834822893143, -0.26234206557273865, 0.06016692519187927, -0.48361319303512573, 0.039739035069942474, 0.4860553443431854, -0.31554317474365234, 0.10255002975463867, -0.2562321126461029, 0.12078455090522766, 0.048320431262254715, -0.34623244404792786, 0.3633382022380829, -0.28025320172309875, -0.3347058594226837, -0.2145807445049286, 0.5514554381370544, 0.1385469287633896, -0.6347026824951172, -0.14254313707351685, -0.16567952930927277, 0.542293906211853, -0.4118832051753998, -0.25240835547447205, -0.5649415850639343, 0.23035648465156555, -0.6645529866218567, -0.03829474374651909, -0.48111242055892944, -0.007279632147401571, 0.0016673420323058963, 0.28024446964263916, -0.5556997656822205, -0.40450695157051086, -0.3949912488460541, 0.4715476334095001, -0.4657522737979889, -0.447162002325058, -0.3947533071041107, -0.1439724713563919, -0.41743817925453186, -0.568074107170105, 0.12124104797840118, 0.22367875277996063, 0.4735635817050934, 0.5846294164657593, 0.0883558839559555, 0.3671337366104126, -0.40891435742378235, 0.42306289076805115, -0.467020183801651, -0.3490579426288605, -0.17986170947551727, -0.5567032694816589, -0.39502963423728943, -0.020740672945976257, 0.2924770712852478, 0.3340970277786255, 0.23186153173446655, 0.14721368253231049, 0.47951826453208923, -0.46997302770614624, 0.2691732347011566, -0.2815874218940735, -0.5664517879486084, 0.016620006412267685, 0.37053683400154114, -0.4174801707267761, 0.09669584035873413, -0.12054120004177094, -0.28342217206954956, -0.14024187624454498, 0.013013456016778946, 0.4756808578968048, 0.07589302957057953, 0.03731671720743179], [-0.18823479115962982, 0.488317608833313, 0.6381741166114807, -0.20509374141693115, 0.3439919054508209, -0.5544878244400024, -0.3615697920322418, -0.07591104507446289, 0.3070577085018158, -0.3160819411277771, -0.49548372626304626, 0.1908825933933258, 0.15647827088832855, -0.02266298606991768, 0.35528385639190674, -0.08207439631223679, 0.6158437132835388, 0.516316294670105, -0.4057280719280243, -0.2652667164802551, 0.5514324307441711, 0.3123309910297394, 0.5714691877365112, 0.5703895688056946, -0.9113537073135376, -0.13077637553215027, 1.0016803741455078, -0.3514798879623413, 0.024832362309098244, -0.007243786472827196, 0.2443753182888031, 0.4678693115711212, -0.6699679493904114, 0.3146721124649048, -0.10016796737909317, 0.1616988629102707, -0.2343471497297287, -0.09947303682565689, 0.24569275975227356, -0.1936587542295456, -0.28867846727371216, -0.3304089605808258, 0.3047313988208771, 0.11132561415433884, 0.31295233964920044, 0.026559941470623016, 0.4295429587364197, -0.3994500935077667, -0.3579034209251404, -0.23648779094219208, 0.1648980677127838, -0.25265997648239136, -0.20419903099536896, -0.05471610650420189, -0.34301793575286865, 0.7808713912963867, 0.4303661584854126, -0.004841427784413099, -0.9338546991348267, 0.03877813369035721, 0.13839226961135864, -0.0075497557409107685, 0.08238636702299118, 0.12657691538333893, 0.486514151096344, 0.5413805246353149, -0.19568659365177155, 0.033461783081293106, 0.4775667190551758, 0.19966071844100952, 0.48172011971473694, 0.36763280630111694, -0.7739831805229187, -0.010230867192149162, 0.9047757983207703, -0.40830495953559875, 0.19877339899539948, 0.02186022512614727, 0.309087872505188, 0.24775300920009613, -0.9088636636734009, 0.035928137600421906, 0.6148867607116699, 0.24222293496131897, 0.0412912480533123, -0.3898053765296936, 0.0818474292755127, 0.3085327446460724, -0.19870240986347198, -0.18527404963970184, 0.23080551624298096, -0.0890822559595108, 0.256074458360672, -0.22547601163387299, 0.5188629627227783, -0.47842657566070557, 1.0706666707992554, 1.0459316968917847, -1.064072608947754, 0.3960094749927521, -0.4620240330696106, 0.14768508076667786, -0.007279606536030769, 0.07856131345033646, 0.4951954185962677, 1.0914102792739868, 0.5354645252227783, 1.076850175857544, -0.21621669828891754, 0.30714863538742065, 0.5501759648323059, -0.044465236365795135, 0.2224005162715912, -1.0523947477340698, 0.6677020788192749, -0.01650068163871765, 0.12067089974880219, -0.9103230237960815, 0.29271164536476135, -0.5665276646614075, -0.442460834980011, 0.14853747189044952, 0.9945093989372253, -0.13632306456565857, -0.5662065744400024, -1.2036629915237427, -0.7534379959106445, -0.016846293583512306, 0.15988285839557648, 1.0427216291427612, -1.2868475914001465, -0.5156514048576355, 0.8415427803993225, -1.2203795909881592, -1.1963118314743042, 1.217597484588623, 1.105334758758545, -0.7785910367965698, 1.0312607288360596, 0.01812223717570305, -0.8525158762931824, -0.4722815454006195, 0.7224065065383911, 1.3569302558898926], [-0.37945589423179626, 0.34899914264678955, 0.6184287071228027, -0.011771784164011478, 0.2457231730222702, 0.02287713997066021, -0.2111598253250122, 0.34452688694000244, -0.10627547651529312, 0.22180959582328796, -0.35318389534950256, 0.2248152494430542, 0.2691453993320465, 0.27328285574913025, 0.11322899162769318, -0.1800810694694519, 0.11729341745376587, 0.16814467310905457, 0.20980681478977203, 0.08929436653852463, 0.2454531043767929, 0.14885784685611725, 0.03696799650788307, 0.3012363016605377, -0.044609926640987396, 0.008337662555277348, 0.30316272377967834, 0.13437451422214508, -0.3306952714920044, 0.6475273966789246, 0.44797563552856445, 0.10846897214651108, -0.49356019496917725, -0.22176899015903473, 0.2736281156539917, 0.20400461554527283, 0.002604356035590172, -0.3607437014579773, -0.22785252332687378, 0.13842108845710754, -0.3453189432621002, 0.2460542917251587, -0.1653895527124405, -0.2663479447364807, -0.13281464576721191, -0.4231417179107666, 0.44862136244773865, -0.20909558236598969, 0.014761166647076607, -0.6257578730583191, -0.29611736536026, 0.45016875863075256, -0.9515840411186218, 0.3404894769191742, 0.15875375270843506, 0.39292311668395996, -0.34873104095458984, 0.28618037700653076, -0.14979149401187897, -0.41092437505722046, -0.5402998328208923, 0.5365903973579407, 0.5725671052932739, 0.23762215673923492, -0.30391114950180054, 0.2315549999475479, -0.09871027618646622, 0.5489519834518433, -0.4105270504951477, -0.17003946006298065, 0.6108859181404114, -0.6226286888122559, -0.2721918523311615, 0.11332864314317703, 0.10878175497055054, -0.4839451313018799, -0.36065295338630676, 0.8658323287963867, -0.16505832970142365, -0.03578496724367142, 0.20392678678035736, 0.039159514009952545, -0.17590470612049103, -0.21834851801395416, 0.7767381072044373, -0.05981961637735367, -0.19015322625637054, 0.08027534931898117, 0.3004359304904938, 0.5038713812828064, -0.2905764877796173, -0.08825471252202988, -0.27759501338005066, -0.1635461151599884, -0.3489718437194824, 0.3328913748264313, -0.4919615387916565, 0.17957422137260437, -0.1740528792142868, 0.5482176542282104, -0.7162659168243408, -0.2197810560464859, -0.7804927825927734, 0.8830522894859314, -0.5604479908943176, -0.43255364894866943, -0.16814866662025452, 0.18655194342136383, -0.8708930015563965, -0.5840442180633545, 0.32475921511650085, -0.004820661153644323, 0.8335837125778198, 0.42880305647850037, 0.36991769075393677, 0.5169920325279236, -0.32206064462661743, 0.5560179352760315, -0.4648928940296173, 0.07106702774763107, -0.3485943675041199, -0.9583819508552551, -0.1988925337791443, 0.03527941182255745, 0.6894619464874268, 0.07309803366661072, -0.0705437958240509, 0.3123939633369446, 0.7325875759124756, -0.5402054190635681, 0.002000792883336544, -0.5109156966209412, -0.31069499254226685, 0.15901713073253632, 0.5462156534194946, -0.13017787039279938, -0.015537561848759651, -0.1177307739853859, 0.0005948678590357304, -0.021285051479935646, -0.3379932641983032, 0.8366206288337708, 0.31554219126701355, -0.011405427940189838], [0.10313121974468231, -0.14779788255691528, 0.047643959522247314, 0.3203892707824707, -0.21187354624271393, -0.08238107711076736, 0.14788909256458282, -0.011290713213384151, -0.23769040405750275, 0.09144194424152374, -0.1836472600698471, -0.21471983194351196, -0.16375170648097992, 0.2088606357574463, 0.16411134600639343, -0.06686466187238693, -0.035126421600580215, 0.2874131202697754, -0.11797621101140976, 0.20547744631767273, 0.2089911252260208, -0.0736110731959343, 0.30966824293136597, -0.1548265963792801, -0.3332730829715729, 0.009919129312038422, 0.2776773273944855, -0.12501905858516693, -0.193101167678833, 0.323158323764801, 0.09234615415334702, 0.08269856870174408, -0.2082030326128006, 0.042159534990787506, -0.26174843311309814, 0.06199837103486061, 0.04640667885541916, -0.09573466330766678, -0.13242730498313904, -0.07213068008422852, 0.019161710515618324, -0.2413789927959442, -0.07294292002916336, 0.1194857805967331, -0.19110654294490814, -0.13966505229473114, -0.029818721115589142, 0.09225664287805557, -0.11681102961301804, -0.07144936919212341, 0.2064639925956726, 0.0001436294405721128, -0.31694597005844116, -0.028436915948987007, -0.2594890892505646, 0.29224729537963867, 0.4149789810180664, -0.014592457562685013, -0.6364219784736633, -0.1984783262014389, -0.062425561249256134, 0.2821439206600189, 0.06940997391939163, 0.106887087225914, 0.27807673811912537, 0.5762820243835449, 0.005375646520406008, -0.16371677815914154, 0.4265042245388031, -0.20664530992507935, 0.5566937923431396, -0.0022098328918218613, -0.5413129925727844, 0.11166712641716003, 0.33468466997146606, -0.3830116093158722, -0.1656777262687683, 0.4280119240283966, 0.05809528008103371, 0.13044573366641998, -0.4135604202747345, 0.11183363944292068, -0.010967209003865719, -0.05431152880191803, -0.009215185418725014, 0.0889853909611702, -0.0139415692538023, 0.23413842916488647, 0.023712044581770897, -0.5524990558624268, 0.13753022253513336, 0.04099608212709427, 0.0470605306327343, -0.145890012383461, 0.14995527267456055, -0.21881788969039917, 0.10813046246767044, 0.44311121106147766, -0.25169837474823, 0.4124419689178467, -0.3825315833091736, -0.309591144323349, -0.25633296370506287, 0.4767267107963562, -0.0009538783342577517, 0.18816183507442474, -0.2697735130786896, 0.26340365409851074, -0.5535247921943665, -0.37054285407066345, 0.3559785485267639, 0.21221472322940826, 0.4313078820705414, 0.05951003357768059, 0.5175045728683472, 0.2544928789138794, -0.3817729651927948, -0.06255468726158142, -0.2780701518058777, -0.12245029211044312, -0.28465741872787476, -0.40366196632385254, 0.007835485972464085, -0.3427059054374695, 0.034121524542570114, -0.3500460684299469, 0.08168019354343414, 0.3566707968711853, 0.5403339266777039, 0.01445359643548727, -0.1480376124382019, -0.5143218040466309, -0.0634792223572731, -0.22100891172885895, -0.14651647210121155, 0.11814188212156296, 0.2844345271587372, -0.30705761909484863, 0.1680678278207779, -0.2780587077140808, -0.4656178951263428, 0.19758091866970062, 0.4101196527481079, 0.19249263405799866], [-0.19172188639640808, -0.12491349130868912, 0.07875756919384003, 0.2600679397583008, -0.25789621472358704, 0.08132194727659225, -0.025666555389761925, 0.118333600461483, -0.08121383190155029, 0.14290861785411835, -0.24372252821922302, -0.22011598944664001, -0.10767199844121933, -0.07721010595560074, -0.09035858511924744, 0.2148183435201645, -0.09877188503742218, 0.2551538348197937, 0.012204550206661224, 0.12145943939685822, 0.07616128772497177, 0.08445776253938675, 0.18177708983421326, -0.03523872420191765, -0.19634361565113068, 0.0530891977250576, 0.20617149770259857, -0.26648151874542236, -0.04292736575007439, 0.32691654562950134, 0.26459118723869324, -0.0074937655590474606, -0.28886809945106506, 0.0071967970579862595, -0.29195788502693176, 0.13717268407344818, 0.08159463107585907, 0.24871939420700073, 0.007784136570990086, 0.03849337622523308, 0.0721297636628151, -0.26964494585990906, -0.014150958508253098, -0.039754003286361694, -0.17065225541591644, -0.21909493207931519, 0.06553013622760773, 0.13014249503612518, 0.07111769169569016, 0.02254113182425499, -0.022141506895422935, 0.2472923994064331, -0.12311140447854996, 0.10094938427209854, 0.09509433805942535, 0.11029724031686783, -0.12906427681446075, 0.017033664509654045, -0.04619791358709335, -0.12918929755687714, -0.1387835144996643, 0.10077928006649017, 0.11100605130195618, 0.033100392669439316, -0.04847371205687523, 0.041373997926712036, -0.008883494883775711, 0.021820828318595886, -0.05290570110082626, -0.07245635986328125, 0.2904348373413086, -0.05731459707021713, -0.01563897542655468, -0.14706489443778992, 0.15762090682983398, -0.012531353160738945, -0.30460813641548157, 0.3045028746128082, 0.19091124832630157, 0.10127952694892883, -0.22220411896705627, 0.02563464269042015, 0.11711128056049347, 0.11450186371803284, 0.32332152128219604, -0.055739983916282654, 0.11764976382255554, 0.14056803286075592, 0.10233410447835922, -0.2341168075799942, -0.07140512764453888, -0.0750185176730156, -0.05948001146316528, -0.2055409550666809, 0.003631279105320573, 0.08988815546035767, -0.1368132382631302, 0.43016424775123596, -0.3720361590385437, 0.34380629658699036, -0.43110567331314087, -0.217774897813797, -0.2639283537864685, 0.35034167766571045, 0.06289029121398926, -0.06577114015817642, -0.11105631291866302, 0.20796337723731995, -0.3912973403930664, -0.18416549265384674, 0.23993875086307526, 0.21266627311706543, 0.35591599345207214, -0.1360568106174469, 0.414806604385376, 0.11504077911376953, -0.2908913791179657, 0.04973912984132767, -0.1926671266555786, -0.4008478820323944, -0.23406749963760376, -0.16760046780109406, -0.12829802930355072, -0.1654602736234665, -0.12285441160202026, -0.05220960080623627, -0.13787737488746643, 0.22131812572479248, 0.2846934199333191, -0.0059661115519702435, -0.19424574077129364, -0.29576781392097473, 0.04628648981451988, -0.3625850975513458, -0.19842340052127838, -0.0031890044920146465, 0.4581262171268463, -0.3912217319011688, 0.22515955567359924, -0.18196488916873932, -0.2644244432449341, 0.11115256696939468, 0.29955753684043884, 0.3699444830417633], [0.19580353796482086, -0.14595668017864227, -0.0073210750706493855, 0.4883238971233368, -0.5716865062713623, 0.1580015867948532, 0.1808493584394455, -0.1370059847831726, -0.27986764907836914, 0.10426972061395645, 0.46060699224472046, -0.3921264708042145, -0.5403963327407837, 0.3260285258293152, 0.3893328607082367, 0.3890296220779419, -0.31230729818344116, -0.10185869038105011, -0.07894766330718994, 0.07097230851650238, -0.17377986013889313, -0.643475353717804, 0.32410141825675964, -0.4970884323120117, 0.11792533844709396, 0.3625337481498718, -0.1919364631175995, -0.30289900302886963, -0.10299881547689438, 0.15427319705486298, -0.6743720173835754, -0.043068934231996536, 0.5115808248519897, 0.12861090898513794, -0.5859437584877014, -0.44587740302085876, 0.7228053212165833, 0.5103023052215576, -0.29396477341651917, -0.23203672468662262, 0.3679848313331604, 0.35682782530784607, -0.20429053902626038, 0.21695946156978607, -0.4386400878429413, 0.5618661642074585, -0.6458031535148621, 0.32909753918647766, -0.05374624580144882, 0.3061506450176239, 0.5756271481513977, 0.6914493441581726, 0.11152113974094391, 0.47126060724258423, 0.34356823563575745, -0.7194635272026062, -0.281962126493454, 0.5259811878204346, 0.3873997628688812, 0.16656023263931274, 0.19883176684379578, 0.10372743010520935, 0.6459944844245911, -0.15066352486610413, -0.18759851157665253, -0.23013631999492645, 0.4124020040035248, 0.5605921745300293, -0.2691996097564697, -0.2031116634607315, -0.2539730966091156, -0.6945922374725342, 0.3643573224544525, 0.3359154760837555, -0.4823746383190155, 0.3039540648460388, -0.24057041108608246, 0.22331468760967255, -0.08272230625152588, -0.35308676958084106, 0.43115636706352234, -0.3035668134689331, -0.46570509672164917, -0.1045423075556755, 0.39342257380485535, 0.2870173752307892, -0.8203718662261963, -0.2718060314655304, -0.18987399339675903, 0.6473063230514526, -0.5446688532829285, -0.2494182586669922, -0.6573415994644165, 0.2488715648651123, -0.7122575640678406, 0.03406209871172905, 0.33202511072158813, 0.23817847669124603, -0.2997969090938568, -0.07384905964136124, -0.030899982899427414, -0.006404769141227007, 0.21021953225135803, -0.14111407101154327, 0.45819225907325745, 0.18481959402561188, 0.30569782853126526, 0.3089964985847473, 0.06551840156316757, 0.2862676978111267, -0.1293206363916397, -0.03576415777206421, -0.02652597986161709, -0.4754769504070282, -0.029574817046523094, -0.29712235927581787, 