{"down.0.weight": [[-0.09684228152036667, 0.05259668454527855, 0.029324563220143318, -0.05568986013531685, -0.049647435545921326, 0.019573692232370377, -0.057284045964479446, 0.06206781789660454, 0.013292099349200726, 0.05035129189491272, 0.004183492623269558, -0.007468127645552158, -0.05348380655050278, -0.06416817009449005, -0.07533148676156998, 0.016654495149850845, -0.12361106276512146, -0.03940426930785179, -0.09644071757793427, 0.11878670752048492, 0.08955293148756027, -0.08867207914590836, -0.014649329707026482, 0.11075814068317413, 0.022571168839931488, 0.028132494539022446, -0.08246593177318573, -0.06263114511966705, 0.03828418627381325, -0.1465398669242859, -0.0523114837706089, 0.04421825706958771, 0.00367011409252882, 0.049445152282714844, 0.11529379338026047, -0.012262744829058647, -0.06520171463489532, 0.0448521263897419, 0.086026631295681, -0.1280074119567871, -0.13945889472961426, -0.13322177529335022, 0.05294473469257355, -0.13793990015983582, -0.06774445623159409, 0.022548457607626915, -0.1110134944319725, 0.2479022592306137, -0.009421069175004959, 0.06853310763835907, 0.3408556580543518, 0.05704976245760918, 0.15506328642368317, 0.22366322576999664, -0.06120942533016205, -0.04758000001311302, 0.0452287383377552, 0.03258518502116203, -0.17292939126491547, 0.054271165281534195, 0.08775299042463303, -0.004642765037715435, -0.18176467716693878, -0.018104348331689835, -0.06146641820669174, -0.05523943901062012, 0.011785128153860569, -0.1422373652458191, 0.03159729391336441, -0.05251433327794075, 0.05137940123677254, 0.17644062638282776, -0.10772594809532166, 0.04616664722561836, 0.025034727528691292, -0.005174364894628525, 0.03929934650659561, -0.14670607447624207, 0.08943215012550354, -0.1576537936925888, -0.028894348070025444, -0.10066455602645874, 0.08156503736972809, 0.16216760873794556, -0.06974607706069946, -0.022999215871095657, 0.03884319216012955, -0.04997871071100235, 0.0019035080913454294, 0.04515998810529709, 0.019958727061748505, -0.10801468044519424, 0.15712270140647888, 0.08110696077346802, -0.1416139304637909, -0.06181009113788605, 0.15381918847560883, 0.11636422574520111, 0.07409776747226715, -0.01762884296476841, 0.1517672836780548, -0.09590303897857666, 0.026166271418333054, -0.11211486160755157, -0.1006736159324646, -0.028694020584225655, 0.15445944666862488, -0.005721519701182842, 0.10361873358488083, 0.0409880205988884, 0.06792561709880829, 0.12057900428771973, 0.029782984405755997, 0.07152244448661804, 0.09981811046600342, 0.021508071571588516, 0.057194072753190994, -0.2766449451446533, 0.05367055535316467, 0.13692741096019745, 0.022892851382493973, -0.025529948994517326, 0.056514400988817215, 0.15802669525146484, 0.032850176095962524, 0.0437108539044857, -0.023056769743561745, 0.0008015529601834714], [0.04165106639266014, 0.0012003799201920629, -0.1763705313205719, -0.19346794486045837, 0.07149750739336014, -0.00034543423680588603, 0.07819927483797073, 0.055473409593105316, -0.02235068380832672, 0.07201659679412842, -0.17878413200378418, -0.1340726613998413, -0.0870443657040596, 0.05712263658642769, 0.04164055734872818, 0.11688876152038574, 0.039018336683511734, 0.11585036665201187, -0.02500261552631855, 0.1178676187992096, 0.11157473176717758, -0.12188778817653656, 0.07191777974367142, 0.06641291826963425, -0.026829620823264122, -0.03888646885752678, -0.07842324674129486, -0.011587642133235931, 0.0005374302272684872, 0.04867889732122421, 0.09090286493301392, 0.1238696500658989, -0.004390651360154152, 0.012149264104664326, 0.142356738448143, 0.0019490831764414907, -0.0020365137606859207, 0.03369929641485214, -0.06682398915290833, -0.04979020729660988, -0.1506572812795639, -0.0016990647418424487, -0.2242756336927414, 0.12156311422586441, -0.027170483022928238, 0.06502953916788101, -0.0983365923166275, 0.2052888423204422, 0.11646778881549835, 0.03189660981297493, 0.22284789383411407, -0.014109120704233646, 0.03564246743917465, 0.03487930819392204, -0.25079646706581116, -0.03362419828772545, 0.12022677809000015, 0.004735065624117851, -0.10640319436788559, -0.08614964783191681, 0.05500475689768791, -0.07781235128641129, 0.01215490885078907, 0.06886512041091919, -0.0999864786863327, 0.06956649571657181, 0.12057457864284515, 0.07048002630472183, 0.1303289532661438, -0.02253713645040989, -0.040079087018966675, 0.14402054250240326, -0.006517115514725447, -0.07525935769081116, -0.07876638323068619, 0.04335365444421768, -0.042028382420539856, -0.07533521205186844, -0.035367414355278015, -0.18448306620121002, 0.023387117311358452, 0.049592677503824234, -0.03353162854909897, 0.059400275349617004, 0.08907002955675125, -0.14675547182559967, -0.19692988693714142, 0.054057199507951736, -0.055300455540418625, 0.08999624848365784, 0.1121336966753006, -0.021135613322257996, -0.018916210159659386, 0.11420391499996185, -0.12392902374267578, -0.1014115959405899, 0.0861494243144989, 0.05395643413066864, 0.2540438771247864, -0.112179234623909, -0.007871294394135475, 0.02722906321287155, 0.004665300715714693, -0.061829470098018646, -0.02909458801150322, -0.0809779167175293, 0.043972525745630264, -0.08892616629600525, -0.00390293775126338, -0.034934744238853455, 0.03529633581638336, -0.009800749830901623, -0.03371773660182953, 0.13577786087989807, 0.015230938792228699, -0.022963104769587517, -0.1288294792175293, -0.09331349283456802, 0.023273855447769165, 0.036432333290576935, 0.006183617282658815, 0.05156836658716202, 0.014159188605844975, -0.07036282867193222, -0.15659360587596893, -0.017945686355233192, -0.056174494326114655, -0.08570407330989838], [0.03653109446167946, -0.003791581140831113, 0.009083579294383526, 0.015826880931854248, -0.08881189674139023, 0.1171475499868393, 0.20636634528636932, 0.11693345755338669, 0.0857633724808693, -0.02064685709774494, -0.0933617651462555, -0.08183575421571732, 0.04310798645019531, -0.24169985949993134, 0.028136754408478737, 0.17763878405094147, 0.07239694893360138, 0.22097188234329224, -0.08234528452157974, 0.08882276713848114, 0.0843791738152504, -0.1506318897008896, 0.01906619220972061, 0.0018626028904691339, 0.11015486717224121, -0.008975634351372719, 0.12195762246847153, -0.01805512234568596, 0.10274238884449005, -0.02779478393495083, 0.0766570046544075, 0.08304574340581894, 0.1674957573413849, 0.22885823249816895, 0.024766532704234123, 0.0876670777797699, 0.006841146387159824, 0.006391758564859629, 0.06092644855380058, -0.017080336809158325, -0.14485812187194824, -0.13744519650936127, -0.06644727289676666, 0.046174999326467514, -0.022209620103240013, 0.14895322918891907, 0.03319238871335983, -0.04908914864063263, 0.13769833743572235, 0.1041480228304863, 0.28970739245414734, 0.027455583214759827, -0.19509759545326233, 0.18584784865379333, -0.07125574350357056, -0.059287477284669876, 0.2168177217245102, -0.08400903642177582, -0.06375952064990997, 0.11672825366258621, 0.05331753194332123, -0.0994006022810936, -0.10394148528575897, 0.034414008259773254, -0.09737388044595718, -0.07277315109968185, 0.05959611013531685, -0.00026174960657954216, 0.1354299932718277, -0.16447146236896515, -0.11321891844272614, -0.15704239904880524, -0.02522805891931057, -0.0058404929004609585, -0.12965211272239685, 0.014385195448994637, -0.05298124626278877, -0.03339136764407158, -0.0841594785451889, -0.03696858882904053, -0.10387727618217468, -0.11620022356510162, -0.016225654631853104, -0.034306831657886505, 0.03048267401754856, 0.015015644952654839, 0.11201896518468857, 0.07418017089366913, -0.14491203427314758, 0.05434761941432953, 0.0813659057021141, -0.003074438078328967, 0.25590190291404724, 0.004189070779830217, -0.23132067918777466, 0.02890896610915661, 0.20817291736602783, 0.17740564048290253, -0.1010255292057991, -0.05109680816531181, 0.11061710119247437, -0.029418010264635086, 0.13291551172733307, -0.07092992216348648, 0.10028224438428879, -0.043137047439813614, -0.010818179696798325, -0.03889428824186325, 0.09498490393161774, -0.014023429714143276, 0.03594185784459114, -0.07786878943443298, 0.08047736436128616, 0.08694075793027878, 0.20301787555217743, -0.046776656061410904, 0.006792414002120495, -0.11582818627357483, -0.13753409683704376, 0.10639064013957977, -0.00495594646781683, -0.013878918252885342, 0.09702900797128677, 0.10760615020990372, 0.030385414138436317, 0.10309499502182007, -0.006500624120235443, 0.024362482130527496], [0.0646573156118393, -0.05732100084424019, -0.0433003194630146, -0.21003952622413635, -0.08574913442134857, 0.05193863436579704, -0.0013801869936287403, 0.23761172592639923, 0.022000262513756752, 0.07199029624462128, 0.011544162407517433, -0.023602662608027458, 0.011685563251376152, -0.19004806876182556, -0.04017472639679909, -0.014190991409122944, 0.032991018146276474, 0.015342969447374344, 0.016899891197681427, 0.042860399931669235, 0.18964286148548126, 0.055420901626348495, -0.0731644257903099, -0.0062597948126494884, 0.25260815024375916, -0.08083588629961014, 0.051845651119947433, 0.07534660398960114, 0.34269365668296814, -0.06501813977956772, 0.07099331170320511, 0.04854797571897507, 0.03822058439254761, 0.1375766396522522, -0.012189293280243874, 0.058679476380348206, 0.09218050539493561, -0.14470618963241577, -0.0004693597729783505, -0.11493019759654999, -0.11963512003421783, 0.02336825057864189, 0.19185999035835266, -0.23540134727954865, -0.06685663759708405, 0.07392844557762146, 0.048937104642391205, 0.04273779317736626, -0.021091632544994354, 0.1948672980070114, 0.34675729274749756, -0.03821961209177971, 0.07716801017522812, -0.12893670797348022, 0.04828743264079094, -0.011836580000817776, -0.03203320875763893, 0.03017243556678295, -0.16268040239810944, 0.025641396641731262, 0.09629975259304047, -0.2888161540031433, 0.1343604326248169, 0.04506358131766319, -0.14347974956035614, -0.1238550916314125, -0.032454073429107666, -0.126881405711174, -0.11596179753541946, 0.15437360107898712, -0.07831818610429764, 0.07181711494922638, -0.056679386645555496, 0.08150365948677063, -0.03582959622144699, -0.0520295612514019, 0.06637466698884964, -0.2126486599445343, 0.03483174368739128, -0.13477730751037598, 0.03594806417822838, 0.06974980235099792, 0.057087261229753494, 0.18895010650157928, -0.001584933721460402, 0.05471820756793022, -0.02906879596412182, -0.07626927644014359, -0.023255271837115288, 0.16365371644496918, 0.10033661872148514, 0.06577511876821518, -0.008184301666915417, -0.09868088364601135, 0.009511386044323444, -0.018560532480478287, -0.06757253408432007, 0.06589072942733765, -0.33022254705429077, -0.014971449971199036, -0.022434396669268608, -0.15630657970905304, 0.12796004116535187, -0.05029771476984024, -0.014753444120287895, 0.0624973438680172, 0.0377097949385643, -0.02533751353621483, 0.03275240212678909, -0.00990382581949234, 0.1338198184967041, -0.04170515015721321, 0.054273009300231934, -0.053897250443696976, -0.007904569618403912, 0.07110891491174698, -0.06553137302398682, 0.03966423496603966, -0.01338166557252407, 0.12040765583515167, 0.032647330313920975, -0.07872866094112396, -0.042153336107730865, 0.11185606569051743, 0.0043659633956849575, 0.03806677833199501, 0.019594399258494377, -0.08819550275802612], [0.18045921623706818, 0.010446947999298573, 0.08856301009654999, 0.04602052643895149, 0.014603691175580025, -0.04584505781531334, 0.07690668851137161, 0.14739753305912018, -0.1804412454366684, 0.007397529669106007, -0.03225373104214668, -0.06565938144922256, 0.08301488310098648, -0.13911423087120056, 0.03988456726074219, -0.03150104358792305, -0.15743431448936462, -0.12338003516197205, 0.05472408980131149, -0.017202887684106827, -0.09569326043128967, 0.2424168735742569, 0.03537774085998535, -0.18000428378582, -0.1506805568933487, 0.0038793659768998623, 0.09160592406988144, 0.08241096138954163, -0.11594126373529434, 0.15279237926006317, -0.1242671087384224, -0.17127521336078644, 0.007874555885791779, -0.1262146234512329, -0.11178113520145416, 0.03397413343191147, -0.06165189668536186, -0.020595209673047066, -0.0027791692409664392, 0.22758425772190094, 0.11625169962644577, -0.012734649702906609, -0.11430735886096954, -0.13256657123565674, -0.018514646217226982, -0.05731123685836792, -0.039893247187137604, 0.04115326702594757, -0.23126854002475739, 0.08194507658481598, -0.05818624049425125, 0.02052125334739685, -0.12098876386880875, 0.07964596897363663, 0.16559478640556335, 0.06112585961818695, -0.09522363543510437, -0.0344541072845459, 0.16208146512508392, 0.1964254081249237, -0.09152080863714218, -0.13651913404464722, 0.026608046144247055, 0.00429486483335495, 0.037153929471969604, -0.0027849695179611444, 0.1567426472902298, 0.07045089453458786, 0.07385963201522827, 0.1537919044494629, -0.2710264027118683, -0.1257665455341339, 0.07915704697370529, -0.046045057475566864, -0.05050969868898392, 0.08545439690351486, 0.05604195594787598, 0.12471500784158707, -0.05657557398080826, 0.12769187986850739, 0.05817042291164398, -0.0005872611654922366, -0.07861799746751785, 0.13766388595104218, -0.009337056428194046, -0.03563810884952545, -0.04759468883275986, -0.045682378113269806, -0.14530061185359955, -0.012396050617098808, 0.1398569494485855, -0.15380653738975525, -0.24822476506233215, 0.03141963109374046, -0.02930108644068241, 0.0896163284778595, -0.030286772176623344, 0.22904284298419952, 0.015947818756103516, -0.11986902356147766, 0.06249504163861275, -0.08613245189189911, 0.032039619982242584, -0.029841654002666473, -0.005169191397726536, 0.044815052300691605, -0.09694331884384155, -0.004806041717529297, 0.19590072333812714, 0.13897177577018738, 0.07710401713848114, -0.07220117002725601, 0.21998415887355804, -0.0012293837498873472, 0.11813758313655853, 0.10792119055986404, -0.10520356148481369, -0.0978136658668518, -0.0830296203494072, -0.05126873031258583, 0.03934498876333237, 0.015113762579858303, -0.1134578287601471, -0.10964027792215347, 0.08745279908180237, -0.021037045866250992, -0.092534139752388, -0.20724552869796753], [0.10492755472660065, -0.14586704969406128, 0.2702549397945404, -0.02621760405600071, 0.14317107200622559, -0.13265332579612732, -0.05315384641289711, 0.04213108867406845, -0.11344810575246811, 0.05961250513792038, -0.07509378343820572, 0.1480654627084732, 0.0869412049651146, 0.04399560019373894, 0.08565238863229752, -0.07995662093162537, -0.43259626626968384, -0.005606149323284626, 0.0680631771683693, 0.08537537604570389, -0.15886835753917694, 0.04317094758152962, -0.07294875383377075, -0.10390724241733551, -0.0415949709713459, -0.10430657863616943, 0.1423128843307495, -0.05954785645008087, -0.184356227517128, 0.04055385664105415, 0.025438426062464714, 0.050638049840927124, -0.15386921167373657, -0.033915355801582336, -0.1868906319141388, 0.003066680859774351, 0.031120451167225838, -0.10970818251371384, -0.008362219668924809, 0.020186442881822586, -0.008298692293465137, 0.09081986546516418, 0.14850854873657227, -0.054964613169431686, -0.09363880008459091, -0.12456155568361282, -0.09546633064746857, -0.15992766618728638, 0.08324132859706879, -0.10984978824853897, -0.012797579169273376, 0.06552641093730927, 0.05851643532514572, 0.049141474068164825, 0.0261203795671463, -0.020303886383771896, -0.11036047339439392, 0.007226978428661823, 0.044805534183979034, 0.020710621029138565, 0.008932049386203289, 0.19770710170269012, 0.07050793617963791, 0.019539041444659233, -0.037511371076107025, -0.09938003122806549, -0.13441313803195953, 0.05342740938067436, -0.023089393973350525, 0.05353720113635063, 0.0608430951833725, -0.1265997439622879, -0.0210558008402586, -0.019318077713251114, 0.02538652904331684, 0.009333404712378979, -0.060407668352127075, 0.008410564623773098, -0.13741903007030487, 0.028507545590400696, -0.004414753522723913, -0.12553715705871582, 0.023871148005127907, 0.027408583089709282, 0.0688760057091713, 0.09725771844387054, 0.20247425138950348, -0.0038106816355139017, -0.03538626432418823, 0.002739987103268504, -0.09239188581705093, -0.03088003769516945, -0.07549212127923965, -0.13009032607078552, 0.15799273550510406, 0.04023328796029091, -0.2124079465866089, -0.15589970350265503, -0.08968572318553925, 0.08476406335830688, -0.08251888304948807, -0.24417981505393982, -0.006453292444348335, -0.03508853167295456, -0.11201827973127365, 0.06238548085093498, 0.03974377363920212, -0.037163395434617996, 0.0638670101761818, 0.11327855288982391, 0.05731606110930443, 0.047033559530973434, -0.16506913304328918, 0.061296943575143814, -0.14490893483161926, 0.11241354048252106, -0.034730881452560425, 0.13946537673473358, -0.018851447850465775, 0.10868866741657257, 0.04463900625705719, 0.03023914061486721, 0.05612320452928543, 0.29795923829078674, 0.1256890594959259, -0.07442115247249603, 0.010366673581302166, 0.10553782433271408], [-0.21795377135276794, -0.12229591608047485, 0.02843964844942093, 0.02164996974170208, 0.06300336122512817, -0.03778460994362831, -0.06859839707612991, 0.03903879597783089, 0.0789647102355957, -0.15829263627529144, -0.08353324979543686, -0.005405972246080637, -0.06514093279838562, 0.37250053882598877, 0.05622008815407753, -0.07042822986841202, -0.23868675529956818, -0.07638578116893768, 0.10729686170816422, 0.054439324885606766, 0.060483671724796295, -0.051012687385082245, 0.02863895893096924, 0.012960012070834637, -0.06407039612531662, 0.04373167082667351, -0.005255318246781826, 0.0922875627875328, -0.05669799819588661, 0.018458204343914986, -0.11733903735876083, -0.0655084028840065, 0.06819376349449158, 0.04490286856889725, 0.020870929583907127, -0.12898503243923187, -0.11975575983524323, 0.12671047449111938, -0.05374487116932869, -0.025766517966985703, -0.20667921006679535, 0.17665857076644897, -0.027400696650147438, 0.016657467931509018, 0.08366342633962631, -0.15360862016677856, -0.18352459371089935, -0.02311673015356064, 0.1182250902056694, -0.1329013705253601, -0.18543091416358948, -0.007610999047756195, -0.11095669865608215, -0.009923593141138554, -0.07383361458778381, -0.009828293696045876, 0.13526715338230133, -0.024875037372112274, -0.09848775714635849, -0.07549259066581726, 0.001561298267915845, 0.07896847277879715, -0.07633713632822037, -0.07320011407136917, 0.026234228163957596, 0.09556472301483154, -0.16717277467250824, -0.017666658386588097, -0.026517177000641823, -0.12091295421123505, 0.022028762847185135, 0.03433883935213089, 0.0050172824412584305, -0.08181660622358322, 0.07533857971429825, -0.017200486734509468, -0.011528583243489265, -0.05584485083818436, -0.005388269200921059, 0.00010845906945178285, -0.04774271696805954, 0.04268266633152962, 0.042243070900440216, 0.10595307499170303, -0.002596067264676094, -0.04437632858753204, 0.30103448033332825, 0.08418946713209152, -0.13374629616737366, 0.23499687016010284, -0.007608644664287567, -0.07758498191833496, -0.07208702713251114, -0.08708663284778595, 0.00821217056363821, 0.1239597424864769, -0.0329466238617897, -0.06384635716676712, -0.0058032069355249405, -0.07427278906106949, -0.10433819144964218, -0.016385888680815697, -0.13320833444595337, 0.05158388987183571, -0.12342434376478195, -0.01376175694167614, 0.01663801446557045, -0.14462491869926453, -0.023655643686652184, -0.09896933287382126, -0.01205349713563919, 0.00279406551271677, 0.05217718333005905, 0.10898042470216751, -0.17234833538532257, 0.08292379975318909, -0.003930746577680111, 0.07678260654211044, 0.009280713275074959, -0.09264831990003586, -0.023192159831523895, 0.05706389993429184, -0.056803591549396515, -0.08528001606464386, 0.022696202620863914, 0.027260975912213326, 0.028473682701587677, -0.02716955915093422], [-0.03356918320059776, -0.07995294779539108, -0.07062921673059464, -0.06856778264045715, 0.02428882196545601, -0.022132184356451035, -0.13086272776126862, 0.2153642326593399, -0.057019539177417755, -0.09331953525543213, -0.03667334094643593, 0.06687837839126587, -0.11968378722667694, -0.09473678469657898, 0.0649401843547821, -0.23306904733181, -0.0013011906994506717, -0.14034207165241241, 0.06880438327789307, -0.14453963935375214, 0.10914791375398636, -0.01803174428641796, -0.1581820696592331, 0.05868323892354965, -0.12499679625034332, 0.08482154458761215, -0.007184585556387901, 0.06388012319803238, -0.048897575587034225, 0.09143366664648056, 0.008275575004518032, 0.006492623593658209, -0.10132943838834763, 0.010084429755806923, 0.1672849953174591, -0.05207115411758423, 0.06863446533679962, -0.15514527261257172, 0.05014961585402489, -0.3460865914821625, -0.19643430411815643, 0.12251059710979462, -0.1583365499973297, 0.03328416496515274, 0.0725848600268364, 0.17870844900608063, -0.02358289249241352, 0.06931770592927933, 0.003492802381515503, -0.09695953130722046, -0.13078469038009644, 0.045691460371017456, -0.04536397010087967, 0.09126092493534088, -0.0920494794845581, -0.03979305550456047, -0.10298643261194229, -0.11844790726900101, 0.03523790091276169, -0.09698140621185303, -0.0685335174202919, -0.16874219477176666, -0.227973073720932, 0.003013427834957838, 0.07070339471101761, -0.08968338370323181, 0.052471719682216644, 0.04659542441368103, 0.03383328393101692, 0.01687549613416195, -0.07935552299022675, 0.2997724413871765, 0.04785500466823578, -0.05411886051297188, -0.010602678172290325, -0.15000295639038086, -0.20235885679721832, 0.27129462361335754, -0.06428619474172592, -0.1062931939959526, 0.048244182020425797, 0.1256350576877594, 0.05130107328295708, 0.07116805016994476, 0.17012262344360352, 0.0563056617975235, -0.12244401127099991, 0.010186360217630863, 0.18276582658290863, 0.05085562914609909, -0.09296232461929321, 0.01291595958173275, -0.09839607030153275, 0.0056485761888325214, 0.031915176659822464, 0.0015670974971726537, -0.03237418830394745, -0.02293628267943859, -0.09455301612615585, 0.11394849419593811, 0.25714659690856934, -0.11484783887863159, -0.1558835655450821, 0.1075412705540657, -0.14964686334133148, -0.04800207167863846, 0.019412223249673843, 0.10131452232599258, -0.036932285875082016, 0.07109653204679489, -0.045274652540683746, -0.014622019603848457, -0.1258053183555603, 0.08290311694145203, -0.11814472079277039, 0.023542817682027817, -0.11248080432415009, -0.023269109427928925, 0.05553339049220085, 0.042084842920303345, 0.02400505542755127, 0.009714989922940731, -0.014839942567050457, 0.0017512814374640584, 0.11259403079748154, 0.07926522940397263, 0.05904857814311981, 0.07464450597763062]], "down.1.weight": [[-0.19789765775203705, -0.05032200366258621, 0.06442943215370178, 0.1358105093240738, -0.04247686266899109, -0.11097808927297592, -0.06537382304668427, -0.14589951932430267, 0.057741131633520126, 0.04193627089262009, 0.28212255239486694, -0.011839202605187893, -0.026149379089474678, -0.006940897088497877, -0.21367821097373962, -0.06689342111349106, 0.04946108162403107, -0.09785117954015732, -0.03260364755988121, -0.07440467178821564, -0.016047144308686256, -0.07738841325044632, 0.05604245886206627, 0.04500669240951538, 0.06470135599374771, -0.05126785859465599, -0.06259512901306152, -0.021034130826592445, 0.19042818248271942, 0.08298229426145554, 0.028475817292928696, -0.061622846871614456, 0.0018985391361638904, -0.08180399239063263, -0.01539627369493246, 0.0915602296590805, -0.022214950993657112, 0.04868214949965477, 0.00792708620429039, 0.05551610141992569, 0.0834796279668808, 0.12511171400547028, 0.10488349944353104, 0.14613953232765198, -0.007354759145528078, 0.203526571393013, -0.07984067499637604, 0.13088922202587128, 0.23033475875854492, 0.12933290004730225, -0.0465269535779953, 0.09165003150701523, 0.05266732722520828, -0.002346427645534277, 0.039340145885944366, 0.05046199634671211, -0.07219579070806503, -0.018959909677505493, 0.0014502104604616761, 0.008568041026592255, 0.060942284762859344, 0.11987823247909546, 0.1325661540031433, 0.07877741754055023, -0.1203913688659668, 0.12351931631565094, -0.020755646750330925, -0.03514162078499794, -0.09424528479576111, -0.03961710259318352, -0.12633627653121948, 0.011527647264301777, -0.06236874312162399, -0.0008661349420435727, -0.2668209969997406, 0.006973910145461559, 0.0642063096165657, -0.10234037786722183, -0.024056879803538322, -0.08173593878746033, -0.030940867960453033, -0.05835224688053131, 0.11714387685060501, 0.032615963369607925, -0.020886821672320366, -0.02127186581492424, -0.07415108382701874, -0.012856428511440754, -0.059260495007038116, -0.12965555489063263, 0.028661487624049187, -0.06015215814113617, 0.12440942972898483, 0.03337370976805687, -0.0009378647082485259, -0.06628375500440598, -0.09650950133800507, -0.03978634625673294, 0.07032857835292816, -0.10039971768856049, -0.016727278009057045, -0.09666693955659866, -0.03848365694284439, 0.02479873225092888, -0.07165972143411636, -0.06961944699287415, -0.11844561994075775, -0.11216177046298981, -0.1927517056465149, 0.09836386144161224, 0.012475945986807346, 0.044665735214948654, -0.09380698949098587, 0.005852608010172844, -0.05127871036529541, 0.03469659015536308, 0.01617414690554142, 0.12226846069097519, 0.027144378051161766, 0.02842772752046585, 0.13311301171779633, -0.03584115952253342, -0.08691328763961792, 0.012110310606658459, 0.02321450226008892, 0.03007965348660946, -0.08063468337059021, 0.03990619257092476], [0.07624026387929916, -0.08374837040901184, -0.012783517129719257, -0.12402720749378204, -0.05266321823000908, -0.03835083544254303, 0.0995497852563858, -0.09221915900707245, 0.13773933053016663, 0.041851598769426346, -0.08812052756547928, -0.02733740210533142, -0.048852790147066116, 0.1396106332540512, 0.10646697133779526, 0.09153889119625092, -0.1827724128961563, 0.06086655706167221, 0.06459727138280869, -0.002314723562449217, -0.0018056927947327495, -0.08249227702617645, 0.10735850781202316, 0.07530193775892258, 0.03048272617161274, 0.03720895200967789, 0.03534810245037079, -0.16373425722122192, -0.046258069574832916, -0.07660222798585892, -0.06304506212472916, 0.04531927406787872, -0.01749071665108204, -0.06581247597932816, 0.023467084392905235, 0.08870000392198563, 0.04890890046954155, 0.05009488761425018, -0.031161123886704445, -0.14422529935836792, 0.09125778824090958, -0.11049214750528336, -0.07821124792098999, 0.04881354048848152, 0.062033332884311676, 0.042036835104227066, -0.06413483619689941, 0.1063825935125351, -0.002308314898982644, 0.13765180110931396, 0.023830372840166092, 0.1167779266834259, 0.07491900771856308, -0.07296375930309296, -0.06341701745986938, -0.06826495379209518, 0.11859329044818878, 0.17392802238464355, 0.02589537762105465, -0.027980128303170204, -0.024447057396173477, -0.01398992259055376, -0.12192249298095703, -0.03997288644313812, -0.06574603915214539, -0.06746740639209747, -0.09963707625865936, -0.14100217819213867, -0.04168003052473068, 0.02312724106013775, 0.16788959503173828, 0.09470656514167786, 0.06741776317358017, -0.12421954423189163, 0.2039865106344223, -0.12054003030061722, 0.06436138600111008, -0.05526541545987129, 0.04241476207971573, -0.022798700258135796, 0.08106517046689987, 0.04324917867779732, -0.008553136140108109, -0.05376698449254036, 0.05241011455655098, -0.1543634533882141, 0.11412937194108963, 0.06389448046684265, 0.0617653988301754, 0.19916321337223053, 0.10850924998521805, -0.057458534836769104, -0.2121826410293579, -0.03707711398601532, -0.0856168270111084, -0.007018272764980793, 0.12788578867912292, 0.037379395216703415, -0.1489073783159256, 0.1344095766544342, 0.052258849143981934, 0.12480080872774124, 0.15878576040267944, -0.012872773222625256, 0.019184529781341553, -0.08197604864835739, 0.12614279985427856, 0.07717781513929367, -0.011333354748785496, -0.15378889441490173, 0.0516677163541317, 0.11615815758705139, -0.048385389149188995, -0.010901627130806446, -0.1251213401556015, -0.08347678929567337, 0.036489009857177734, 0.13530610501766205, 0.12215080112218857, 0.10983938723802567, 0.013639602810144424, 0.06583329290151596, -0.030889181420207024, 0.006932179909199476, -0.029536353424191475, 0.004344739485532045, 0.01437887828797102, 0.09838984161615372], [-0.028002019971609116, 0.00043485566857270896, 0.07137506455183029, -0.004734694957733154, -0.15670214593410492, 0.02035488747060299, -0.10402897000312805, 0.03353651612997055, 0.12862038612365723, 0.05143631994724274, 0.07996170967817307, -0.05281383544206619, 0.0715552568435669, 0.10356990247964859, 0.08474381268024445, -0.10722843557596207, 0.05390718951821327, 0.007534592878073454, 0.1712711900472641, -0.13776648044586182, 0.051564618945121765, -0.06688492000102997, 0.14768873155117035, 0.0983024463057518, -0.15362390875816345, -0.05012917146086693, -0.24774478375911713, -0.1185704842209816, -0.31851646304130554, 0.07164572924375534, 0.07399650663137436, -0.229625403881073, -0.1229935958981514, 0.01243614312261343, 0.055809568613767624, 0.05450163036584854, -0.13205575942993164, -0.08568742126226425, -0.26388609409332275, -0.03776177018880844, 0.030403723940253258, 0.017304055392742157, -0.07678590714931488, -0.1282046139240265, -0.04413362592458725, 0.2641085684299469, 0.1017882227897644, 0.08300509303808212, 0.006029962096363306, 0.0268363319337368, -0.07652905583381653, -0.01310865581035614, 0.06427115947008133, -0.32193800806999207, 0.10581987351179123, -0.013834917917847633, -0.05889487639069557, -0.014239032752811909, 0.2230788767337799, -0.0681724026799202, -0.003881204640492797, -0.09222147613763809, 0.04474368318915367, -0.0873471349477768, 0.21581806242465973, 0.19036342203617096, -0.11814215034246445, -0.0011966167949140072, 0.020151596516370773, -0.11861848086118698, 0.012766976840794086, -0.05291058495640755, -0.00783719215542078, 0.06038296967744827, 0.03394317254424095, 0.0841442123055458, -0.18177670240402222, -0.14495378732681274, 0.034536898136138916, -0.019969400018453598, 0.03077828139066696, 0.18292538821697235, -0.025714583694934845, 0.025492390617728233, 0.06027636677026749, 0.05700958892703056, 0.10765832662582397, -0.05041196197271347, 0.08758263289928436, -0.04555004462599754, -0.11180998384952545, 0.0319429412484169, -0.07199566066265106, -0.027755271643400192, 0.10602510720491409, -0.016691895201802254, -0.04553177207708359, 0.01930251345038414, -0.013898027129471302, -0.10804792493581772, -0.022934503853321075, -0.07747548818588257, -0.16085068881511688, -0.011611237190663815, 0.03359997645020485, -0.17281252145767212, 0.01742762140929699, 0.013552292250096798, -0.1112983226776123, -0.08712358772754669, -0.0804072842001915, -0.11405989527702332, 0.029154134914278984, -0.25120094418525696, 0.09231168031692505, -0.10448120534420013, -0.13395631313323975, -0.062346041202545166, -0.018455294892191887, -0.10806518793106079, -0.004010409116744995, 0.07732754945755005, -0.06304040551185608, -0.0693250223994255, -0.07423585653305054, -0.12640580534934998, -0.05566946044564247, -0.0018269338179379702], [0.1015927717089653, -0.0840691477060318, 0.0038720027077943087, 0.046024125069379807, -0.11815788596868515, 0.04103551059961319, 0.1079629510641098, 0.053648531436920166, -0.06500150263309479, 0.04514593631029129, -0.12060254067182541, -0.09706711769104004, -0.02097807452082634, 0.0894048735499382, 0.24847449362277985, -0.005914327222853899, -0.0031169294379651546, -0.13930438458919525, -0.06401514261960983, -0.09235862642526627, 0.01492469571530819, -0.06260225921869278, 0.180794358253479, -0.04013025015592575, 0.1244993507862091, 0.07305069267749786, -0.010899610817432404, -0.03452063351869583, 0.28445157408714294, -0.06933024525642395, -0.22472184896469116, -0.04529077559709549, 0.05554038658738136, 0.09427812695503235, -0.1317962408065796, -0.04780924692749977, -0.02583881840109825, -0.049350298941135406, 0.05946728587150574, -0.10764194279909134, -0.15359611809253693, 0.024647852405905724, -0.13113048672676086, 0.06318119913339615, 0.14758673310279846, -0.004235349595546722, 0.2321426421403885, -0.06432856619358063, -0.16901452839374542, 0.1057773008942604, 0.1267225593328476, 0.04049649089574814, -0.056422214955091476, 0.3694015443325043, -0.08368183672428131, 0.12788081169128418, -0.04751570522785187, 0.12705059349536896, -0.15744508802890778, 0.06482087820768356, -0.06346666812896729, -0.02221374586224556, -0.16716307401657104, 0.014646150171756744, -0.011015678755939007, 0.06795946508646011, 0.03441791981458664, 0.07867700606584549, 0.028419116511940956, 0.23075193166732788, -0.36250820755958557, 0.109487384557724, -0.031732577830553055, -0.10125033557415009, 0.2168792486190796, -0.027209602296352386, -0.015083745121955872, 0.0160085279494524, -0.0745219737291336, -0.025377938523888588, -0.00014147968613542616, 0.04323315620422363, -0.03221707418560982, 0.03285253047943115, 0.14717532694339752, 0.11907237023115158, 0.07352335751056671, -0.03206696733832359, -0.07465163618326187, 0.06398113071918488, 0.06463645398616791, -0.05834486708045006, 0.03985021263360977, 0.017892055213451385, -0.003028184873983264, -0.013197760097682476, -0.02327117696404457, 0.04145503416657448, 0.10691820830106735, 0.18747331202030182, 0.007659182883799076, 0.04031887277960777, -0.15875981748104095, -0.011550923809409142, 0.030120497569441795, 0.030109206214547157, -0.056063659489154816, 0.10811197012662888, 0.06807887554168701, 0.13935920596122742, -0.025988619774580002, 0.004687126725912094, 0.10597338527441025, 0.04277164116501808, -0.1308315396308899, -0.20015259087085724, -0.07073476910591125, -0.032379429787397385, 0.08074676245450974, 0.13013191521167755, 0.049683231860399246, -0.07688532024621964, -0.0022883375640958548, 0.20786502957344055, -0.008586150594055653, 0.12018310278654099, -0.010561979375779629, 0.10381026566028595], [-0.006484254729002714, -0.03489983081817627, 0.1283721625804901, 0.03211962431669235, -0.2012513279914856, -0.020649462938308716, -0.00010425349319120869, 0.18267498910427094, -0.014508129097521305, 0.15735630691051483, 0.052308809012174606, -0.011870945803821087, -0.10874231904745102, -0.07565905898809433, 0.14082437753677368, -0.013507841154932976, -0.05022883042693138, 0.00514437910169363, -0.025232721120119095, -0.03835032135248184, 0.025141088292002678, 0.11698590964078903, 0.14941807091236115, -0.06478550285100937, -0.14414940774440765, 0.05505603179335594, 0.12926313281059265, -0.04810996726155281, -0.08631936460733414, 0.005702573340386152, 0.0350823700428009, -0.015379448421299458, 0.023899372667074203, 0.18339292705059052, -0.22569690644741058, -0.0003277013311162591, -0.2056317925453186, -0.0495896153151989, -0.18445907533168793, -0.015132816508412361, 0.16042180359363556, 0.055952608585357666, 0.037788696587085724, 0.044230952858924866, 0.0394340455532074, -0.0002865704882424325, -0.08581627905368805, -0.13264405727386475, -0.10626357793807983, 0.10606711357831955, -0.1297033280134201, -0.13174034655094147, -0.14080344140529633, -0.023813672363758087, 0.005081989802420139, 0.04564446583390236, -0.05019412934780121, 0.028164472430944443, 0.058070022612810135, -0.10261864960193634, 0.017151331529021263, -0.023057900369167328, 0.026414422318339348, -0.09782813489437103, -0.0658673346042633, -0.08363175392150879, 0.04792909696698189, 0.09829285740852356, 0.13736370205879211, 0.05720778927206993, -0.02582777850329876, -0.04341036081314087, 0.017139453440904617, -0.01239290926605463, 0.0648966059088707, -0.15373708307743073, 0.0025796687696129084, 0.020468149334192276, -0.024765046313405037, 0.0938635766506195, -0.02683703973889351, 0.04721794277429581, -0.026869064196944237, -0.2031582146883011, -0.0531664714217186, -0.04631243646144867, 0.09595435857772827, 4.91233731736429e-06, 0.053561389446258545, -0.10421924293041229, -0.03824518993496895, 0.009711988270282745, -0.046962082386016846, -0.08684566617012024, -0.10778868943452835, 0.013264722190797329, -0.09999069571495056, 0.13987213373184204, -0.03516874089837074, 0.07746259868144989, -0.11816210299730301, 0.17467887699604034, 0.017961744219064713, 0.042367320507764816, 0.09753815829753876, -0.004192850552499294, -0.006407288834452629, 0.0367131382226944, 0.04116668924689293, -0.05848098546266556, -0.14157824218273163, -0.07871752977371216, 0.0038658117409795523, -0.11194396764039993, -0.16866207122802734, 0.007876768708229065, 0.07946145534515381, -0.13425859808921814, -0.04946300759911537, -0.016680506989359856, -0.1235290914773941, -0.07410397380590439, -0.14838671684265137, 0.023895427584648132, 0.03482441231608391, 0.06196775287389755, -0.020349888131022453, 0.03020193986594677], [-0.1811179667711258, 0.21587470173835754, -0.009659159928560257, -0.14102046191692352, 0.17276598513126373, -0.024368999525904655, 0.08439931273460388, -0.05239472910761833, 0.18437360227108002, -0.1160866916179657, -0.0005746769602410495, -0.05732365697622299, -0.0377066470682621, 0.10938643664121628, 0.050689946860075, 0.023580804467201233, -0.14932699501514435, 0.024997616186738014, -0.11737582832574844, 0.235928013920784, 0.07227680087089539, -0.037449005991220474, -0.03059154562652111, 0.12835796177387238, 0.02726729027926922, 0.019485853612422943, -0.14343425631523132, 0.10628391057252884, -0.1374332308769226, 0.03230072185397148, 0.03329348564147949, 0.2098943144083023, 0.04622127488255501, 0.10518775880336761, 0.21202534437179565, -0.09476066380739212, -0.04240042343735695, 0.020624449476599693, -0.0534583143889904, -0.020600082352757454, -0.029185468330979347, -0.01095365546643734, 0.06246970221400261, 0.12412042170763016, -0.04323090612888336, -0.10298556834459305, -0.06280634552240372, 0.12201597541570663, -0.21466544270515442, 0.19080404937267303, 0.03771660476922989, 0.07766377180814743, 0.0253869891166687, -0.10459540039300919, -0.08344170451164246, 0.03742977976799011, -0.052940886467695236, -0.029822373762726784, -0.053733330219984055, 0.012278679758310318, -0.13203111290931702, 0.06872155517339706, -0.014619915746152401, -0.09944336861371994, 0.010811199434101582, 0.030262190848588943, -0.19261114299297333, -0.13261829316616058, 0.06520619988441467, -0.037094078958034515, 0.2525077164173126, -0.18837429583072662, -0.06380107253789902, 0.017793120816349983, 0.10609373450279236, 0.0392555333673954, -0.028645504266023636, -0.07782460004091263, -0.02293146774172783, 0.0748610720038414, 0.06314374506473541, -0.172601580619812, 0.12389077991247177, 0.057484034448862076, -0.010800564661622047, -0.0583614781498909, 0.17671413719654083, 0.06762233376502991, 0.046005673706531525, 0.009862639009952545, -0.14151377975940704, -0.07621265202760696, -0.014987885020673275, 0.023165667429566383, -0.002497168490663171, -0.025979844853281975, 0.05191901698708534, -0.03099699318408966, -0.009117210283875465, 0.2143465280532837, -0.05379416421055794, -0.11124597489833832, 0.18346095085144043, -0.09591816365718842, -0.08493788540363312, 0.07846448570489883, -0.04942060634493828, 0.09624993801116943, -0.02416175603866577, 0.01489322166889906, 0.1915440708398819, 0.119108647108078, 0.10151749849319458, -0.06498533487319946, 0.13651643693447113, 0.01990937814116478, 0.15322741866111755, 0.05736810341477394, -0.04707854241132736, 0.06322965025901794, 0.05619189888238907, 0.05224715173244476, 0.07159145176410675, 0.07450544089078903, -0.06188905984163284, 0.13797669112682343, 0.08555123209953308, -0.02130083739757538], [0.07355910539627075, -0.05021554231643677, -0.03032737225294113, -0.059919677674770355, -0.21814700961112976, -0.23919577896595, 0.02304472215473652, 0.16598403453826904, 0.11241263896226883, 0.0994221568107605, 0.17234261333942413, -0.0549158938229084, 0.08241923898458481, -0.10853999853134155, 0.07128975540399551, 0.2234790027141571, 0.0062392898835241795, 0.07887307554483414, -0.05811319500207901, 0.24203521013259888, -0.10056738555431366, -0.14535033702850342, -0.1558450609445572, -0.006206366699188948, 0.04809630662202835, -0.21440909802913666, 0.09864428639411926, -0.17721927165985107, -0.18615899980068207, -0.007089129649102688, -0.14831949770450592, 0.18235206604003906, -0.04079467058181763, 0.11073244363069534, 0.015436702407896519, 0.051501672714948654, -0.03436153382062912, -0.03315015509724617, -0.05720135569572449, 0.014491498470306396, -0.11492069810628891, 0.20455719530582428, -0.11488451808691025, 0.09370122849941254, 0.08141841739416122, 0.24856404960155487, -0.07520944625139236, 0.08397283405065536, 0.05326008424162865, 0.09859827160835266, 0.013939767144620419, 0.06504279375076294, -0.02881534956395626, -0.06364919990301132, -0.05117840692400932, -0.09776536375284195, -0.006923791486769915, 0.17482294142246246, -0.04724839702248573, 0.148883655667305, 0.052271660417318344, -0.21919198334217072, 0.024588244035840034, -0.07867381721735, -0.03953133150935173, -0.048366546630859375, -0.02632826194167137, -0.08042280375957489, 0.05143073573708534, 0.07199811935424805, -0.1813971996307373, 0.07850077748298645, 0.08022991567850113, 0.06233912706375122, 0.1581462174654007, -0.1130116879940033, -0.03828290104866028, -0.09783298522233963, 0.0872802734375, 0.05573954060673714, 0.07676493376493454, -0.06436027586460114, 0.1470983922481537, -0.024764761328697205, -0.029236461967229843, -0.12916311621665955, -0.1370239406824112, -0.17044121026992798, 0.13875722885131836, -0.13847261667251587, 0.08390893042087555, -0.050042323768138885, 0.01207725703716278, 0.040129393339157104, 0.17252112925052643, 0.048409659415483475, 0.008912298828363419, 0.2688288390636444, -0.25036901235580444, 0.027986377477645874, -0.09879422187805176, -0.005395145621150732, -0.060641687363386154, -0.1326720118522644, 0.23527364432811737, 0.0016350174555554986, 0.05816005915403366, 0.00823052879422903, 0.029685260728001595, 0.04856329783797264, 0.013866270892322063, -0.03437889367341995, -0.08068916946649551, 0.130770742893219, -0.009004969149827957, 0.04239461198449135, 0.05810244753956795, -0.10954982042312622, 0.10012660175561905, 0.13520294427871704, 0.030669989064335823, 0.0158675666898489, -0.05991724506020546, 0.08470994979143143, 0.01605096273124218, 0.0969463437795639, 0.1074635237455368, -0.038044273853302], [0.04674385488033295, 0.02763013355433941, -0.12275850027799606, 0.0756436288356781, -0.09522594511508942, 0.013072889298200607, -0.05746295303106308, -0.05547744035720825, -0.18720462918281555, 0.05856263265013695, -0.1087605208158493, -0.10516124963760376, 0.08451122790575027, 0.18470683693885803, 0.04685685411095619, 0.030721595510840416, -0.0031571940053254366, 0.10251331329345703, -0.01701168343424797, -0.030936358496546745, -0.10092616081237793, -0.25306975841522217, 0.04840606078505516, -0.00020559760741889477, -0.002667751396074891, -0.1367356926202774, -0.11390149593353271, -0.06177879869937897, -0.06287115812301636, -0.1032542884349823, 0.15337297320365906, 0.1723680943250656, -0.016863081604242325, 0.0684303343296051, 0.028019702062010765, 0.14022034406661987, 0.01926138810813427, -0.014993295073509216, 0.10113411396741867, -0.044653113931417465, -0.09032869338989258, -0.174833744764328, -0.023178478702902794, 0.019862499088048935, -0.013410484418272972, -0.009349043481051922, 0.01908859796822071, 0.12621113657951355, -0.009404703974723816, 0.04425055906176567, 0.17317409813404083, 0.05084714666008949, -0.16061559319496155, -0.04531226307153702, -0.06625170260667801, 0.11836408078670502, 0.0953335240483284, -0.008871839381754398, -0.15185829997062683, 0.10852599889039993, 0.04395374655723572, -0.02085614763200283, 0.04312336444854736, -0.0669843927025795, -0.11504318565130234, -0.10838063806295395, -0.028288060799241066, -0.2085190862417221, 0.17973797023296356, -0.2034209817647934, 0.009163609705865383, 0.06636988371610641, -0.04747294634580612, 0.051655951887369156, -0.022314032539725304, 0.004380428232252598, -0.07586255669593811, 0.059623461216688156, -0.007203047163784504, -0.25455039739608765, 0.06137216091156006, 0.1787339150905609, -0.021447408944368362, -0.02812900021672249, 0.04320742189884186, 0.06804943829774857, -0.06317344307899475, -0.0009387483005411923, -0.014812608249485493, 0.21332985162734985, 0.05242161080241203, 0.12274105846881866, 0.09355661273002625, 0.06427934020757675, -0.07069206982851028, -0.08478183299303055, 0.04685177281498909, 0.0688425824046135, 0.05554443597793579, 0.010182540863752365, 0.015000713057816029, 0.08569279313087463, 0.14684392511844635, -0.0385812446475029, 0.027537403628230095, -0.028951333835721016, 0.13750019669532776, 0.09636610001325607, 0.10615968704223633, -0.061093300580978394, 0.09292611479759216, 0.005620008334517479, 0.018672402948141098, 0.25111445784568787, -0.20935754477977753, -0.20595064759254456, -0.03587966412305832, -0.001787823042832315, -0.13120567798614502, 0.02704641968011856, -0.03902718797326088, 0.05124553292989731, 0.1485566794872284, -0.021368155255913734, -0.10992694646120071, -0.004359534475952387, 0.039749763906002045, 0.01169047225266695]], "down.2.weight": [[-0.07351211458444595, -0.005957857705652714, 0.084867462515831, -0.17735300958156586, 0.08442263305187225, 0.17422565817832947, -0.052645422518253326, 0.03730958700180054, -0.10164229571819305, -0.01043512299656868, 0.030814802274107933, -0.051615770906209946, -0.026921259239315987, 0.13719570636749268, -0.03553478419780731, 0.03288516029715538, 0.08082487434148788, -0.047148268669843674, -0.127297505736351, 0.08905072510242462, -0.04061375930905342, 0.05296942591667175, -0.112261101603508, 0.04359336569905281, 0.015783999115228653, -0.109187550842762, -0.02453099563717842, -0.001812373986467719, 0.06355483829975128, 0.12249065935611725, 0.08723459392786026, -0.013816130347549915, 0.06576157361268997, 0.05147189274430275, -0.01528656855225563, -0.06327833980321884, -0.034847889095544815, 0.060013845562934875, 0.0794103816151619, 0.16867497563362122, -0.08496269583702087, -0.05019310116767883, -0.0660194605588913, 0.04489351063966751, -0.16994225978851318, -0.032762590795755386, -0.03366462141275406, 0.052549321204423904, 0.028989717364311218, 0.14151397347450256, -0.06194744259119034, -0.09524055570363998, 0.2176244705915451, 0.018428664654493332, -0.12463229894638062, -0.037019990384578705, 0.11061836779117584, -0.04965279996395111, 0.027941301465034485, -0.08202454447746277, -0.07556705176830292, -0.06799045205116272, -0.036674920469522476, -0.02094697766005993, 0.02249903231859207, -0.14738641679286957, 0.006895491387695074, 0.10847611725330353, 0.009570222347974777, -0.10164563357830048, -0.02196403779089451, 0.020508980378508568, -0.028061285614967346, -0.0816153958439827, -0.1660025268793106, 0.12335649132728577, -0.008613486774265766, 0.016031356528401375, -0.0035875546745955944, 0.05573808774352074, -0.07581309229135513, -0.05209668353199959, -0.02096726931631565, -0.1359618455171585, -0.024933192878961563, 0.02482781372964382, -0.06219369173049927, -0.11828501522541046, 0.031239047646522522, 0.04648285731673241, -0.03530188649892807, -0.01897849515080452, -0.043076615780591965, 0.007817631587386131, -0.11292538046836853, -0.010718959383666515, 0.018141187727451324, -0.06089523062109947, -0.10341806709766388, 0.13807706534862518, -0.013250154443085194, -0.06983163207769394, 0.0064964559860527515, -0.148290753364563, 0.04207418113946915, 0.06328661739826202, 0.060460466891527176, 0.061649974435567856, -0.012262812815606594, 0.025627367198467255, 0.0383109524846077, -0.04085974395275116, -0.02685006894171238, -0.03927377611398697, -0.0891742929816246, -0.07653985917568207, -0.06505328416824341, -0.015755094587802887, -0.10899406671524048, 0.04919125884771347, 0.09829523414373398, 0.09447310864925385, -0.0006863728049211204, -0.1500888466835022, -0.08902504295110703, 0.0970655232667923, -0.04564495384693146, 0.013175946660339832], [0.061265330761671066, 0.008315066806972027, 0.02780129201710224, 0.10181369632482529, -0.05070330202579498, -0.02634064108133316, 0.041945554316043854, -0.0006218402413651347, 0.15482556819915771, 0.05119187757372856, 0.05470111221075058, 0.04644010588526726, -0.1268683224916458, -0.10657315701246262, 0.07453522086143494, -0.046572353690862656, -0.08492716401815414, -0.03831074386835098, 0.058453816920518875, -0.0800558477640152, 0.17938990890979767, -0.12339465320110321, 0.1695408970117569, 0.006000567227602005, 0.046687982976436615, 0.08295757323503494, -0.013292115181684494, 0.0386478565633297, 0.062776118516922, 0.056329891085624695, -0.04733668267726898, 0.08927108347415924, -0.1539885401725769, -0.0364094115793705, 0.012319734320044518, -0.015605824999511242, -0.2594035863876343, 0.1333341896533966, 0.2666247487068176, -0.12379731237888336, 0.07199834287166595, 0.07137914001941681, 0.010841677896678448, 0.008263209834694862, 0.03745943680405617, 0.08533015102148056, -0.03505738079547882, -0.10126934200525284, 0.09819026291370392, 0.029040507972240448, -0.0372326634824276, 0.007057080045342445, -0.12905001640319824, 0.11468067765235901, 0.05590515583753586, -0.029450012370944023, -0.1288677453994751, 0.18449456989765167, -0.06674891710281372, 0.054443176835775375, -0.037509236484766006, -0.110259048640728, 0.003998029977083206, -0.09545192867517471, -0.06131403148174286, 0.3230374753475189, 0.024680495262145996, -0.015230459161102772, -0.06923463195562363, 0.11315057426691055, -0.08217741549015045, 0.12476208060979843, 0.07063201069831848, -0.0626993477344513, 0.01826896332204342, -0.11628993600606918, -0.07477360218763351, -0.024973057210445404, -0.06661053001880646, -0.41914767026901245, 0.07432233542203903, -0.035360220819711685, 0.05220901221036911, -0.008186987601220608, 0.060271967202425, -0.0051470170728862286, 0.09237424284219742, -0.04841754585504532, -0.08636458963155746, -0.06870418787002563, 0.010187914595007896, 0.13067412376403809, 0.07227995246648788, 0.0045197815634310246, 0.0789114385843277, 0.0528046190738678, -0.07921937853097916, 0.07099481672048569, 0.1112438440322876, -0.05366092175245285, 0.10037947446107864, 0.10170762985944748, 0.19156603515148163, 0.2066420465707779, 0.10754682868719101, 0.058530572801828384, 0.10342327505350113, -0.045229922980070114, 0.025002002716064453, 0.15435481071472168, -0.08039877563714981, 0.11289715766906738, -0.0915551483631134, -0.10399944335222244, 0.011464366689324379, 0.05084545910358429, 0.05041012167930603, -0.11407141387462616, 0.13573677837848663, -0.023738987743854523, -0.032719314098358154, 0.0794682651758194, 0.05995224788784981, -0.04382873326539993, -0.03550177440047264, 0.015897177159786224, 0.018503494560718536, 0.0375504270195961], [-0.09924089163541794, 0.10591520369052887, 0.1339838057756424, -0.02969113178551197, 0.015499006025493145, -0.03419661149382591, 0.009682966396212578, 0.048964861780405045, -0.08149431645870209, 0.0934000164270401, 0.15104955434799194, 0.16190090775489807, -0.06190504506230354, -0.1474369764328003, 0.053014736622571945, 0.02947680652141571, 0.1563374400138855, -0.08272144943475723, 0.15768633782863617, 0.051576610654592514, 0.05800328776240349, 0.0021819171961396933, 0.06500647962093353, -0.0017388006672263145, -0.038603391498327255, -0.03682776167988777, 0.06024663522839546, 0.07140867412090302, 0.04455000162124634, 0.07843495905399323, -0.05764782056212425, 0.05357562005519867, -0.1720675677061081, 0.0959114357829094, -0.1131453588604927, -0.07890836894512177, -0.1719038337469101, -0.06729564070701599, -0.006413349881768227, 0.04320180416107178, -0.019863208755850792, 0.0498814582824707, 0.10341284424066544, -0.041444286704063416, 0.1155608668923378, 0.013842688873410225, 0.02619335800409317, -0.16657838225364685, -0.05701586231589317, -0.051554255187511444, -0.13922035694122314, 0.02922280877828598, 0.09984782338142395, 0.07456981390714645, 0.1682206392288208, 0.04621908441185951, -0.144041046500206, 0.11267703026533127, 0.1349298655986786, -0.036311063915491104, -0.11389952898025513, -0.07242611795663834, 0.12535373866558075, -0.15198111534118652, 0.05934486165642738, -0.08398962020874023, -0.07515483349561691, -0.15647614002227783, -0.05367589741945267, 0.04233216121792793, -0.04354199022054672, -0.009080558083951473, 0.08702211827039719, -0.04963409900665283, 0.08890268206596375, -0.015613456256687641, -0.06964225322008133, 0.10393965244293213, -0.11738751083612442, -0.0028170645236968994, 0.07699564099311829, 0.0640757754445076, -0.043897438794374466, 0.11933568120002747, -0.017310848459601402, 0.03171233832836151, -0.04296203330159187, 0.03622719645500183, -0.0007434084545820951, -0.12221994996070862, -0.1003945991396904, 0.0477849580347538, -0.02763916365802288, -0.05906316265463829, 0.07420231401920319, 0.1744014173746109, -0.17421159148216248, -0.011453114449977875, -0.09391963481903076, -0.06776733696460724, 0.0998004823923111, -0.03970889002084732, -0.1888192594051361, -0.010921168141067028, -0.0945029929280281, 0.11112353205680847, -0.059228409081697464, 0.008391252718865871, -0.25820937752723694, -0.10873796790838242, -0.06892260164022446, -0.04500493407249451, -0.10384001582860947, 0.07870614528656006, 0.15465080738067627, 0.00255224690772593, -0.005608819890767336, -0.034165095537900925, -0.058583177626132965, 0.009215451776981354, 0.01433994248509407, -0.028861111029982567, -0.08320068567991257, 0.10684998333454132, 0.07360044866800308, -0.043637294322252274, 0.011672316119074821, 0.03650135174393654], [-0.09094557911157608, 0.027040045708417892, -0.02060745656490326, 0.1484358012676239, 0.035645727068185806, -0.10874363034963608, 0.09010466933250427, -0.14500927925109863, -0.24953949451446533, 0.07406684756278992, 0.12338488548994064, -0.008083528839051723, -0.14173439145088196, 0.09846801310777664, -0.01560874655842781, -0.05654987692832947, 0.13834403455257416, 0.08256162703037262, 0.26478904485702515, -0.1562688648700714, 0.1550876349210739, 0.005879505071789026, -0.0006985783693380654, 0.2697403132915497, 0.043718867003917694, 0.031504373997449875, -0.17105750739574432, -0.06572408229112625, -0.07289905101060867, 0.04466528818011284, 0.11540955305099487, -0.1229228526353836, -0.023781567811965942, -0.01587804965674877, -0.0988764688372612, -0.10998357087373734, 0.1279788315296173, -0.03233462944626808, -0.03661658987402916, -0.11594398319721222, -0.024434451013803482, 0.04597815126180649, -0.09894796460866928, -0.060977887362241745, 0.05782761797308922, 0.18498705327510834, 0.16426217555999756, -0.0739101991057396, 0.04755067452788353, 0.05633404478430748, -0.12341020256280899, -0.14607250690460205, -0.15411502122879028, -0.048342835158109665, -0.05648741498589516, -0.03414623811841011, 0.0991571694612503, -0.045296479016542435, 0.08043904602527618, -0.0864015445113182, -0.0003076060675084591, -0.052437204867601395, -0.0952032133936882, -0.04215380176901817, -0.004475484602153301, -0.05835887789726257, -0.11067134886980057, -0.0989181324839592, 0.043963585048913956, 0.09638829529285431, -0.03023707866668701, 0.16005003452301025, 0.099748395383358, -0.053361713886260986, -0.06042449176311493, -0.002229779725894332, -0.021540360525250435, 0.025508329272270203, -0.1302618831396103, -0.3183114230632782, 0.12407499551773071, -0.10384168475866318, -0.0225455854088068, -0.05671136826276779, 0.05550841614603996, 0.14137327671051025, 0.09932614117860794, 0.12679694592952728, -0.005541847087442875, 0.020700929686427116, -0.06738128513097763, 0.05902468040585518, -0.12587003409862518, 0.006548361852765083, -0.029713444411754608, 0.18072356283664703, -0.03408803418278694, -0.1573745161294937, -0.053646624088287354, 0.2832805812358856, 0.18516340851783752, -0.1268596649169922, -0.35099029541015625, 0.08789616823196411, -0.20577992498874664, 0.053903814405202866, -0.011951524764299393, -0.11732420325279236, -0.06149298697710037, 0.19664207100868225, -0.1309249848127365, 0.045710403472185135, -0.2565537691116333, 0.011541679501533508, 0.14761638641357422, 0.16943112015724182, -0.27403292059898376, 0.10825634747743607, 0.04259709268808365, -0.011674107052385807, -0.13988140225410461, -0.057273462414741516, -0.09494470804929733, -0.08139746636152267, -0.052009500563144684, 0.025446126237511635, 0.03911774232983589, 0.07840830832719803], [-0.005345943383872509, -0.07594509422779083, -0.07305094599723816, 0.017135515809059143, -0.05192513391375542, 0.02675960771739483, -0.048370081931352615, -0.1404542624950409, -0.24939323961734772, -0.12498641014099121, -0.13075587153434753, 0.023716509342193604, 0.21128657460212708, 0.11896447837352753, -0.11099798232316971, -0.06894584000110626, -0.04764878749847412, -0.08496075868606567, -0.20760397613048553, 0.02074110507965088, 0.06972179561853409, -0.040825847536325455, -0.11461485922336578, 0.10158213973045349, 0.040771182626485825, -0.07516522705554962, -0.038873616605997086, -0.03605614975094795, 0.044578831642866135, 0.24589671194553375, 0.12325853854417801, 0.00872494000941515, 0.04116043448448181, -0.13415050506591797, -0.10017605125904083, 0.09333609789609909, 0.06113153323531151, 0.0061735790222883224, 0.09167259186506271, 0.022113412618637085, -0.03739145025610924, -0.11969524621963501, -0.0028385038021951914, 0.03022165782749653, 0.05872631072998047, 0.024403315037488937, -0.08987890183925629, -0.13885341584682465, -0.08601734787225723, -0.05750623717904091, -0.0872422382235527, -0.024248899891972542, 0.0178288072347641, -0.23027320206165314, -0.06314949691295624, -0.173951655626297, 0.1302436888217926, -0.07356284558773041, -0.03963317722082138, -0.04061151295900345, -0.015718068927526474, 0.042344287037849426, 0.11045888811349869, 0.07834550738334656, -0.07995612919330597, -0.03190784901380539, -0.03761780634522438, 0.13071708381175995, 0.2083241492509842, -0.039512552320957184, 0.10941622406244278, 0.0013296250253915787, -0.1664973795413971, -0.047257907688617706, -0.1171218752861023, 0.07070457935333252, -0.008878017775714397, -0.015075745061039925, 0.18045595288276672, -0.0010572965256869793, -0.09642486274242401, 0.06455470621585846, 0.0811973437666893, -0.021877409890294075, 0.14787410199642181, -0.14885935187339783, 0.07662762701511383, -0.13073785603046417, 0.024989886209368706, 0.02985861524939537, 0.15364167094230652, -0.09251104295253754, -0.001052610925398767, 0.016215912997722626, 0.09005270153284073, 0.02532768063247204, -0.04130617156624794, -0.07520787417888641, -0.1940658539533615, 0.13176199793815613, -0.12292929738759995, 0.1819850206375122, 0.1951725035905838, -0.008490080013871193, 0.21897688508033752, -0.13668298721313477, 0.026827305555343628, -0.24866078794002533, 0.11669617891311646, 0.0770549550652504, -0.06966742128133774, 0.10391562432050705, 0.03655797243118286, 0.10476704686880112, 0.011274967342615128, -0.04475536569952965, -0.03842633590102196, 0.00878775492310524, -0.09626512974500656, 0.06944016367197037, -0.058663833886384964, 0.17977280914783478, 0.17431682348251343, -0.08514541387557983, -0.18797381222248077, 0.14973245561122894, 0.0700690746307373, -0.04796864092350006], [0.13545097410678864, 0.06988605111837387, -0.11189654469490051, 0.1413651406764984, 0.17562545835971832, -0.08898097276687622, 0.0523449182510376, -0.07699425518512726, 0.1403622180223465, -0.02164219506084919, 0.020427081733942032, -0.04033340513706207, -0.20691215991973877, -0.08918969333171844, -0.03114822506904602, 0.07965776324272156, 0.07143010199069977, -0.018792476505041122, -0.0037334340158849955, 0.0634944885969162, 0.06414689868688583, 0.0432589165866375, -0.10942388325929642, 0.026933645829558372, -0.02689392678439617, -0.03141958266496658, -0.24172593653202057, -0.09971761703491211, -0.3041103184223175, 0.06481337547302246, 0.07189851999282837, 0.040236618369817734, 0.03080037795007229, -0.06088533625006676, -0.18345439434051514, -0.07793426513671875, 0.17238736152648926, -0.08645498752593994, -0.032336533069610596, 0.13262760639190674, 0.05091122165322304, 0.0019260018598288298, -0.12582923471927643, -0.07792071998119354, 0.00664751511067152, 0.12114227563142776, -0.0026903506368398666, -0.04193981736898422, -0.09710527956485748, 0.10089199244976044, -0.02403191663324833, -0.040348250418901443, 0.09371501207351685, 0.10337468981742859, 0.005711481906473637, -0.07288406044244766, 0.16499608755111694, 0.020256055518984795, -0.11151266098022461, -0.009410375729203224, 0.0003567029780242592, 0.07319101691246033, 0.025912011042237282, 0.06799083948135376, -0.10644711554050446, 0.18847860395908356, 0.028295116499066353, 0.13347963988780975, -0.15904350578784943, 0.01204106118530035, 0.001709542004391551, 0.03291686251759529, 0.0768759697675705, -0.028716685250401497, 0.1714390367269516, -0.09842677414417267, -0.07829567044973373, 0.05284019932150841, 0.15467436611652374, 0.1189466193318367, 0.008899666368961334, -0.06634612381458282, -0.10643168538808823, 0.08216673880815506, -0.17832142114639282, -0.027387674897909164, 0.0005540348356589675, -0.05560870096087456, -0.012836473062634468, -0.08721800148487091, -0.10315325856208801, 0.03164757043123245, 0.19732709228992462, 0.00455457391217351, 0.04656423255801201, -0.03614033758640289, 0.37342557311058044, -0.034457240253686905, 0.14149388670921326, 0.0823047012090683, 0.05616026371717453, 0.057140469551086426, 0.2508545517921448, -0.012823034077882767, 0.12907931208610535, -0.0053339810110628605, 0.09091745316982269, 0.04603281244635582, 0.025880156084895134, -0.14193296432495117, 0.013030639849603176, 0.12105365842580795, 0.012571216560900211, -0.02833210490643978, -0.05575967952609062, -0.1906907707452774, 0.11210207641124725, -0.08352740854024887, -0.041840340942144394, -0.13337497413158417, 0.08819076418876648, 0.11608567833900452, 0.007495972327888012, 0.02982226014137268, -0.04895429313182831, -0.0908384919166565, 0.012950570322573185, -0.12560135126113892], [-0.015747245401144028, 0.06304106116294861, 0.04575541615486145, -0.2300201803445816, 0.06543223559856415, 0.0066828313283622265, -0.11931680142879486, 0.06827360391616821, 0.1889403611421585, 0.11191336810588837, -0.06431747227907181, 0.05128023773431778, 0.04315274581313133, -0.08857295662164688, 0.018587011843919754, 0.020954562351107597, -0.05518864095211029, 0.0586150661110878, -0.01067541353404522, -0.07880882173776627, 0.1670304834842682, -0.10167189687490463, -0.04955580458045006, -0.10665079206228256, -0.09843345731496811, 0.03338390961289406, 0.11560123413801193, 0.004403640050441027, -0.09477721154689789, 0.029177648946642876, 0.017437955364584923, 0.023382192477583885, 0.034824859350919724, 0.029993169009685516, -0.0313565731048584, -0.05779546871781349, -0.06856332719326019, -0.05510610714554787, -0.021989181637763977, 0.014251934364438057, -0.04968254640698433, -0.022966211661696434, -0.1318047195672989, 0.11399199813604355, 0.07310084998607635, -0.011695674620568752, -0.14947323501110077, 0.15263761579990387, -0.10493142157793045, 0.136023610830307, 0.17320533096790314, -0.04336366429924965, -0.03416473791003227, -0.09227772057056427, -0.008630020543932915, 0.1478223204612732, 0.18738296627998352, 0.06817778944969177, -0.06095246225595474, -0.1188540980219841, 0.047427862882614136, -0.003103414783254266, -0.027649836614727974, -0.048365913331508636, 0.08240555971860886, 0.022390825673937798, -0.061963874846696854, -0.0024777627550065517, -0.14540036022663116, -0.004560863133519888, 0.026255058124661446, -0.09654377400875092, -0.005373287945985794, 0.16841693222522736, 0.14019860327243805, -0.22320112586021423, -0.06041109934449196, 0.06299682706594467, 0.09558670967817307, -0.005809105932712555, 0.22129951417446136, 0.1275796741247177, -0.07861282676458359, 0.04094618186354637, 0.0008509238832630217, 0.05710534378886223, 0.13903288543224335, 0.02042108029127121, 0.028836550191044807, -0.09772903472185135, -0.16483081877231598, 0.10770662128925323, -0.1248210072517395, 0.24035470187664032, 0.05570794641971588, 0.04492669552564621, 0.0556970089673996, -0.06012103706598282, 0.07765623182058334, 0.07100115716457367, -0.1564580500125885, -0.039849407970905304, 0.02246120572090149, 0.04245405271649361, -0.23546600341796875, 0.04176769778132439, -0.21779710054397583, 0.05384408310055733, -0.08483948558568954, 0.05145666375756264, 0.02545110695064068, 0.04414210841059685, -0.17695732414722443, -0.06069854646921158, 0.006371770519763231, -0.108689084649086, 0.24043522775173187, 0.13127408921718597, 0.18920285999774933, -0.059110429137945175, -0.0479612797498703, -0.03319712355732918, -0.08353812992572784, 0.11139613389968872, 0.05373910441994667, -0.11134108901023865, 0.1628371924161911, 0.10568096488714218], [0.04933915659785271, -0.1330321580171585, 0.015153404325246811, 0.38511741161346436, 0.06621427834033966, 0.017519474029541016, 0.0700579434633255, -0.01122786570340395, -0.08509379625320435, -0.06093002110719681, -0.04279203712940216, -0.05143941566348076, 0.032228127121925354, -0.004612993914633989, -0.06263315677642822, 0.07518263906240463, 0.18397808074951172, 0.10114214569330215, 0.10639914125204086, -0.008000762201845646, 0.13751889765262604, -0.04498140886425972, -0.14602380990982056, -0.00037535629235208035, -0.18137121200561523, 0.1574486494064331, -0.1836388111114502, -0.03217528387904167, -0.024539796635508537, -0.03374378755688667, 0.1572587639093399, -0.08686094731092453, 0.06673461198806763, -0.11756379157304764, -0.13471128046512604, -0.15842482447624207, 0.01788521371781826, 0.09118612110614777, -0.05800168961286545, 0.011073295027017593, 0.15563474595546722, -0.06250038743019104, 0.010762890800833702, -0.0675276443362236, 0.15561062097549438, 0.05050353333353996, 0.02561393566429615, 0.04632679373025894, -0.05660912021994591, -0.0204458124935627, 0.008272645995020866, 0.02141064591705799, 0.08109203726053238, 0.27904772758483887, -0.04220845177769661, 0.08152864873409271, -0.048261284828186035, 0.021511122584342957, -0.004757712595164776, 0.03063761256635189, -0.16451695561408997, -0.046202629804611206, -0.036048393696546555, 0.07846757769584656, 0.042720869183540344, 0.00775652751326561, 0.012394261546432972, 0.020288608968257904, 0.030506446957588196, -0.07747337222099304, 0.04792952910065651, 0.1531650573015213, 0.04954250529408455, 0.0776372104883194, 0.1672787070274353, 0.006534577812999487, 0.021436452865600586, -0.22792650759220123, 0.04287674278020859, -0.13053719699382782, -0.1097366213798523, -0.2099621593952179, -0.0981515571475029, 0.13397951424121857, -0.008836938999593258, 0.05965335667133331, -0.12953539192676544, 0.19860705733299255, 0.09645506739616394, -0.015747513622045517, 0.09686171263456345, -0.029654061421751976, -0.14614476263523102, 0.027230573818087578, 0.12390530854463577, -0.16730380058288574, 0.06749359518289566, 0.05032172054052353, 0.05993747338652611, 0.13826356828212738, 0.03395753353834152, 0.046153049916028976, -0.20321783423423767, 0.09270304441452026, 0.11064083874225616, 0.02246646024286747, 0.15405488014221191, 0.06678802520036697, 0.13427355885505676, -0.05310898274183273, -0.003164500929415226, -0.11458024382591248, -0.010094494558870792, -0.05982449650764465, -0.03977278992533684, -0.11363813281059265, -0.21685689687728882, -0.0008145472966134548, 0.15851667523384094, -0.055913083255290985, -0.006600246764719486, -0.1202254444360733, -0.21626058220863342, -0.12451814115047455, 0.033833008259534836, -0.19986219704151154, -0.0696275606751442, -0.21414031088352203]], "down.3.weight": [[-0.17709881067276, -0.028358010575175285, 0.13395673036575317, -0.19331346452236176, 0.006626128684729338, -0.055955953896045685, 0.0071653383783996105, -0.010204823687672615, 0.007357764057815075, 0.06857575476169586, -0.10099632292985916, -0.10147134214639664, 0.07784942537546158, -0.009300818666815758, -0.10295923054218292, 0.07393210381269455, -0.016142353415489197, 0.02694658376276493, -0.1000061109662056, 0.08881679177284241, 0.024487167596817017, 0.041988592594861984, 0.10285099595785141, -0.060936275869607925, 0.14819775521755219, -0.03409814462065697, -0.033406082540750504, -0.07513812929391861, -0.08820104598999023, -0.11699606478214264, 0.1262652724981308, 0.037526268512010574, 0.040903352200984955, -0.006064454559236765, -0.06112910434603691, 0.012790490873157978, -0.04001937434077263, -0.15580879151821136, 0.12133169919252396, 0.04668905958533287, 0.0048732031136751175, -0.1256778985261917, -0.1315033882856369, 0.06660616397857666, -0.058296289294958115, -0.14193035662174225, 0.13553789258003235, 0.1271018087863922, -0.019965965300798416, 0.1333623230457306, -0.14408399164676666, 0.015188037417829037, -0.02405679225921631, -0.09527479112148285, 0.027325186878442764, 0.03217529505491257, 0.15774360299110413, 0.04024944826960564, 0.028639549389481544, -0.07519548386335373, -0.05999389663338661, 0.10095266997814178, -0.10796073079109192, 0.011278222315013409, -0.033599380403757095, -0.010628367774188519, -0.011214959435164928, 0.11479274183511734, 0.050552863627672195, -0.021182306110858917, 0.04632954299449921, -0.06200988218188286, 0.05431661754846573, -0.0268788430839777, -0.015525689348578453, 0.05804874747991562, 0.01448951754719019, 0.06825441122055054, 0.031664375215768814, 0.03810504823923111, 0.05123284459114075, 0.12697745859622955, -0.00615055812522769, -0.11022935062646866, 0.10884428769350052, -0.056178200989961624, 0.012573500163853168, -0.036712221801280975, -0.021080784499645233, -0.07600703835487366, -0.0036092419177293777, -0.14440590143203735, 0.12300126999616623, 0.034583982080221176, -0.04216181859374046, -0.04758758842945099, 0.04679908975958824, 0.03462975099682808, 0.04888346418738365, -0.0911954790353775, -0.023745527490973473, -0.01484847255051136, -0.12517639994621277, 0.07027826458215714, 0.007834560237824917, 0.01712304912507534, 0.00017841742374002934, -0.0525650791823864, 0.020729243755340576, -0.046750329434871674, -0.030508842319250107, 0.06809866428375244, 0.1435931771993637, 0.013828354887664318, -0.11865882575511932, -0.056410349905490875, -0.0811428651213646, 0.009443686343729496, 0.106993168592453, 0.0029484459664672613, 0.05286791920661926, 0.1042201966047287, -0.14587995409965515, -0.08863869309425354, -0.062229204922914505, 0.04049378260970116, -0.00781403761357069, -0.1503560096025467], [0.07094312459230423, -0.02279428020119667, -0.011568709276616573, -0.06805542856454849, 0.09999355673789978, 0.22929437458515167, -0.24270054697990417, -0.1081794798374176, -0.12619416415691376, -0.0460861437022686, 0.12250317633152008, 0.03249154984951019, 0.07521042972803116, -0.05159207060933113, 0.015617882832884789, -0.11420100182294846, -0.22681789100170135, 0.057730238884687424, 0.06712659448385239, -0.13167035579681396, 0.2163131982088089, 0.1008177325129509, 0.1270853579044342, 0.018180185928940773, 0.0027572510298341513, 0.03812437504529953, -0.08140972256660461, 0.09940358251333237, 0.02217037044465542, -0.007367055397480726, -0.0735863596200943, -0.14215262234210968, -0.09580313414335251, 0.005424372386187315, -0.1974370777606964, -0.03387423977255821, 0.0474083311855793, -0.05379268154501915, 0.10456372052431107, -0.053805287927389145, -0.0482170544564724, -0.18425041437149048, -0.004711340647190809, -0.027171947062015533, 0.10016164928674698, -0.10327914357185364, 0.018390554934740067, -0.12722380459308624, -0.06868643313646317, 0.14011473953723907, -0.15505990386009216, -0.09431824088096619, -0.1216428205370903, 0.09189271181821823, 0.09378066658973694, 0.08000074326992035, -0.05016546696424484, 0.12242850661277771, 0.019943756982684135, -0.12400125712156296, 0.05327966809272766, 0.06548827141523361, 0.056845784187316895, -0.12920598685741425, 0.05758795142173767, -0.09991181641817093, -0.017638882622122765, -0.015738442540168762, 0.13119074702262878, 0.09298603236675262, 0.06672468781471252, 0.0686979740858078, 0.007806101813912392, -0.03791933134198189, -0.054512374103069305, -0.05565766990184784, -0.1895412653684616, -0.07041896879673004, 0.0726354718208313, 0.10486799478530884, 0.19733993709087372, 0.000926331034861505, 0.01600436493754387, 0.11103945970535278, 0.01158378180116415, 0.09127266705036163, -0.056597303599119186, 0.054946452379226685, 0.020899638533592224, 0.03329237923026085, 0.08573818951845169, 0.028468267992138863, -0.15481707453727722, -0.1512058973312378, 0.1499534547328949, 0.04748562350869179, -0.06298647820949554, -0.04843445122241974, -0.022904710844159126, 0.01416606642305851, -0.04249570891261101, -0.004943005740642548, 0.117308109998703, -0.06597429513931274, 0.09719058871269226, -0.009943675249814987, -0.0297378096729517, 0.024260886013507843, -0.1014748141169548, -0.07163190841674805, -0.008023260161280632, -0.0458502396941185, -0.21044407784938812, 0.027762312442064285, 0.16875864565372467, -0.10799932479858398, -0.0018604436190798879, -0.12330053746700287, -0.07406900823116302, -0.0973975658416748, -0.026104550808668137, -0.056329574435949326, 0.07202832400798798, -0.07134071737527847, -0.06365396082401276, 0.017358556389808655, 0.11536990851163864, 0.10840141773223877], [0.10025337338447571, -0.08808215707540512, 0.06487083435058594, -0.17134523391723633, -0.1272558867931366, -0.07049249857664108, 0.018559567630290985, 0.03270678222179413, -0.006071742624044418, 0.009637637995183468, 0.04937756806612015, -0.05970511585474014, -0.05122923105955124, -0.09545233100652695, 0.2325982004404068, -0.0013449566904455423, 0.03441132232546806, 0.09340442717075348, -0.02285071462392807, -0.0005921932170167565, 0.019250350072979927, -0.01698288321495056, 0.12401092797517776, 0.1686345487833023, 0.10557388514280319, -0.05034004524350166, -0.18016508221626282, 0.06176939234137535, 0.03920873627066612, 0.09871061146259308, -0.027202336117625237, -0.12672129273414612, -0.03387698531150818, -0.06555894762277603, -0.06595039367675781, -0.06704211235046387, -0.08369855582714081, -0.10395064949989319, -0.02577759511768818, 0.192767933011055, -0.12625519931316376, -0.026480242609977722, 0.045301403850317, 0.07750950753688812, 0.11480654776096344, -0.0018236566102132201, 0.1811608374118805, -0.014366297982633114, -0.09214041382074356, -0.0682138130068779, -0.15696300566196442, -0.1228368952870369, -0.12680235505104065, 0.0038664417807012796, 0.03997568413615227, -0.16628330945968628, -0.046147070825099945, 0.16018728911876678, 0.031445927917957306, 0.025699488818645477, -0.17789079248905182, -0.015573900192975998, -0.01459286455065012, -0.03175276890397072, -0.045044559985399246, -0.046679846942424774, 0.14533518254756927, 0.24762298166751862, -0.09001514315605164, -0.008707830682396889, -0.04935459420084953, -0.050178028643131256, -0.008091229945421219, 0.10672267526388168, -0.26182645559310913, -0.06367665529251099, -0.0951593816280365, 0.1970217525959015, 0.08229908347129822, 0.13215552270412445, 0.12858636677265167, -0.1601666361093521, 0.1669454127550125, -0.012929235585033894, -0.0472882017493248, -0.019045967608690262, 0.06557750701904297, 0.11788339912891388, -0.10115543752908707, 0.17922915518283844, -0.034455619752407074, 0.13782255351543427, 0.051154326647520065, 0.20420469343662262, 0.11276327073574066, 0.13908927142620087, 0.17048601806163788, -0.020914506167173386, -0.1267223358154297, -0.0046137054450809956, 0.1613050103187561, -0.19417403638362885, 0.033449314534664154, 0.05504944920539856, -0.0028210103046149015, -0.16466179490089417, -0.08817414939403534, 0.208156019449234, -0.14313702285289764, -0.05705847218632698, -0.08188264071941376, 0.003271973691880703, -0.21795456111431122, 0.04708202928304672, -0.028364425525069237, -0.11081744730472565, -0.012961207889020443, 0.10468516498804092, -0.036614179611206055, -0.03084651753306389, 0.014971339143812656, -0.039343442767858505, -0.12293752282857895, -0.0739007443189621, 0.14361418783664703, 0.1651386320590973, 0.16394798457622528, -0.0342700257897377], [0.22507484257221222, 0.020286059007048607, 0.09190621227025986, -0.058101218193769455, 0.13489864766597748, -0.1390489637851715, -0.07285825163125992, 0.1270185261964798, 0.1478114277124405, -0.19314603507518768, 0.07439906895160675, 0.036592401564121246, 0.05095374584197998, -0.029774975031614304, 0.08798256516456604, -0.010282889008522034, -0.01207031961530447, -0.13068988919258118, 0.11342155188322067, 0.01643379032611847, 0.13435254991054535, -0.3355409502983093, 0.003721511922776699, 0.04813789576292038, 0.125392347574234, -0.009525238536298275, 0.2567894756793976, 0.07255569845438004, 0.08209338039159775, 0.1562633365392685, 0.20382335782051086, -0.059681594371795654, -0.04363395273685455, 0.07992123067378998, -0.007154586259275675, -0.13295209407806396, 0.014525008387863636, 0.017579300329089165, -0.07411594688892365, -0.25742456316947937, -0.08311866223812103, 0.06076224520802498, 0.06160736456513405, -0.029203401878476143, -0.04842840135097504, -0.2202489823102951, 0.06549672782421112, -0.1560291200876236, 0.003659623209387064, 0.023601794615387917, 0.11361012607812881, 0.0364534966647625, -0.01895756833255291, -0.049091532826423645, 0.05798120051622391, -0.08890295028686523, -0.10754590481519699, 0.062139276415109634, 0.004832379054278135, 0.030890101566910744, -0.10423122346401215, 0.0405077189207077, 0.03820984065532684, 0.007216675207018852, -0.05725068226456642, 0.10996826738119125, 0.028947820886969566, -0.07328419387340546, -0.14058645069599152, -0.19177764654159546, -0.05944490432739258, 0.23000021278858185, 0.0381002239882946, 0.06937821209430695, 0.09773257374763489, -0.13755114376544952, -0.08830975741147995, -0.019670970737934113, 0.20082713663578033, 0.03416047990322113, 0.20976397395133972, 0.1603892743587494, 0.007063059601932764, 0.0655159056186676, 0.13123250007629395, -0.031152065843343735, -0.011961941607296467, 0.03724467381834984, 0.07805593311786652, 0.04258988797664642, -0.020285027101635933, -0.048305295407772064, -0.040890004485845566, -0.00756564736366272, -0.12326417863368988, -0.0008585835457779467, -0.10338950902223587, -0.05564255267381668, 0.09625457227230072, 0.15892541408538818, 0.10828433185815811, -0.0675654336810112, -0.009662332013249397, 0.03374408930540085, 0.07931220531463623, -0.02876671962440014, 0.11465026438236237, -0.15346696972846985, 0.10928596556186676, -0.0833129733800888, 0.0341668464243412, -0.046725671738386154, -0.004253256134688854, 0.07299983501434326, 0.006700639147311449, -0.08602473884820938, -0.03625224158167839, -0.08452307432889938, -0.03517396003007889, -0.06267285346984863, 0.138438418507576, -0.04622403159737587, 0.13793586194515228, -0.14544376730918884, 0.025720715522766113, -0.09649739414453506, 0.15869204699993134, 0.02746995911002159], [0.25341737270355225, 0.11731470376253128, -0.007660549134016037, 0.06704258173704147, 0.014243781566619873, 0.014288166537880898, 0.02137303538620472, 0.02934231050312519, 0.1234753206372261, -0.09825399518013, -0.006725278217345476, -0.015434552915394306, -0.0005861707613803446, 0.02691180258989334, -0.029006101191043854, -0.10696223378181458, 0.012885484844446182, -0.11905127763748169, 0.09527719765901566, 0.10917311906814575, -0.11304643005132675, 0.07514362782239914, -0.022802213206887245, -0.0881054475903511, -0.00843329168856144, 0.02238515578210354, -0.07586658000946045, -0.17404459416866302, -0.01061645895242691, -0.30802884697914124, 0.16539886593818665, 0.05106985941529274, 0.057710058987140656, -0.11313606798648834, 0.07512780278921127, 0.1068257987499237, -0.01937173493206501, 0.05432829260826111, -0.03215094655752182, 0.024429991841316223, 0.056503262370824814, -0.06312749534845352, -0.07843591272830963, -0.10039684176445007, 0.03396258130669594, -0.15106290578842163, -0.1165207102894783, -0.07717616856098175, -0.11279498785734177, 0.05226074159145355, 0.16177956759929657, 0.029349349439144135, 0.19534902274608612, -0.030554037541151047, -0.037322841584682465, 0.10366924107074738, -0.09032337367534637, -0.038978204131126404, 0.053476732224226, 0.0423654168844223, 0.034871045500040054, -0.007424004375934601, -0.11322469264268875, 0.10382749885320663, -0.12641984224319458, -0.07735653966665268, -0.16851919889450073, 0.026919027790427208, 0.02129487320780754, -0.06588771939277649, 0.046871118247509, -0.002146330662071705, -0.032901689410209656, -0.16963137686252594, 0.18734946846961975, 0.0023160239215940237, 0.08080249279737473, 0.1602388173341751, -0.030777458101511, -0.02583410032093525, -0.03354936093091965, 0.17195798456668854, -0.02745959162712097, -0.020164594054222107, -0.08062887191772461, -0.0075402697548270226, -0.025048917159438133, -0.0869249477982521, -0.06307461112737656, 0.020770695060491562, -0.03197895735502243, -0.0021449679043143988, 0.036975327879190445, -0.10028363019227982, -0.32948461174964905, -0.13535352051258087, 0.01947118528187275, 0.04203085973858833, 0.16759972274303436, -0.07790728658437729, -0.03725332021713257, -0.206208735704422, 0.09600943326950073, -0.01175801269710064, 0.17750610411167145, 0.044516317546367645, 0.13015054166316986, 0.09658065438270569, 0.011472650803625584, 0.25536876916885376, -0.011056961491703987, -0.05347791686654091, 0.024852078408002853, -0.08205869793891907, -0.24340221285820007, -0.18109014630317688, -0.05387897044420242, -0.05353564769029617, 0.09892669320106506, -0.016940904781222343, 0.02605585567653179, -0.04191158711910248, -0.015707463026046753, 0.10514523088932037, -0.19240038096904755, -0.14910496771335602, 0.12904562056064606, -0.10729971528053284], [0.05613229051232338, -0.007777612656354904, 0.03710802644491196, 0.22015847265720367, 0.015902206301689148, -0.35527968406677246, -0.0702274963259697, 0.07195500284433365, 0.1240917220711708, -0.005215129349380732, -0.07867904752492905, -0.06333871185779572, 0.14226442575454712, 0.07159830629825592, -0.14189961552619934, -0.07846105843782425, -0.1820518672466278, -0.022305941209197044, -0.08396434038877487, 0.007201898843050003, -0.024225948378443718, -0.22343862056732178, 0.18260988593101501, -0.1908249855041504, 0.0427355132997036, 0.09000401198863983, 0.05713216960430145, -0.025356989353895187, 0.002453550463542342, -0.17771843075752258, 0.10170202702283859, 0.2262193262577057, 0.0692029818892479, -0.10555930435657501, -0.08214861899614334, -0.005968445912003517, 0.08206133544445038, 0.13861863315105438, 0.14293412864208221, 0.11323254555463791, -0.05936180800199509, 0.09958270937204361, 0.10223264992237091, -0.005291961599141359, 0.025356164202094078, -0.07263053953647614, -0.06824047118425369, 0.03584728762507439, -0.03532734513282776, 0.047895658761262894, 0.028482621535658836, -0.09173808246850967, -0.09731584042310715, -0.12480528652667999, -0.10365225374698639, 0.10251007974147797, 0.030392728745937347, -0.07423795759677887, -0.057168059051036835, -0.008362078107893467, 0.1411130428314209, -0.030062707141041756, -0.02467251755297184, 0.1151784360408783, -0.01485765166580677, -0.0422506183385849, -0.05830448120832443, -0.026516584679484367, -0.07533257454633713, 0.10829023271799088, -0.07769843190908432, -0.061857692897319794, -0.05175887793302536, -0.1590835601091385, 0.1206265538930893, 0.006509194616228342, -0.024078574031591415, -0.1454039365053177, 0.20824448764324188, -0.048548147082328796, -0.061419930309057236, 0.046664223074913025, 0.18509915471076965, 0.07724015414714813, -0.17706941068172455, -0.11145186424255371, -0.1445084512233734, -0.01771624945104122, -0.11680301278829575, -0.11973054707050323, 0.11347581446170807, -0.028398985043168068, -0.11227738112211227, -0.04397406056523323, -0.0870494619011879, -0.12591932713985443, 0.2077464610338211, 0.13633915781974792, 0.1543063074350357, -0.11416096985340118, 0.06157364323735237, 0.012257512658834457, 0.18112684786319733, -0.004490084480494261, 0.0687776505947113, -0.06818880885839462, -0.011121816001832485, 0.05642936751246452, 0.11805158108472824, -0.028258804231882095, 0.10546500235795975, 0.16588574647903442, -0.030251823365688324, 0.02845020964741707, -0.027153104543685913, 0.029161781072616577, 0.07549896091222763, 0.03230132535099983, 0.09295850247144699, 0.09867632389068604, 0.12810750305652618, -0.09034254401922226, 0.09325404465198517, 0.031064055860042572, -0.07275892794132233, -0.07350976765155792, -0.04155422002077103, 0.04855843633413315], [0.19992245733737946, -0.08681230247020721, 0.026138661429286003, 0.22470064461231232, 0.0024741939269006252, -0.17691080272197723, 0.06830423325300217, -0.08583778142929077, 0.06877429038286209, -0.06708966195583344, -0.03864182159304619, -0.06337839365005493, -0.04435021057724953, -0.0027908729389309883, 0.0894414484500885, -0.04433135315775871, -0.04551225155591965, 0.0005452472250908613, 0.049304816871881485, 0.13162070512771606, 0.0418420135974884, -0.18756698071956635, -0.013542303815484047, 0.03809183090925217, -0.1849815845489502, -0.04075229912996292, 0.0010088112903758883, 0.11123446375131607, -0.033578407019376755, -0.11728024482727051, 0.22684161365032196, 0.11727564036846161, 0.036618877202272415, 0.021178264170885086, -0.0037352098152041435, -0.06006379798054695, 0.005758445709943771, 0.0801742821931839, 0.01759975776076317, 0.01562969945371151, 0.039763644337654114, -0.010311441496014595, 0.0035091834142804146, -0.048140719532966614, 0.1308910846710205, 0.07319057732820511, 0.07571836560964584, -0.011539564467966557, -0.10520316660404205, 0.09035619348287582, -0.008048092015087605, -0.10594489425420761, -0.16306932270526886, 0.0014345167437568307, 0.10346724838018417, -0.11382443457841873, 0.02386385202407837, -0.022267453372478485, 0.13647784292697906, 0.08856634050607681, -0.006664428394287825, -0.03384215012192726, 0.0469982884824276, 0.19122903048992157, -0.05466340109705925, -0.11989719420671463, 0.015944214537739754, -0.09806817770004272, -0.07636348903179169, 0.0038660140708088875, -0.1800416260957718, 0.02807493880391121, -0.03215809911489487, 0.0018318499205633998, 0.054733969271183014, 0.06835152953863144, -0.07463185489177704, -0.026073366403579712, 0.06211504340171814, -0.035126879811286926, 0.1658458262681961, -0.009681448340415955, -0.0054176789708435535, 0.12063048779964447, -0.03877747803926468, -0.05270620808005333, 0.07561007142066956, 0.024849265813827515, -0.07003982365131378, -0.09935332834720612, 0.03159854933619499, 0.14144685864448547, -0.04162466526031494, 0.02007490023970604, -0.029493536800146103, -0.1609065681695938, -0.08618062734603882, -0.05885446071624756, -0.015521747060120106, -0.08869479596614838, 0.21523486077785492, -0.0026213708333671093, 0.04867829009890556, -0.050726551562547684, 0.015891972929239273, -0.023607635870575905, -0.11473497748374939, 0.060747116804122925, 0.08195479959249496, 0.026194782927632332, -0.10176350176334381, 0.07600211352109909, -0.008765325881540775, -0.12636937201023102, 0.0004993889015167952, 0.045378487557172775, 0.08492279052734375, -0.06783328205347061, -0.06043528392910957, 0.05222634971141815, 0.021001741290092468, 0.030988117679953575, -0.006105788517743349, -0.040513936430215836, -0.03387470170855522, -0.0684681311249733, 0.04522319138050079, 0.062383897602558136], [-0.025028226897120476, 0.043458111584186554, 0.021525131538510323, -0.09061580151319504, 0.09365728497505188, 0.09437543898820877, 0.21530482172966003, -0.19862718880176544, 0.031033482402563095, 0.05373087897896767, 0.1376393437385559, 0.11242331564426422, -0.002526325173676014, 0.0600067675113678, 0.08782119303941727, 0.14505544304847717, -0.009453357197344303, 0.10136731714010239, -0.03958207368850708, -0.04050512984395027, 0.025322798639535904, 0.10094211250543594, -0.023003650829195976, -0.08345622569322586, -0.08059383928775787, -0.03182750195264816, 0.1076454371213913, 0.10207565873861313, -0.12457185983657837, -0.029811296612024307, -0.20434963703155518, -0.08461754769086838, -0.012871590442955494, 0.10447279363870621, -0.0409054160118103, -0.09273815900087357, -0.07095462828874588, -0.1387178599834442, -0.07162962108850479, 0.05065840110182762, 0.1271945983171463, -0.11414298415184021, 0.016596989706158638, 0.0069959573447704315, -0.019175533205270767, 0.05252667888998985, 0.04903466999530792, -0.015025247819721699, -0.04319559782743454, 0.008996685966849327, 0.0013207908486947417, -0.0003459115687292069, -0.04717060178518295, 0.2808438539505005, -0.03464416787028313, 0.024716917425394058, 0.038116514682769775, 0.046056486666202545, 0.09958434104919434, -0.07375326752662659, 0.06054108217358589, -0.07225807011127472, -0.02703857421875, 0.008525746874511242, 0.09247719496488571, 0.10726761072874069, 0.0009719850495457649, -0.1278342455625534, 0.21590304374694824, 0.046415265649557114, -0.06399035453796387, -0.0322653092443943, 0.049830395728349686, 0.027267422527074814, 0.10471939295530319, 0.03558789938688278, -0.09763814508914948, -0.08770386874675751, -0.09090892225503922, 0.07186580449342728, 0.10427138209342957, -0.008614138700067997, -0.027357114478945732, 0.10782400518655777, 0.02422306500375271, 0.08656866103410721, 0.09945058822631836, 0.002751888008788228, -0.03764086216688156, -0.07129808515310287, -0.10525847226381302, -0.045854661613702774, -0.01129084825515747, -0.06088872253894806, 0.009365587495267391, -0.06978840380907059, -0.14842359721660614, -0.13778464496135712, -0.18698136508464813, -3.737549559446052e-05, -0.029186684638261795, 0.1499379426240921, 0.07955805957317352, -0.08077113330364227, -0.062058236449956894, -0.005393956322222948, -0.05752594769001007, 0.08336283266544342, 0.020699715241789818, -0.04389383643865585, -0.0084273312240839, -0.13432501256465912, -0.0027122735045850277, -0.03876926377415657, 0.09574533253908157, 0.09109248220920563, 0.056185927242040634, 0.05432097241282463, 0.05903511866927147, -0.07334188371896744, -0.147825688123703, 0.03141254186630249, -0.02909088134765625, -0.03138174116611481, 0.052626922726631165, 0.05693535506725311, -0.09049379080533981, 0.006189220584928989]], "up.0.weight": [[0.1614399552345276, 0.16230647265911102, 0.02058779075741768, 0.2877853512763977, 0.0807003602385521, -0.23339347541332245, 0.4584740996360779, -0.027767157182097435], [-0.047404538840055466, -0.1587606966495514, -0.05275532975792885, -0.27389439940452576, 0.08190139383077621, 0.09553638100624084, 0.45835942029953003, 0.05019136890769005], [-0.34400665760040283, -0.1964678019285202, -0.12103398889303207, -0.23026129603385925, 0.009236489422619343, -0.32967448234558105, -0.08013888448476791, -0.13187973201274872], [-0.25677961111068726, -0.24284744262695312, 0.030732832849025726, 0.23509563505649567, 0.008362057618796825, -0.7505599856376648, -0.1037602499127388, 0.21066324412822723], [0.053225934505462646, -0.009512953460216522, -0.16515107452869415, 0.12968817353248596, -0.3173278272151947, -0.1395660638809204, -0.08191945403814316, 0.1277080923318863], [0.034285370260477066, -0.026431594043970108, -0.32624000310897827, 0.22837862372398376, 0.004467955324798822, 0.33738645911216736, 0.001275296206586063, 0.008962149731814861], [0.2950769364833832, 0.07260383665561676, 0.16677740216255188, -0.1992277204990387, 0.42511358857154846, -0.17372624576091766, 0.1382012814283371, 0.41203218698501587], [0.03542062267661095, 0.022854013368487358, -0.18048270046710968, 0.12154694646596909, 0.2705838978290558, -0.28974035382270813, -0.13320966064929962, -0.05474162474274635], [-0.2315644770860672, -0.038729067891836166, -0.42043378949165344, 0.0758303701877594, 0.27846160531044006, 0.16994255781173706, -0.22749526798725128, 0.1504620611667633], [-0.2801554501056671, -0.20377156138420105, 0.148380845785141, -0.03478796035051346, 0.19749613106250763, -0.1335047036409378, 0.037434425204992294, -0.14753904938697815], [-0.2775915861129761, -0.20111188292503357, -0.03599700331687927, -0.17101839184761047, 0.11329949647188187, 0.0361475832760334, 0.045213572680950165, -0.18032991886138916], [0.12447593361139297, -0.21304857730865479, 0.0077538155019283295, 0.017910834401845932, 0.22039790451526642, -0.07825253158807755, 0.004980441182851791, -0.27126333117485046], [0.14466150104999542, 0.4173702597618103, 0.11854998022317886, -0.2720138728618622, 0.06456092745065689, -0.04934123903512955, 0.19877809286117554, 0.1713852882385254], [-0.09633737057447433, 0.08522253483533859, 0.14640340209007263, -0.2911357581615448, -0.26360854506492615, -0.36194705963134766, 0.2851520776748657, 0.13462840020656586], [-0.15940254926681519, 0.031784046441316605, -0.05143161118030548, -0.02406650222837925, -0.010544231161475182, 0.04066760838031769, -0.10774845629930496, 0.2516621947288513], [0.1541910469532013, -0.20424389839172363, 0.11150018125772476, 0.02431361749768257, 0.40742555260658264, 0.3694267272949219, 0.2985542416572571, 0.38616272807121277], [-0.43745166063308716, 0.02970137819647789, -0.22243736684322357, -0.007847093977034092, 0.13441194593906403, 0.2699339687824249, 0.03830241039395332, 0.11013810336589813], [-0.12503227591514587, -0.10609544813632965, -0.11573250591754913, -0.2669259011745453, 0.08733423799276352, -0.1390891671180725, 0.13691747188568115, 0.16958723962306976], [0.23542271554470062, 0.2692111134529114, -0.2777303457260132, 0.25521257519721985, 0.38457733392715454, 0.16437533497810364, -0.011898159049451351, 0.43072590231895447], [-0.06306932121515274, -0.009005594067275524, 0.05852649733424187, 0.18354837596416473, 0.1478937417268753, -0.008066708222031593, -0.1187625452876091, -0.19159585237503052], [-0.08284726738929749, 0.004427753388881683, -0.3670412302017212, -0.18780159950256348, -0.30969125032424927, 0.46091166138648987, 0.21041369438171387, -0.3004381060600281], [-0.08243902027606964, -0.02996590919792652, 0.3084917962551117, -0.14431993663311005, -0.23491598665714264, 0.02626790665090084, -0.4100310206413269, 0.17409545183181763], [0.173773393034935, -0.3712456226348877, -0.22794471681118011, -0.03699849918484688, -0.007971893064677715, -0.2725747227668762, -0.03882701322436333, -0.3490615785121918], [-0.15481846034526825, -0.28272879123687744, -0.3360798954963684, 0.1194131076335907, -0.07376076281070709, -0.17346929013729095, 0.33866700530052185, -0.2788620591163635], [0.390058308839798, 0.2526523768901825, 0.46675533056259155, 0.058131374418735504, 0.1498894840478897, 0.28976595401763916, 0.07074269652366638, 0.08641878515481949], [-0.13952672481536865, 0.09108160436153412, 0.09921663254499435, 0.20340843498706818, -0.5075058937072754, 0.038809385150671005, -0.6422979235649109, 0.1030673235654831], [-0.19473016262054443, -0.06897735595703125, 0.13614831864833832, 0.26740649342536926, 0.4649634063243866, 0.5145344138145447, -0.04262988641858101, -0.12186913937330246], [0.26900339126586914, -0.13999493420124054, 0.09183534979820251, -0.31090959906578064, -0.18930251896381378, 0.4194876253604889, 0.166807159781456, -0.13361158967018127], [0.09292583912611008, -0.09893254190683365, 0.2878767251968384, -0.3298785090446472, 0.039987944066524506, 0.2861481010913849, 0.2427034080028534, -0.03697846084833145], [-0.13251067698001862, -0.014032019302248955, -0.056614119559526443, -0.18581070005893707, 0.13308236002922058, 0.21894130110740662, 0.1564488261938095, -0.12707945704460144], [0.15921296179294586, -0.14251168072223663, -0.2960607409477234, -0.16698981821537018, -0.03188871592283249, -0.3292872905731201, -0.060543492436409, 0.19404585659503937], [-0.05123560503125191, -0.13211052119731903, -0.046587321907281876, -0.16840384900569916, 0.07407283037900925, 0.0937085822224617, -0.1893148422241211, 0.17636236548423767], [0.2585647702217102, 0.07409273833036423, 0.44613486528396606, 0.4644505977630615, 0.0343906432390213, -0.026044795289635658, -0.0625079795718193, 0.31951743364334106], [-0.22544729709625244, -0.05147164687514305, -0.14376014471054077, 0.15261210501194, 0.1050775945186615, 0.3898722231388092, -0.17366433143615723, -0.31895938515663147], [0.02122480981051922, 0.3035912811756134, 0.26111292839050293, -0.11497390270233154, -0.28673282265663147, -0.1347752809524536, 0.018108652904629707, 0.11534161865711212], [0.23139026761054993, -0.008839031681418419, -0.17770396173000336, -0.33042433857917786, 0.5279422402381897, -0.16338041424751282, -0.4522313177585602, 0.12778611481189728], [0.06505559384822845, 0.07022470980882645, 0.1478700488805771, -0.22599928081035614, -0.09452664852142334, -0.1565799117088318, 0.1174573004245758, 0.13830961287021637], [-0.045702166855335236, 0.26419368386268616, 0.1433624029159546, 0.04513152688741684, -0.5884551405906677, 0.01594678685069084, -0.16572432219982147, -0.05645088106393814], [0.09199737012386322, -0.15881402790546417, -0.3516426086425781, -0.1083296686410904, -0.2534481883049011, 0.13476109504699707, 0.2342856228351593, -0.17416012287139893], [-0.21233974397182465, -0.3935506045818329, 0.1889747828245163, -0.3167486786842346, -0.12223153561353683, 7.401699258480221e-05, -0.00940651260316372, -0.22191445529460907], [0.20913957059383392, -0.042139146476984024, 0.3903807997703552, 0.34172213077545166, -0.030302202329039574, 0.03988027572631836, -0.3117792010307312, -0.062220606952905655], [0.11652486026287079, -0.3131493031978607, 0.14291410148143768, -0.26266154646873474, 0.26704463362693787, -0.1412692666053772, -0.1423364281654358, 0.00227024732157588], [0.053986333310604095, -0.2580641806125641, -0.04616348072886467, 0.2321597933769226, 0.018345480784773827, 0.10993039608001709, 0.3976190388202667, -0.11054279655218124], [0.11405222117900848, -0.08446721732616425, 0.17621752619743347, 0.2714179456233978, -0.3491811156272888, -0.1082570031285286, -0.16358008980751038, 0.01449268963187933], [0.14798901975154877, -0.1357085108757019, 0.08803536742925644, 0.12489426136016846, 0.2412138134241104, -0.4917456805706024, 0.13158050179481506, 0.16746608912944794], [-0.2113192230463028, 0.07512939721345901, -0.4719806909561157, -0.46706095337867737, -0.09239090234041214, -0.2537165582180023, -0.1257159411907196, -0.35350310802459717], [0.33322376012802124, 0.33496448397636414, 0.09270188957452774, -0.2297591269016266, 0.38977620005607605, 0.04395894706249237, 0.0056287492625415325, 0.027557065710425377], [-0.023576490581035614, 0.05989641696214676, 0.35371729731559753, -0.39896807074546814, -0.3646688163280487, 0.14699850976467133, 0.1382625848054886, 0.5354657769203186], [0.11983703821897507, 0.08929908275604248, -0.08364974707365036, 0.35576674342155457, 0.24058230221271515, -0.2200625240802765, -0.2086653709411621, 0.05058421194553375], [0.3309462368488312, -0.40458405017852783, -0.14491771161556244, -0.05805661529302597, 0.07914862781763077, -0.08153688162565231, -0.2216585874557495, -0.38450273871421814], [0.16454869508743286, 0.43030229210853577, 0.14697147905826569, 0.05805518478155136, -0.1002807542681694, -0.08598305284976959, 0.030191486701369286, 0.2017137110233307], [0.01479617040604353, -0.35500410199165344, -0.21483337879180908, 0.15524183213710785, -0.00797296967357397, -0.28819847106933594, 0.5707765817642212, -0.05000482499599457], [0.11820145696401596, 0.24039912223815918, -0.044737398624420166, -0.22094732522964478, 0.036071281880140305, -0.40626582503318787, -0.07816817611455917, -0.05516112968325615], [-0.051520440727472305, -0.032385241240262985, -0.04540224000811577, 0.04565250873565674, 0.15366895496845245, 0.3574519455432892, 0.282244473695755, -0.15939082205295563], [-0.26663124561309814, 0.27004796266555786, -0.31798437237739563, -0.19211368262767792, 0.08149121701717377, -0.20281797647476196, 0.03839120641350746, 0.08853767812252045], [0.04229342192411423, 0.15703794360160828, -0.028753872960805893, 0.40191975235939026, -0.056664615869522095, 0.45934396982192993, -0.19098401069641113, -0.05816815048456192], [-0.1484484076499939, 0.2526705265045166, 0.09504736214876175, -0.4597564935684204, -0.25389644503593445, -0.2501228451728821, -0.11001498997211456, 0.03825497254729271], [-0.25415676832199097, -0.047435108572244644, -0.07134503126144409, 0.1745968610048294, -0.14539586007595062, 0.32651543617248535, 0.041768740862607956, -0.013323919847607613], [0.08286241441965103, -0.10363910347223282, -0.08630724996328354, 0.14911958575248718, 0.15119001269340515, -0.2741081118583679, -0.04070187732577324, 0.07900302857160568], [-0.04926707223057747, -0.04060620069503784, 0.2783563435077667, 0.11431821435689926, 0.02267376147210598, -0.23868206143379211, -0.08649133890867233, 0.31489866971969604], [-0.6909220218658447, -0.3715325891971588, 0.24771767854690552, 0.04087459668517113, 0.4071813225746155, 0.1682874709367752, 0.014680125750601292, -0.22599932551383972], [-0.1461711972951889, -0.37231096625328064, 0.26687541604042053, 0.13606566190719604, -0.29409271478652954, 0.01588173769414425, 0.0345069020986557, 0.28786543011665344], [-0.20058093965053558, -0.38278475403785706, -0.10129962861537933, -0.1926148682832718, -0.40120720863342285, 0.22300276160240173, -0.16958117485046387, 0.06250286847352982], [-0.03922048583626747, -0.18815264105796814, 0.06471116840839386, 0.31146395206451416, -0.04207863286137581, -0.0026571517810225487, -0.07301042973995209, 0.20860856771469116], [-0.3336280286312103, 